FANN_FLO_2.1
num_layers=3
learning_rate=0.500000
connection_rate=1.000000
network_type=0
learning_momentum=0.000000
training_algorithm=2
train_error_function=1
train_stop_function=0
cascade_output_change_fraction=0.010000
quickprop_decay=-0.000100
quickprop_mu=1.750000
rprop_increase_factor=1.200000
rprop_decrease_factor=0.500000
rprop_delta_min=0.000000
rprop_delta_max=50.000000
rprop_delta_zero=0.100000
cascade_output_stagnation_epochs=12
cascade_candidate_change_fraction=0.010000
cascade_candidate_stagnation_epochs=12
cascade_max_out_epochs=150
cascade_min_out_epochs=50
cascade_max_cand_epochs=150
cascade_min_cand_epochs=50
cascade_num_candidate_groups=2
bit_fail_limit=3.49999994039535520000e-001
cascade_candidate_limit=1.00000000000000000000e+003
cascade_weight_multiplier=4.00000005960464480000e-001
cascade_activation_functions_count=10
cascade_activation_functions=3 5 7 8 10 11 14 15 16 17 
cascade_activation_steepnesses_count=4
cascade_activation_steepnesses=2.50000000000000000000e-001 5.00000000000000000000e-001 7.50000000000000000000e-001 1.00000000000000000000e+000 
layer_sizes=65 31 2 
scale_included=1
scale_mean_in=-2.360074 -0.889572 -1.456304 -3.243498 -3.064850 -1.920975 -4.212507 -1.764059 -0.486261 -0.756247 -0.862028 -0.933162 -1.144193 -0.985370 -1.445642 -0.871397 -0.289818 -0.442532 -0.655591 -0.497059 -0.585758 -1.120631 -0.527092 -0.231639 -0.210794 -0.021016 -0.264923 -0.184567 -0.148013 -0.191222 0.021095 -0.086217 0.154863 -0.029249 0.304096 0.428260 0.324650 0.266596 0.069329 0.123447 0.186501 0.453032 0.884835 0.601127 0.672239 1.149509 0.541030 0.290828 0.548141 0.692225 0.815070 0.950353 1.058071 0.941522 1.339988 0.874082 2.180118 0.853986 1.434036 3.172597 2.901899 1.748738 4.137931 1.786980 
scale_deviation_in=2.605038 1.947868 2.220804 4.191248 4.285688 2.542319 4.637007 2.874125 1.157905 1.542610 2.425975 2.180196 2.488141 1.867920 2.291078 1.779750 1.140876 1.743201 1.694335 1.784068 1.693847 2.153774 1.518900 1.251178 1.438482 1.239728 1.511172 1.675614 1.654140 1.456254 1.411365 1.255768 1.237881 1.271549 1.526928 1.725143 1.630244 1.541213 1.389100 1.279420 1.079543 1.652000 1.852430 1.970462 1.908804 2.128463 1.613837 1.242046 1.132418 1.410854 2.259854 2.424872 2.530180 1.881490 2.197680 1.817006 2.572749 2.094646 2.384050 4.075881 4.231050 2.457974 4.694221 2.929878 
scale_new_min_in=-10.000000 -10.000000 -10.000000 -10.000000 -10.000000 -10.000000 -10.000000 -10.000000 -10.000000 -10.000000 -10.000000 -10.000000 -10.000000 -10.000000 -10.000000 -10.000000 -10.000000 -10.000000 -10.000000 -10.000000 -10.000000 -10.000000 -10.000000 -10.000000 -10.000000 -10.000000 -10.000000 -10.000000 -10.000000 -10.000000 -10.000000 -10.000000 -10.000000 -10.000000 -10.000000 -10.000000 -10.000000 -10.000000 -10.000000 -10.000000 -10.000000 -10.000000 -10.000000 -10.000000 -10.000000 -10.000000 -10.000000 -10.000000 -10.000000 -10.000000 -10.000000 -10.000000 -10.000000 -10.000000 -10.000000 -10.000000 -10.000000 -10.000000 -10.000000 -10.000000 -10.000000 -10.000000 -10.000000 -10.000000 
scale_factor_in=10.000000 10.000000 10.000000 10.000000 10.000000 10.000000 10.000000 10.000000 10.000000 10.000000 10.000000 10.000000 10.000000 10.000000 10.000000 10.000000 10.000000 10.000000 10.000000 10.000000 10.000000 10.000000 10.000000 10.000000 10.000000 10.000000 10.000000 10.000000 10.000000 10.000000 10.000000 10.000000 10.000000 10.000000 10.000000 10.000000 10.000000 10.000000 10.000000 10.000000 10.000000 10.000000 10.000000 10.000000 10.000000 10.000000 10.000000 10.000000 10.000000 10.000000 10.000000 10.000000 10.000000 10.000000 10.000000 10.000000 10.000000 10.000000 10.000000 10.000000 10.000000 10.000000 10.000000 10.000000 
scale_mean_out=35.915600 
scale_deviation_out=256.927643 
scale_new_min_out=-100.000000 
scale_factor_out=100.000000 
neurons (num_inputs, activation_function, activation_steepness)=(0, 0, 0.00000000000000000000e+000) (0, 0, 0.00000000000000000000e+000) (0, 0, 0.00000000000000000000e+000) (0, 0, 0.00000000000000000000e+000) (0, 0, 0.00000000000000000000e+000) (0, 0, 0.00000000000000000000e+000) (0, 0, 0.00000000000000000000e+000) (0, 0, 0.00000000000000000000e+000) (0, 0, 0.00000000000000000000e+000) (0, 0, 0.00000000000000000000e+000) (0, 0, 0.00000000000000000000e+000) (0, 0, 0.00000000000000000000e+000) (0, 0, 0.00000000000000000000e+000) (0, 0, 0.00000000000000000000e+000) (0, 0, 0.00000000000000000000e+000) (0, 0, 0.00000000000000000000e+000) (0, 0, 0.00000000000000000000e+000) (0, 0, 0.00000000000000000000e+000) (0, 0, 0.00000000000000000000e+000) (0, 0, 0.00000000000000000000e+000) (0, 0, 0.00000000000000000000e+000) (0, 0, 0.00000000000000000000e+000) (0, 0, 0.00000000000000000000e+000) (0, 0, 0.00000000000000000000e+000) (0, 0, 0.00000000000000000000e+000) (0, 0, 0.00000000000000000000e+000) (0, 0, 0.00000000000000000000e+000) (0, 0, 0.00000000000000000000e+000) (0, 0, 0.00000000000000000000e+000) (0, 0, 0.00000000000000000000e+000) (0, 0, 0.00000000000000000000e+000) (0, 0, 0.00000000000000000000e+000) (0, 0, 0.00000000000000000000e+000) (0, 0, 0.00000000000000000000e+000) (0, 0, 0.00000000000000000000e+000) (0, 0, 0.00000000000000000000e+000) (0, 0, 0.00000000000000000000e+000) (0, 0, 0.00000000000000000000e+000) (0, 0, 0.00000000000000000000e+000) (0, 0, 0.00000000000000000000e+000) (0, 0, 0.00000000000000000000e+000) (0, 0, 0.00000000000000000000e+000) (0, 0, 0.00000000000000000000e+000) (0, 0, 0.00000000000000000000e+000) (0, 0, 0.00000000000000000000e+000) (0, 0, 0.00000000000000000000e+000) (0, 0, 0.00000000000000000000e+000) (0, 0, 0.00000000000000000000e+000) (0, 0, 0.00000000000000000000e+000) (0, 0, 0.00000000000000000000e+000) (0, 0, 0.00000000000000000000e+000) (0, 0, 0.00000000000000000000e+000) (0, 0, 0.00000000000000000000e+000) (0, 0, 0.00000000000000000000e+000) (0, 0, 0.00000000000000000000e+000) (0, 0, 0.00000000000000000000e+000) (0, 0, 0.00000000000000000000e+000) (0, 0, 0.00000000000000000000e+000) (0, 0, 0.00000000000000000000e+000) (0, 0, 0.00000000000000000000e+000) (0, 0, 0.00000000000000000000e+000) (0, 0, 0.00000000000000000000e+000) (0, 0, 0.00000000000000000000e+000) (0, 0, 0.00000000000000000000e+000) (0, 0, 0.00000000000000000000e+000) (65, 5, 5.00000000000000000000e-001) (65, 5, 5.00000000000000000000e-001) (65, 5, 5.00000000000000000000e-001) (65, 5, 5.00000000000000000000e-001) (65, 5, 5.00000000000000000000e-001) (65, 5, 5.00000000000000000000e-001) (65, 5, 5.00000000000000000000e-001) (65, 5, 5.00000000000000000000e-001) (65, 5, 5.00000000000000000000e-001) (65, 5, 5.00000000000000000000e-001) (65, 5, 5.00000000000000000000e-001) (65, 5, 5.00000000000000000000e-001) (65, 5, 5.00000000000000000000e-001) (65, 5, 5.00000000000000000000e-001) (65, 5, 5.00000000000000000000e-001) (65, 5, 5.00000000000000000000e-001) (65, 5, 5.00000000000000000000e-001) (65, 5, 5.00000000000000000000e-001) (65, 5, 5.00000000000000000000e-001) (65, 5, 5.00000000000000000000e-001) (65, 5, 5.00000000000000000000e-001) (65, 5, 5.00000000000000000000e-001) (65, 5, 5.00000000000000000000e-001) (65, 5, 5.00000000000000000000e-001) (65, 5, 5.00000000000000000000e-001) (65, 5, 5.00000000000000000000e-001) (65, 5, 5.00000000000000000000e-001) (65, 5, 5.00000000000000000000e-001) (65, 5, 5.00000000000000000000e-001) (65, 5, 5.00000000000000000000e-001) (0, 5, 0.00000000000000000000e+000) (31, 0, 5.00000000000000000000e-001) (0, 0, 0.00000000000000000000e+000) 
connections (connected_to_neuron, weight)=(0, 2.59688585996627810000e-001) (1, 1.33385634422302250000e+000) (2, 8.68584036827087400000e-001) (3, 1.42001867294311520000e-001) (4, 2.44027352333068850000e+000) (5, 1.85253942012786870000e+000) (6, 2.57755136489868160000e+000) (7, 2.34759736061096190000e+000) (8, 8.67011785507202150000e-001) (9, 1.30141270160675050000e+000) (10, 1.65878379344940190000e+000) (11, 1.66741256713867190000e+001) (12, 8.95963132381439210000e-001) (13, 1.49359762668609620000e+000) (14, 2.12600326538085940000e+000) (15, 1.18287515640258790000e+000) (16, 7.98383772373199460000e-001) (17, 1.36768233776092530000e+000) (18, 1.29618191719055180000e+000) (19, 1.37099838256835940000e+000) (20, 1.52625942230224610000e+000) (21, 1.70209717750549320000e+000) (22, 1.13386499881744380000e+000) (23, 1.21104800701141360000e+000) (24, 8.35805892944335940000e-001) (25, 8.00635814666748050000e-001) (26, 1.16904401779174800000e+000) (27, 1.31375169754028320000e+000) (28, 1.22980213165283200000e+000) (29, 1.30458772182464600000e+000) (30, 1.17938756942749020000e+000) (31, 1.05429220199584960000e+000) (32, 1.19049894809722900000e+000) (33, 1.13510501384735110000e+000) (34, 1.34968531131744380000e+000) (35, 1.29429829120635990000e+000) (36, 1.63956046104431150000e+000) (37, 1.60633921623229980000e+000) (38, 1.17265903949737550000e+000) (39, 1.20817232131958010000e+000) (40, 8.33650171756744380000e-001) (41, 1.09606790542602540000e+000) (42, 1.36659860610961910000e+000) (43, 1.71974778175354000000e+000) (44, 1.56426584720611570000e+000) (45, 1.64715671539306640000e+000) (46, 1.42696261405944820000e+000) (47, 1.06036627292633060000e+000) (48, 9.00470018386840820000e-001) (49, 1.31624031066894530000e+000) (50, 1.86877143383026120000e+000) (51, 1.74710607528686520000e+000) (52, 1.96446335315704350000e+000) (53, 1.71818995475769040000e+000) (54, 1.65406060218811040000e+000) (55, 1.42006540298461910000e+000) (56, 1.50224959850311280000e+000) (57, 1.59162294864654540000e+000) (58, 1.58775043487548830000e+000) (59, 4.70244550704956050000e+000) (60, 2.20094633102416990000e+000) (61, 1.64904284477233890000e+000) (62, 5.20561170578002930000e+000) (63, 1.06493449211120610000e+000) (64, -4.34749782085418700000e-001) (0, -1.42978870868682860000e+000) (1, 1.18949580192565920000e+000) (2, 1.66933149099349980000e-001) (3, 6.69207751750946040000e-001) (4, 1.12731039524078370000e-001) (5, 2.14754605293273930000e+000) (6, 9.86358940601348880000e-001) (7, 9.56283271312713620000e-001) (8, 4.53769326210021970000e-001) (9, -2.37262234091758730000e-001) (10, 2.49529048800468440000e-001) (11, -3.09099292755126950000e+000) (12, 5.47204256057739260000e-001) (13, 1.44359838962554930000e+000) (14, 1.19537663459777830000e+000) (15, 2.99183368682861330000e+000) (16, 6.85034513473510740000e-001) (17, 6.09487891197204590000e-001) (18, -5.06024897098541260000e-001) (19, 9.66787338256835940000e-002) (20, -1.31234669685363770000e+000) (21, -1.80846250057220460000e+000) (22, 9.31959509849548340000e-001) (23, 9.38628375530242920000e-001) (24, 1.89716839790344240000e+000) (25, 1.42015433311462400000e+000) (26, -5.04443824291229250000e-001) (27, -8.35929489135742190000e+000) (28, -4.85164451599121090000e+000) (29, -1.64382445812225340000e+000) (30, 6.05929493904113770000e-001) (31, 1.07007777690887450000e+000) (32, 7.49010086059570310000e-001) (33, -3.55247646570205690000e-001) (34, 1.58750200271606450000e+000) (35, 2.06073284149169920000e+000) (36, -2.19428181648254390000e+000) (37, 5.37018179893493650000e-001) (38, 1.58113992214202880000e+000) (39, -1.83063849806785580000e-001) (40, 9.29787158966064450000e-001) (41, 1.31179070472717290000e+000) (42, -7.21638798713684080000e-002) (43, 4.58612298965454100000e+000) (44, -5.28247177600860600000e-001) (45, 4.26868736743927000000e-001) (46, 1.79863929748535160000e+000) (47, 1.35706210136413570000e+000) (48, 8.97814571857452390000e-001) (49, 1.55014240741729740000e+000) (50, -5.82060039043426510000e-001) (51, 1.05175733566284180000e-001) (52, 1.00992763042449950000e+000) (53, -1.99489161372184750000e-001) (54, 1.23975265026092530000e+000) (55, 1.22810566425323490000e+000) (56, 8.80696058273315430000e-001) (57, -1.34320974349975590000e-001) (58, 1.68865732848644260000e-002) (59, 1.90955236554145810000e-001) (60, 1.05754017829895020000e+000) (61, 1.18331038951873780000e+000) (62, -9.41427528858184810000e-001) (63, 9.83234941959381100000e-001) (64, 9.14917850494384770000e+000) (0, 1.81614375114440920000e+000) (1, 1.01480293273925780000e+000) (2, 1.20011079311370850000e+000) (3, 2.08911323547363280000e+000) (4, 2.26159834861755370000e+000) (5, 1.27385520935058590000e+000) (6, 2.19012022018432620000e+000) (7, 1.40771818161010740000e+000) (8, 5.86174488067626950000e-001) (9, 8.20481181144714360000e-001) (10, 1.18304002285003660000e+000) (11, -3.44860768318176270000e+000) (12, 1.22513294219970700000e+000) (13, 9.65058326721191410000e-001) (14, 1.09707450866699220000e+000) (15, 8.24318289756774900000e-001) (16, 5.28459966182708740000e-001) (17, 8.02022218704223630000e-001) (18, 8.89842569828033450000e-001) (19, 1.04372298717498780000e+000) (20, 8.74560594558715820000e-001) (21, 1.15488052368164060000e+000) (22, 7.28951811790466310000e-001) (23, 5.57777881622314450000e-001) (24, 6.53606057167053220000e-001) (25, 5.34725904464721680000e-001) (26, 7.28715658187866210000e-001) (27, 8.48062992095947270000e-001) (28, 7.48426854610443120000e-001) (29, 6.56125307083129880000e-001) (30, 6.09475493431091310000e-001) (31, 5.69032311439514160000e-001) (32, 5.47845005989074710000e-001) (33, 5.85470557212829590000e-001) (34, 7.01427936553955080000e-001) (35, 7.93800294399261470000e-001) (36, 7.60162234306335450000e-001) (37, 7.01223134994506840000e-001) (38, 6.28073394298553470000e-001) (39, 5.84676027297973630000e-001) (40, 5.08070290088653560000e-001) (41, 7.80453920364379880000e-001) (42, 8.20407986640930180000e-001) (43, 9.46685791015625000000e-001) (44, 9.18588995933532710000e-001) (45, 1.00295352935791020000e+000) (46, 7.97760546207427980000e-001) (47, 5.93595206737518310000e-001) (48, 5.10533273220062260000e-001) (49, 6.68475627899169920000e-001) (50, 1.04822874069213870000e+000) (51, 1.10631155967712400000e+000) (52, 1.12919330596923830000e+000) (53, 8.88014137744903560000e-001) (54, 1.03108596801757810000e+000) (55, 8.50630462169647220000e-001) (56, 9.77030336856842040000e-001) (57, 9.59550499916076660000e-001) (58, 9.90192115306854250000e-001) (59, 1.69944334030151370000e+000) (60, 1.61944115161895750000e+000) (61, 1.12442624568939210000e+000) (62, 2.17996978759765620000e+000) (63, 1.40225720405578610000e+000) (64, -1.66127324104309080000e+000) (0, 2.21592283248901370000e+000) (1, 1.76873397827148440000e+000) (2, 1.93969631195068360000e+000) (3, 5.64143121242523190000e-001) (4, 5.02250194549560550000e+000) (5, 2.47519254684448240000e+000) (6, 1.94024038314819340000e+000) (7, 3.31182861328125000000e+000) (8, 5.59096932411193850000e-001) (9, 1.24054527282714840000e+000) (10, 2.17195367813110350000e+000) (11, 1.45071911811828610000e+000) (12, 1.45119190216064450000e+000) (13, 8.80095481872558590000e-001) (14, 1.80619168281555180000e+000) (15, 1.48243772983551030000e+000) (16, 3.33036452531814580000e-001) (17, 1.33535838127136230000e+000) (18, 1.31726455688476560000e+000) (19, 1.29162180423736570000e+000) (20, 1.06007564067840580000e+000) (21, 1.03147590160369870000e+000) (22, 1.17764556407928470000e+000) (23, 8.21733415126800540000e-001) (24, 5.91982722282409670000e-001) (25, 7.34969913959503170000e-001) (26, 8.83222699165344240000e-001) (27, 1.33316481113433840000e+000) (28, 8.59153449535369870000e-001) (29, 1.29541695117950440000e+000) (30, 8.47196459770202640000e-001) (31, 8.23317289352416990000e-001) (32, 5.13749063014984130000e-001) (33, 9.26981353759765620000e+000) (34, 1.68418228626251220000e+000) (35, 8.98561298847198490000e-001) (36, 8.74184429645538330000e-001) (37, 2.85900354385375980000e+000) (38, 2.51136350631713870000e+000) (39, 1.40342593193054200000e+000) (40, 9.38340425491333010000e-001) (41, 8.41685831546783450000e-001) (42, 2.16826128959655760000e+000) (43, 6.86631128191947940000e-002) (44, 7.42875337600708010000e-001) (45, 5.81189319491386410000e-002) (46, 1.63744497299194340000e+000) (47, 9.54294264316558840000e-001) (48, -3.48544418811798100000e-001) (49, 7.51151800155639650000e-001) (50, 8.84067595005035400000e-001) (51, 1.64385533332824710000e+000) (52, 1.16408693790435790000e+000) (53, 5.02264499664306640000e-001) (54, 1.20185863971710210000e+000) (55, 1.21048414707183840000e+000) (56, 9.78938281536102290000e-001) (57, 1.40078341960906980000e+000) (58, 2.77718758583068850000e+000) (59, 2.39154767990112300000e+000) (60, 4.02653068304061890000e-001) (61, 9.67886328697204590000e-001) (62, 3.01270461082458500000e+000) (63, 3.10096931457519530000e+000) (64, -7.97459888458251950000e+000) (0, 1.63360917568206790000e+000) (1, 1.49373960494995120000e+000) (2, 1.86530900001525880000e+000) (3, 2.80769729614257810000e+000) (4, 3.27783560752868650000e+000) (5, 1.88094770908355710000e+000) (6, 3.29529809951782230000e+000) (7, 1.87913000583648680000e+000) (8, 7.79453814029693600000e-001) (9, 1.13360762596130370000e+000) (10, 1.99357652664184570000e+000) (11, 1.52585077285766600000e+000) (12, 1.89525103569030760000e+000) (13, 1.23127734661102290000e+000) (14, 1.63846826553344730000e+000) (15, 1.27894628047943120000e+000) (16, 9.50439393520355220000e-001) (17, 1.29594695568084720000e+000) (18, 1.23172450065612790000e+000) (19, 1.24839556217193600000e+000) (20, 1.12528002262115480000e+000) (21, 1.49448907375335690000e+000) (22, 1.20739185810089110000e+000) (23, 9.93121743202209470000e-001) (24, 1.17896246910095210000e+000) (25, 9.03206944465637210000e-001) (26, 1.08340191841125490000e+000) (27, 1.11199319362640380000e+000) (28, 1.20189857482910160000e+000) (29, 1.08576011657714840000e+000) (30, 1.04086542129516600000e+000) (31, 8.81026446819305420000e-001) (32, 8.71966361999511720000e-001) (33, 8.85129809379577640000e-001) (34, 1.02919447422027590000e+000) (35, 1.21003150939941410000e+000) (36, 1.04410684108734130000e+000) (37, 9.79045808315277100000e-001) (38, 9.14053142070770260000e-001) (39, 8.66121590137481690000e-001) (40, 7.35651552677154540000e-001) (41, 1.14572596549987790000e+000) (42, 1.22901058197021480000e+000) (43, 1.30464828014373780000e+000) (44, 1.27055025100708010000e+000) (45, 1.42155051231384280000e+000) (46, 1.04481256008148190000e+000) (47, 8.15003693103790280000e-001) (48, 7.82276570796966550000e-001) (49, 8.91968369483947750000e-001) (50, 1.50251698493957520000e+000) (51, 1.54713404178619380000e+000) (52, 1.59426987171173100000e+000) (53, 1.28257989883422850000e+000) (54, 1.52389621734619140000e+000) (55, 1.25965178012847900000e+000) (56, 1.85766875743865970000e+000) (57, 1.35935378074646000000e+000) (58, 1.44881951808929440000e+000) (59, 2.67950892448425290000e+000) (60, 5.47289943695068360000e+000) (61, 7.97039449214935300000e-001) (62, 2.87354421615600590000e+000) (63, 1.97020018100738530000e+000) (64, 6.36406064033508300000e-001) (0, -1.74120044708251950000e+000) (1, 8.68435382843017580000e-001) (2, 4.29905839264392850000e-002) (3, -6.25057101249694820000e-001) (4, 2.40383696556091310000e+000) (5, 6.00386559963226320000e-001) (6, 2.42019104957580570000e+000) (7, 5.68790102005004880000e+000) (8, -4.58953261375427250000e-001) (9, 1.89610636234283450000e+000) (10, 1.75034213066101070000e+000) (11, 1.80955333709716800000e+001) (12, 1.32799673080444340000e+000) (13, 1.26094102859497070000e+000) (14, 8.07891547679901120000e-001) (15, 1.32151985168457030000e+000) (16, 1.71562623977661130000e+000) (17, 3.12777113914489750000e+000) (18, 1.04607272148132320000e+000) (19, 1.53316557407379150000e+000) (20, 4.18499946594238280000e+000) (21, 7.03117072582244870000e-001) (22, 3.82729911804199220000e+000) (23, 2.12425041198730470000e+000) (24, 1.03947532176971440000e+000) (25, 1.84955012798309330000e+000) (26, 1.34527921676635740000e+000) (27, 2.05996274948120120000e+000) (28, 2.90545511245727540000e+000) (29, 2.50294375419616700000e+000) (30, 6.67588424682617190000e+000) (31, 2.36548399925231930000e+000) (32, 8.30576345324516300000e-002) (33, 4.90166902542114260000e-001) (34, 1.22017753124237060000e+000) (35, 1.38916349411010740000e+000) (36, 1.23430299758911130000e+000) (37, 1.94058346748352050000e+000) (38, -9.68835549429059030000e-004) (39, 1.49424469470977780000e+000) (40, -4.06934350728988650000e-001) (41, 3.72944951057434080000e-001) (42, 4.67125558853149410000e+000) (43, 6.30722343921661380000e-001) (44, 6.08612060546875000000e-001) (45, 3.26471996307373050000e+000) (46, 9.09049689769744870000e-001) (47, 1.97312727570533750000e-001) (48, 6.99175834655761720000e-001) (49, 6.31443083286285400000e-001) (50, 1.53090512752532960000e+000) (51, 2.93428730964660640000e+000) (52, 1.12211799621582030000e+000) (53, 4.48351263999938960000e-001) (54, 1.30875480175018310000e+000) (55, 5.86677789688110350000e-001) (56, 1.41582369804382320000e+000) (57, 2.07252645492553710000e+000) (58, 6.00767552852630620000e-001) (59, 7.33288908004760740000e+000) (60, 1.47226428985595700000e+000) (61, 5.15135884284973140000e-001) (62, 1.25484018325805660000e+001) (63, 8.49293887615203860000e-001) (64, -2.96570897102355960000e+000) (0, 1.66531693935394290000e+000) (1, -1.06915247440338130000e+000) (2, 6.59835994243621830000e-001) (3, 1.73086071014404300000e+000) (4, 5.66067790985107420000e+000) (5, -2.45098829269409180000e+000) (6, 1.80671787261962890000e+000) (7, 7.32443046569824220000e+000) (8, 5.63695192337036130000e-001) (9, 1.10781121253967290000e+000) (10, 2.17939805984497070000e+000) (11, 2.46172165870666500000e+000) (12, 9.38487410545349120000e-001) (13, -3.28416645526885990000e-001) (14, 2.31590414047241210000e+000) (15, 7.13950395584106450000e-001) (16, 3.90643507242202760000e-001) (17, 1.82989573478698730000e+000) (18, 4.86594915390014650000e+000) (19, 1.27876842021942140000e+000) (20, 2.96551728248596190000e+000) (21, 1.27258539199829100000e+000) (22, 7.95274004340171810000e-002) (23, 6.65852963924407960000e-001) (24, 1.15667450428009030000e+000) (25, -8.87318029999732970000e-002) (26, 4.62453842163085940000e+000) (27, 3.06696581840515140000e+000) (28, 4.14849519729614260000e+000) (29, 3.15631723403930660000e+000) (30, 1.33587503433227540000e+000) (31, 1.57036542892456050000e+000) (32, 7.37602353096008300000e-001) (33, 1.57043409347534180000e+000) (34, 2.13678956031799320000e+000) (35, 2.69312787055969240000e+000) (36, 1.75974047183990480000e+000) (37, 4.11265754699707030000e+000) (38, -3.11459243297576900000e-001) (39, 9.96255636215209960000e-001) (40, -3.51932883262634280000e-001) (41, -3.15065383911132810000e-001) (42, 4.26600408554077150000e+000) (43, 1.44342398643493650000e+000) (44, 1.06686615943908690000e+000) (45, 3.27488541603088380000e+000) (46, 5.48366367816925050000e-001) (47, 8.39750170707702640000e-001) (48, 6.63747191429138180000e-001) (49, 1.57226002216339110000e+000) (50, 1.93963065743446350000e-001) (51, 9.68431293964385990000e-001) (52, 2.27015924453735350000e+000) (53, 1.01117670536041260000e+000) (54, 2.50064992904663090000e+000) (55, 8.11908721923828130000e-001) (56, 8.51865351200103760000e-001) (57, -3.75262826681137080000e-001) (58, 2.26930141448974610000e+000) (59, 4.61520385742187500000e+000) (60, 3.66576343774795530000e-001) (61, 9.65372562408447270000e+000) (62, 1.41578264236450200000e+001) (63, 7.22558081150054930000e-001) (64, -3.47748303413391110000e+000) (0, 7.69798099994659420000e-001) (1, 5.48890411853790280000e-001) (2, 1.14341661334037780000e-001) (3, 1.26853609085083010000e+000) (4, 1.64801299571990970000e+000) (5, 4.14557754993438720000e-001) (6, 4.55055683851242070000e-001) (7, 1.54427397251129150000e+000) (8, 9.91286039352416990000e-002) (9, 8.97280633449554440000e-001) (10, 3.16875243186950680000e+000) (11, 5.64101874828338620000e-001) (12, -4.13922369480133060000e-001) (13, 1.13734209537506100000e+000) (14, 1.82413184642791750000e+000) (15, 1.13776946067810060000e+000) (16, 8.06364834308624270000e-001) (17, 9.28540110588073730000e-001) (18, 1.84136223793029790000e+000) (19, 5.29160238802433010000e-002) (20, 4.21512174606323240000e+000) (21, 3.63348937034606930000e+000) (22, 1.07246780395507810000e+000) (23, 1.06133377552032470000e+000) (24, 1.27808868885040280000e+000) (25, 1.81756520271301270000e+000) (26, 7.00854778289794920000e-001) (27, 4.89826297760009770000e+000) (28, 3.85998106002807620000e+000) (29, -2.33900561928749080000e-001) (30, 7.19124794006347660000e-001) (31, 1.11574232578277590000e+000) (32, 1.39387011528015140000e+000) (33, 6.96224153041839600000e-001) (34, 7.77999734878540040000e+000) (35, 2.39505147933959960000e+000) (36, 3.90341544151306150000e+000) (37, 1.00344824790954590000e+000) (38, 3.11158239841461180000e-001) (39, 9.75257277488708500000e-001) (40, 7.01465845108032230000e-001) (41, -5.10924458503723140000e-001) (42, 1.89035570621490480000e+000) (43, 7.77015089988708500000e-003) (44, 1.41517817974090580000e+000) (45, 2.12458944320678710000e+000) (46, -2.80439816415309910000e-002) (47, 5.82603514194488530000e-001) (48, 1.02176618576049800000e+000) (49, 1.44170618057250980000e+000) (50, 6.63114488124847410000e-001) (51, 3.37825834751129150000e-001) (52, 1.58171534538269040000e+000) (53, 1.09819936752319340000e+000) (54, 7.71005630493164060000e-001) (55, 1.08587837219238280000e+000) (56, 7.64062225818634030000e-001) (57, 1.09210896492004390000e+000) (58, 4.22465753555297850000e+000) (59, 2.45055747032165530000e+000) (60, -1.86570122838020320000e-001) (61, 9.87565755844116210000e-001) (62, 2.91256260871887210000e+000) (63, 3.46947342157363890000e-001) (64, -1.23380622863769530000e+001) (0, 8.18159043788909910000e-001) (1, 1.33488225936889650000e+000) (2, 9.29852724075317380000e-001) (3, 1.22600293159484860000e+000) (4, 1.92615330219268800000e+000) (5, 1.18686401844024660000e+000) (6, 2.70037031173706050000e+000) (7, 1.60991632938385010000e+000) (8, 9.76785182952880860000e-001) (9, 1.01115548610687260000e+000) (10, 2.30001378059387210000e+000) (11, 1.33202457427978520000e+000) (12, 4.09426450729370120000e+000) (13, 1.22736537456512450000e+000) (14, 1.46928393840789790000e+000) (15, 1.10008132457733150000e+000) (16, 7.91682422161102290000e-001) (17, 1.13335180282592770000e+000) (18, 1.13981401920318600000e+000) (19, 1.10035574436187740000e+000) (20, 9.28033173084259030000e-001) (21, 1.37999880313873290000e+000) (22, 9.68788683414459230000e-001) (23, 8.52983534336090090000e-001) (24, 1.51227653026580810000e+000) (25, 9.76755142211914060000e-001) (26, 8.44705641269683840000e-001) (27, 9.78872537612915040000e-001) (28, 1.09627151489257810000e+000) (29, 9.17268335819244380000e-001) (30, 1.00030970573425290000e+000) (31, 7.54602313041687010000e-001) (32, 8.71847569942474370000e-001) (33, 7.00311779975891110000e-001) (34, 1.01163172721862790000e+000) (35, 1.19837152957916260000e+000) (36, 9.84159946441650390000e-001) (37, 1.02307367324829100000e+000) (38, 9.45189356803894040000e-001) (39, 8.49703013896942140000e-001) (40, 7.47350335121154790000e-001) (41, 1.02404546737670900000e+000) (42, 1.24075317382812500000e+000) (43, 1.24428617954254150000e+000) (44, 1.17771816253662110000e+000) (45, 1.19302761554718020000e+000) (46, 1.02360856533050540000e+000) (47, 7.56882429122924800000e-001) (48, 5.74938654899597170000e-001) (49, 9.54719364643096920000e-001) (50, 1.38270473480224610000e+000) (51, 1.52352511882781980000e+000) (52, 1.54416191577911380000e+000) (53, 1.13234627246856690000e+000) (54, 1.29806387424468990000e+000) (55, 1.04173684120178220000e+000) (56, 1.56006991863250730000e+000) (57, 1.03188717365264890000e+000) (58, 1.40761053562164310000e+000) (59, 2.73712587356567380000e+000) (60, 2.01206326484680180000e+000) (61, 1.65532302856445310000e+000) (62, 2.27308583259582520000e+000) (63, 2.08765602111816410000e+000) (64, -3.10175037384033200000e+000) (0, 4.11470532417297360000e-001) (1, 1.34726572036743160000e+000) (2, 2.05069422721862790000e+000) (3, 3.88603866100311280000e-001) (4, 1.27536691725254060000e-002) (5, 1.46160650253295900000e+000) (6, 2.29427552223205570000e+000) (7, 3.38561153411865230000e+000) (8, -4.22405540943145750000e-001) (9, 2.00916934013366700000e+000) (10, 2.79593110084533690000e+000) (11, 1.30004775524139400000e+000) (12, 1.48047935962677000000e+000) (13, -1.07415802776813510000e-001) (14, 1.78962075710296630000e+000) (15, 6.77404522895812990000e-001) (16, 1.32684677839279170000e-001) (17, 2.21065759658813480000e+000) (18, 1.39468050003051760000e+000) (19, 5.21890020370483400000e+000) (20, 8.88638973236083980000e+000) (21, 5.69503605365753170000e-001) (22, 2.33356833457946780000e+000) (23, 1.39677321910858150000e+000) (24, 1.73753404617309570000e+000) (25, 1.44478058815002440000e+000) (26, 1.56188046932220460000e+000) (27, 1.70760941505432130000e+000) (28, 1.67312312126159670000e+000) (29, 4.03182697296142580000e+000) (30, 1.85831511020660400000e+000) (31, 2.26797699928283690000e+000) (32, 1.54088389873504640000e+000) (33, 8.23840260505676270000e-001) (34, 1.49004256725311280000e+000) (35, 1.79893696308135990000e+000) (36, 1.26324915885925290000e+000) (37, 1.28175973892211910000e+000) (38, 9.33540642261505130000e-001) (39, 1.20375061035156250000e+000) (40, 8.31911444664001460000e-001) (41, 5.01209974288940430000e-001) (42, 2.90456628799438480000e+000) (43, 1.17056477069854740000e+000) (44, 1.14979732036590580000e+000) (45, 2.17223095893859860000e+000) (46, 9.29254710674285890000e-001) (47, 1.03591609001159670000e+000) (48, 6.52378857135772710000e-001) (49, 1.42738306522369380000e+000) (50, 1.90404546260833740000e+000) (51, 1.85277843475341800000e+000) (52, 1.98460161685943600000e+000) (53, 1.23076653480529790000e+000) (54, 1.51044642925262450000e+000) (55, 1.31364381313323970000e+000) (56, 2.38981819152832030000e+000) (57, 1.45360064506530760000e+000) (58, 7.91813731193542480000e-001) (59, 4.18131113052368160000e+000) (60, 3.17135858535766600000e+000) (61, 2.06310749053955080000e+000) (62, 4.12284374237060550000e+000) (63, 6.32531285285949710000e-001) (64, -1.95045149326324460000e+000) (0, -9.69035089015960690000e-001) (1, 7.12464749813079830000e-001) (2, 1.09451818466186520000e+000) (3, 2.48447135090827940000e-001) (4, -2.22343945503234860000e+000) (5, 2.42186951637268070000e+000) (6, 6.77098810672760010000e-001) (7, -5.46022510528564450000e+000) (8, 4.13337111473083500000e-001) (9, 9.31540250778198240000e-001) (10, -4.84247827529907230000e+000) (11, 4.89423274993896480000e-001) (12, 1.73099863529205320000e+000) (13, 4.73771154880523680000e-001) (14, 6.03919997811317440000e-002) (15, 3.65678608417510990000e-001) (16, 1.30438238382339480000e-001) (17, 2.29016375541687010000e+000) (18, 1.18111491203308110000e+000) (19, 2.21553230285644530000e+000) (20, -1.13252353668212890000e+000) (21, 3.67839694023132320000e-001) (22, 1.26995670795440670000e+000) (23, 9.92219567298889160000e-001) (24, 1.30793178081512450000e+000) (25, 5.74350416660308840000e-001) (26, 7.42099702358245850000e-001) (27, -1.72171807289123540000e+000) (28, 1.77813363075256350000e+000) (29, -1.17182724177837370000e-001) (30, 5.51575362682342530000e-001) (31, 1.10396909713745120000e+000) (32, -2.66666591167449950000e-001) (33, 6.17542378604412080000e-002) (34, -6.18549013137817380000e+000) (35, 8.57330262660980220000e-002) (36, -1.68689656257629390000e+000) (37, -4.88161683082580570000e-001) (38, 2.57090836763381960000e-001) (39, 3.41216534376144410000e-001) (40, -8.72698985040187840000e-003) (41, -1.47505640983581540000e-001) (42, -1.15038704872131350000e+000) (43, -5.97996227443218230000e-002) (44, 4.46163982152938840000e-001) (45, -1.73107421398162840000e+000) (46, 7.24519848823547360000e-001) (47, 2.28063061833381650000e-001) (48, 8.21851074695587160000e-001) (49, -7.35184177756309510000e-002) (50, -3.93680572509765630000e-001) (51, -7.25454509258270260000e-001) (52, 1.65163412690162660000e-001) (53, -8.88914987444877620000e-002) (54, 7.35021457076072690000e-002) (55, 9.46797907352447510000e-001) (56, 6.42990946769714360000e-001) (57, 6.18259668350219730000e-001) (58, -1.07815444469451900000e+000) (59, -1.40954709053039550000e+000) (60, 6.25882387161254880000e-001) (61, -6.31316065788269040000e-001) (62, -3.55437755584716800000e+000) (63, 8.15878033638000490000e-001) (64, 1.27229332923889160000e+000) (0, -1.09682428836822510000e+000) (1, 2.25146365165710450000e+000) (2, 6.49964630603790280000e-001) (3, -4.00026082992553710000e-001) (4, 3.15649533271789550000e+000) (5, 1.54508578777313230000e+000) (6, 1.97264170646667480000e+000) (7, 8.32767772674560550000e+000) (8, -6.21146678924560550000e-001) (9, 2.33342480659484860000e+000) (10, 2.98828291893005370000e+000) (11, 1.52696275711059570000e+000) (12, 1.10026335716247560000e+000) (13, 8.67421507835388180000e-001) (14, 1.31354188919067380000e+000) (15, 6.87254726886749270000e-001) (16, 2.12728404998779300000e+000) (17, 2.21710109710693360000e+000) (18, 1.02840960025787350000e+000) (19, 5.42163014411926270000e-001) (20, 1.63075852394104000000e+000) (21, 1.21491122245788570000e+000) (22, 3.52350187301635740000e+000) (23, 3.14917302131652830000e+000) (24, 1.44235813617706300000e+000) (25, 4.02307808399200440000e-001) (26, 1.37802326679229740000e+000) (27, 1.39596962928771970000e+000) (28, 2.14216256141662600000e+000) (29, 4.70775079727172850000e+000) (30, 2.37641358375549320000e+000) (31, 1.56004953384399410000e+000) (32, 7.67681777477264400000e-001) (33, 1.03264141082763670000e+000) (34, 1.34737575054168700000e+000) (35, 1.62290322780609130000e+000) (36, 1.35780298709869380000e+000) (37, 1.38051092624664310000e+000) (38, 8.03548336029052730000e-001) (39, 7.80330538749694820000e-001) (40, 6.65279924869537350000e-001) (41, 5.68247675895690920000e-001) (42, 1.85557544231414790000e+000) (43, 1.13287842273712160000e+000) (44, 1.27651047706604000000e+000) (45, 1.36456084251403810000e+000) (46, 8.24062526226043700000e-001) (47, 1.08298623561859130000e+000) (48, 1.47753381729125980000e+000) (49, 1.27122426033020020000e+000) (50, 1.59255099296569820000e+000) (51, 1.57617866992950440000e+000) (52, 1.06592929363250730000e+000) (53, 1.28689074516296390000e+000) (54, 1.52775824069976810000e+000) (55, 1.04655253887176510000e+000) (56, 2.88220119476318360000e+000) (57, 2.45570826530456540000e+000) (58, 3.35934925079345700000e+000) (59, 4.53526020050048830000e+000) (60, 1.51580321788787840000e+000) (61, 2.42153978347778320000e+000) (62, 4.32690286636352540000e+000) (63, 1.31027770042419430000e+000) (64, -1.41936111450195310000e+000) (0, 7.16449737548828130000e-001) (1, -6.09702110290527340000e-001) (2, 9.33809936046600340000e-001) (3, -8.58440279960632320000e-001) (4, -3.32105219364166260000e-001) (5, 5.79089164733886720000e-001) (6, 8.84699225425720210000e-001) (7, -2.69689440727233890000e-001) (8, 9.23624396324157710000e-001) (9, 1.06243938207626340000e-001) (10, -1.02437102794647220000e+000) (11, 2.33330115675926210000e-001) (12, 8.62673163414001460000e-001) (13, 5.55064916610717770000e-001) (14, -1.62325882911682130000e+000) (15, -1.19721218943595890000e-002) (16, 7.67811059951782230000e-001) (17, 1.79399061203002930000e+000) (18, 2.58209991455078130000e+000) (19, 1.30675590038299560000e+000) (20, -1.16143142804503440000e-003) (21, 2.97922372817993160000e-001) (22, 2.02485084533691410000e+000) (23, 7.78044223785400390000e-001) (24, 6.33543014526367190000e-001) (25, -8.23745131492614750000e-001) (26, -2.33840346336364750000e+000) (27, -6.15352392196655270000e-001) (28, -3.16559171676635740000e+000) (29, 9.53206419944763180000e-001) (30, -8.36235955357551570000e-002) (31, 7.70864725112915040000e-001) (32, 1.12320613861083980000e+000) (33, 6.74688041210174560000e-001) (34, -5.57601881027221680000e+000) (35, -8.65658664703369140000e+000) (36, 1.83958482742309570000e+000) (37, 3.80553692579269410000e-001) (38, 1.23825061321258540000e+000) (39, 3.21127116680145260000e-001) (40, 8.39472413063049320000e-001) (41, 9.02319669723510740000e-001) (42, -1.79588127136230470000e+000) (43, 1.03527390956878660000e+000) (44, 2.29304790496826170000e-001) (45, -7.52720057964324950000e-001) (46, 1.76610362529754640000e+000) (47, 2.77247905731201170000e-001) (48, 5.38068294525146480000e-001) (49, -2.27624960243701930000e-002) (50, 7.07846105098724370000e-001) (51, -1.47694692015647890000e-001) (52, 4.07270520925521850000e-001) (53, 5.39183795452117920000e-001) (54, 7.07539081573486330000e-001) (55, 8.67510199546813960000e-001) (56, 3.92193496227264400000e-001) (57, 2.32520267367362980000e-001) (58, 7.63276994228363040000e-001) (59, 5.01522421836853030000e-003) (60, 3.90599191188812260000e-001) (61, 1.40779823064804080000e-001) (62, -1.05599224567413330000e+000) (63, 6.29679381847381590000e-001) (64, 4.97460222244262700000e+000) (0, 1.44630122184753420000e+000) (1, 1.19904983043670650000e+000) (2, 1.62455868721008300000e+000) (3, 1.31153285503387450000e+000) (4, 1.50469577312469480000e+000) (5, 2.76818990707397460000e+000) (6, 2.97708988189697270000e+000) (7, 1.22608077526092530000e+000) (8, 1.01385819911956790000e+000) (9, 1.03907155990600590000e+000) (10, 2.21492648124694820000e+000) (11, 1.43027448654174800000e+000) (12, 1.65653455257415770000e+000) (13, 1.18796253204345700000e+000) (14, 1.50724887847900390000e+000) (15, 1.28430223464965820000e+000) (16, 7.79361188411712650000e-001) (17, 1.90435755252838130000e+000) (18, 1.24673700332641600000e+000) (19, 1.20100247859954830000e+000) (20, 1.07471334934234620000e+000) (21, 1.42284011840820310000e+000) (22, 1.10773050785064700000e+000) (23, 8.13390970230102540000e-001) (24, 1.02539861202239990000e+000) (25, 8.54080617427825930000e-001) (26, 1.03907406330108640000e+000) (27, 1.17569637298583980000e+000) (28, 1.09342658519744870000e+000) (29, 1.08510160446166990000e+000) (30, 8.90367507934570310000e-001) (31, 9.61821258068084720000e-001) (32, 8.32373678684234620000e-001) (33, 8.78414928913116460000e-001) (34, 1.09304296970367430000e+000) (35, 1.17351090908050540000e+000) (36, 1.06814861297607420000e+000) (37, 1.08551728725433350000e+000) (38, 1.02875411510467530000e+000) (39, 8.06785404682159420000e-001) (40, 7.17078685760498050000e-001) (41, 1.13248157501220700000e+000) (42, 1.17114734649658200000e+000) (43, 1.25828230381011960000e+000) (44, 1.28698015213012700000e+000) (45, 1.45668697357177730000e+000) (46, 1.09524464607238770000e+000) (47, 8.53325188159942630000e-001) (48, 7.90956914424896240000e-001) (49, 9.73569273948669430000e-001) (50, 1.49097764492034910000e+000) (51, 1.62357747554779050000e+000) (52, 1.80114459991455080000e+000) (53, 1.19802606105804440000e+000) (54, 1.47709298133850100000e+000) (55, 1.21142387390136720000e+000) (56, 2.86193299293518070000e+000) (57, 1.46478331089019780000e+000) (58, 1.81965041160583500000e+000) (59, 2.51312208175659180000e+000) (60, 4.90412473678588870000e-001) (61, 1.63921332359313960000e+000) (62, 2.85809183120727540000e+000) (63, 1.93601155281066890000e+000) (64, -6.26101255416870120000e-001) (0, 2.07862401008605960000e+000) (1, 1.27439785003662110000e+000) (2, 1.46754014492034910000e+000) (3, 2.16070222854614260000e+000) (4, 6.34592819213867190000e+000) (5, -1.63542950153350830000e+000) (6, 6.81270241737365720000e-001) (7, 5.01671552658081050000e+000) (8, 8.23231220245361330000e-001) (9, 8.44930648803710940000e-001) (10, 8.56810510158538820000e-001) (11, 1.33231043815612790000e+000) (12, 1.59871542453765870000e+000) (13, 1.13330090045928960000e+000) (14, 1.48088395595550540000e+000) (15, 1.14452695846557620000e+000) (16, 6.97422742843627930000e-001) (17, 1.41676962375640870000e+000) (18, 9.55804169178009030000e-001) (19, 1.29821360111236570000e+000) (20, 1.33851087093353270000e+000) (21, 1.26775109767913820000e+000) (22, 1.01008427143096920000e+000) (23, 8.13378036022186280000e-001) (24, 6.84915363788604740000e-001) (25, 1.16355204582214360000e+000) (26, 1.24211823940277100000e+000) (27, 1.33019018173217770000e+000) (28, 1.44349265098571780000e+000) (29, 1.09580194950103760000e+000) (30, 1.16822993755340580000e+000) (31, 8.90555918216705320000e-001) (32, 8.99845600128173830000e-001) (33, 9.44899618625640870000e-001) (34, 1.30663013458251950000e+000) (35, 1.26549029350280760000e+000) (36, 1.47950947284698490000e+000) (37, 1.19548082351684570000e+000) (38, 9.71458375453948970000e-001) (39, 9.44656908512115480000e-001) (40, 6.56382262706756590000e-001) (41, 8.80587995052337650000e-001) (42, 1.66366124153137210000e+000) (43, 1.40308845043182370000e+000) (44, 1.30697083473205570000e+000) (45, 1.51492989063262940000e+000) (46, 1.39778220653533940000e+000) (47, 1.00073337554931640000e+000) (48, 5.16056895256042480000e-001) (49, 1.17279839515686040000e+000) (50, 2.06743884086608890000e+000) (51, 1.97804594039916990000e+000) (52, 1.97463548183441160000e+000) (53, 1.45251524448394780000e+000) (54, 1.74991810321807860000e+000) (55, 8.00998687744140630000e-001) (56, 7.38177716732025150000e-001) (57, 1.20570898056030270000e+000) (58, 3.02743792533874510000e-001) (59, 1.74378335475921630000e+000) (60, 1.19691073894500730000e+000) (61, 1.60124754905700680000e+000) (62, 5.78470563888549800000e+000) (63, 1.30851292610168460000e+000) (64, 4.97729253768920900000e+000) (0, 2.15794825553894040000e+000) (1, 4.15944457054138180000e-001) (2, 1.14005589485168460000e+000) (3, 1.86216545104980470000e+000) (4, 2.39228606224060060000e+000) (5, 8.27262401580810550000e-001) (6, 1.46871793270111080000e+000) (7, 2.26367044448852540000e+000) (8, 9.06815052032470700000e-001) (9, 1.77796554565429690000e+000) (10, 1.55640375614166260000e+000) (11, 9.86281156539916990000e-001) (12, 1.07650434970855710000e+000) (13, 1.21917331218719480000e+000) (14, 5.32908439636230470000e+000) (15, 1.55593693256378170000e+000) (16, -1.67474877834320070000e+000) (17, 9.53053832054138180000e-001) (18, 1.42987871170043950000e+000) (19, 2.25877737998962400000e+000) (20, 1.98433721065521240000e+000) (21, 2.10269522666931150000e+000) (22, -8.86700916290283200000e+000) (23, -7.72914886474609380000e-002) (24, 1.15993571281433110000e+000) (25, 9.50102746486663820000e-001) (26, 3.66483831405639650000e+000) (27, 3.03931570053100590000e+000) (28, 1.20542466640472410000e+000) (29, 8.94190907478332520000e-001) (30, 1.09046530723571780000e+000) (31, 1.24006628990173340000e+000) (32, 6.30832076072692870000e-001) (33, 6.52087640762329100000e+000) (34, 1.23311352729797360000e+000) (35, 1.14653968811035160000e+000) (36, 6.68533891439437870000e-002) (37, 1.14573884010314940000e+000) (38, 3.85127687454223630000e+000) (39, 1.30045437812805180000e+000) (40, 4.88964915275573730000e-001) (41, 1.11910247802734370000e+000) (42, 4.91132259368896480000e-001) (43, 3.62618505954742430000e-001) (44, 3.60887169837951660000e-001) (45, 1.71731710433959960000e+000) (46, 1.29156196117401120000e+000) (47, 5.49702346324920650000e-001) (48, -6.16649091243743900000e-001) (49, -6.24361991882324220000e-001) (50, 1.74317491054534910000e+000) (51, 1.18619024753570560000e+000) (52, 1.05318653583526610000e+000) (53, 9.22260701656341550000e-001) (54, 1.08860778808593750000e+000) (55, 3.94829332828521730000e-001) (56, 3.12029063701629640000e-001) (57, 7.44180977344512940000e-001) (58, 8.47756922245025630000e-001) (59, 1.66842401027679440000e+000) (60, 1.12336313724517820000e+000) (61, 4.50646686553955080000e+000) (62, 2.54796624183654790000e+000) (63, 3.77215766906738280000e+000) (64, -1.43698406219482420000e+001) (0, 2.22970962524414060000e+000) (1, 1.32933986186981200000e+000) (2, 1.84946298599243160000e+000) (3, 3.50886535644531250000e+000) (4, 3.16359019279479980000e+000) (5, 1.72764265537261960000e+000) (6, 3.14474797248840330000e+000) (7, 1.71940672397613530000e+000) (8, 9.29852008819580080000e-001) (9, 1.07522964477539060000e+000) (10, -3.20739531517028810000e+000) (11, 2.37621021270751950000e+000) (12, 1.77596175670623780000e+000) (13, 1.35090076923370360000e+000) (14, 1.50195133686065670000e+000) (15, 1.20296037197113040000e+000) (16, 7.40553915500640870000e-001) (17, 1.43036305904388430000e+000) (18, 1.21037399768829350000e+000) (19, 1.23907685279846190000e+000) (20, 1.07859146595001220000e+000) (21, 1.39915800094604490000e+000) (22, 1.07882773876190190000e+000) (23, 8.69118273258209230000e-001) (24, 1.19736266136169430000e+000) (25, 7.81845092773437500000e-001) (26, 1.19232690334320070000e+000) (27, 1.16279900074005130000e+000) (28, 1.23109769821166990000e+000) (29, 9.75840806961059570000e-001) (30, 1.02525007724761960000e+000) (31, 9.97314155101776120000e-001) (32, 9.39993858337402340000e-001) (33, 9.03909265995025630000e-001) (34, 9.86515820026397710000e-001) (35, 1.21637976169586180000e+000) (36, 1.18156719207763670000e+000) (37, 1.12809252738952640000e+000) (38, 1.09582102298736570000e+000) (39, 9.43295300006866460000e-001) (40, 7.24912762641906740000e-001) (41, 1.42350018024444580000e+000) (42, 1.29435038566589360000e+000) (43, 7.72607803344726560000e+000) (44, 1.34422004222869870000e+000) (45, 1.35219871997833250000e+000) (46, 1.11634457111358640000e+000) (47, 7.89220988750457760000e-001) (48, 6.54054403305053710000e-001) (49, 8.66976439952850340000e-001) (50, 1.50335526466369630000e+000) (51, 1.38431036472320560000e+000) (52, 1.62343072891235350000e+000) (53, 1.21410310268402100000e+000) (54, 1.41544580459594730000e+000) (55, 1.18524980545043950000e+000) (56, 1.63576483726501460000e+000) (57, 1.41087865829467770000e+000) (58, 1.70983874797821040000e+000) (59, 1.95737814903259280000e+000) (60, 1.15830385684967040000e+000) (61, 1.42911696434021000000e+000) (62, 2.89116787910461430000e+000) (63, 1.43138551712036130000e+000) (64, -1.72899734973907470000e+000) (0, 1.15422987937927250000e+000) (1, 8.20836007595062260000e-001) (2, 1.04276144504547120000e+000) (3, 3.72237253189086910000e+000) (4, 1.65847051143646240000e+000) (5, 9.61286842823028560000e-001) (6, 2.12550806999206540000e+000) (7, 1.22403013706207280000e+000) (8, 4.70104843378067020000e-001) (9, 6.92397177219390870000e-001) (10, 9.78378713130950930000e-001) (11, 9.37798857688903810000e-001) (12, 1.05687153339385990000e+000) (13, 9.02020394802093510000e-001) (14, 1.09366869926452640000e+000) (15, 9.02461946010589600000e-001) (16, 5.29396295547485350000e-001) (17, 7.12779939174652100000e-001) (18, 7.25358963012695310000e-001) (19, 7.68776655197143550000e-001) (20, 7.41328656673431400000e-001) (21, 9.37559008598327640000e-001) (22, 7.21953749656677250000e-001) (23, 6.03244781494140630000e-001) (24, 5.99236845970153810000e-001) (25, 6.30333065986633300000e-001) (26, 7.10516750812530520000e-001) (27, 7.61500656604766850000e-001) (28, 8.36137473583221440000e-001) (29, 7.03772127628326420000e-001) (30, 6.94742619991302490000e-001) (31, 5.93479275703430180000e-001) (32, 6.56712830066680910000e-001) (33, 6.34400367736816410000e-001) (34, 7.67591178417205810000e-001) (35, 8.90304088592529300000e-001) (36, 8.14892649650573730000e-001) (37, 7.42389917373657230000e-001) (38, 6.69918119907379150000e-001) (39, 6.23368918895721440000e-001) (40, 5.87243914604187010000e-001) (41, 8.78591775894165040000e-001) (42, 9.21176910400390630000e-001) (43, 1.05268192291259770000e+000) (44, 9.51765179634094240000e-001) (45, 1.13474869728088380000e+000) (46, 8.25395584106445310000e-001) (47, 6.04219734668731690000e-001) (48, 7.45926558971405030000e-001) (49, 6.85540676116943360000e-001) (50, 1.20321297645568850000e+000) (51, 1.24924516677856450000e+000) (52, 1.32010960578918460000e+000) (53, 8.55950355529785160000e-001) (54, 1.06180119514465330000e+000) (55, 9.61867928504943850000e-001) (56, 1.13205158710479740000e+000) (57, 9.94626164436340330000e-001) (58, 1.21561682224273680000e+000) (59, 1.95275914669036870000e+000) (60, 2.00821065902709960000e+000) (61, 1.21278381347656250000e+000) (62, 2.42496871948242190000e+000) (63, 1.54180157184600830000e+000) (64, -2.36928462982177730000e-001) (0, 6.04705631732940670000e-001) (1, 5.52003346383571620000e-002) (2, 6.03844463825225830000e-001) (3, 1.15420460700988770000e+000) (4, 2.43508505821228030000e+000) (5, 1.08643732964992520000e-002) (6, -9.01238083839416500000e-001) (7, 1.51178658008575440000e+000) (8, 9.46789026260375980000e-001) (9, 1.43786072731018070000e-001) (10, 6.92268252372741700000e-001) (11, 9.53741312026977540000e-001) (12, 6.35179698467254640000e-001) (13, 6.43926560878753660000e-001) (14, 1.27335697412490840000e-001) (15, 8.04071187973022460000e-001) (16, 1.65701794624328610000e+000) (17, 2.56708812713623050000e+000) (18, 2.80768704414367680000e+000) (19, 7.35737740993499760000e-001) (20, 2.26090002059936520000e+000) (21, 2.53880453109741210000e+000) (22, -5.65270960330963130000e-001) (23, 1.44780087471008300000e+000) (24, 1.18173465132713320000e-001) (25, 6.65062665939331050000e-001) (26, 3.28246045112609860000e+000) (27, 4.54288959503173830000e+000) (28, 1.70326530933380130000e+000) (29, 1.80396366119384770000e+000) (30, 1.12296307086944580000e+000) (31, 6.32876455783843990000e-001) (32, 5.31501173973083500000e-001) (33, 2.46561503410339360000e+000) (34, 1.20477950572967530000e+000) (35, 1.79749631881713870000e+000) (36, 3.15670704841613770000e+000) (37, 1.30905199050903320000e+000) (38, 8.77140879631042480000e-001) (39, 6.84619963169097900000e-001) (40, 1.15364700555801390000e-001) (41, 5.21299123764038090000e-001) (42, 8.93533766269683840000e-001) (43, 6.36741280555725100000e-001) (44, 8.68589520454406740000e-001) (45, 2.90253460407257080000e-001) (46, 2.92713224887847900000e-001) (47, 7.39804625511169430000e-001) (48, 7.92669177055358890000e-001) (49, 7.15496897697448730000e-001) (50, 3.07740569114685060000e+000) (51, 6.90888583660125730000e-001) (52, 5.04164695739746090000e-001) (53, 9.16617095470428470000e-001) (54, 1.00975215435028080000e+000) (55, 5.08871376514434810000e-001) (56, 8.01577150821685790000e-001) (57, 2.03784203529357910000e+000) (58, 1.65892064571380620000e+000) (59, 2.07069110870361330000e+000) (60, -1.69229760766029360000e-001) (61, 1.93654072284698490000e+000) (62, 5.82771825790405270000e+000) (63, 3.49571049213409420000e-001) (64, -2.38472247123718260000e+000) (0, 1.45689561963081360000e-001) (1, 1.92508864402771000000e+000) (2, 1.25825777649879460000e-001) (3, 2.62798339128494260000e-001) (4, -5.85496723651885990000e-001) (5, 5.66033005714416500000e-001) (6, -7.94196307659149170000e-001) (7, -2.50156164169311520000e-001) (8, 5.21963834762573240000e-002) (9, 3.58741760253906250000e-001) (10, -1.01447224617004390000e+000) (11, 2.02387183904647830000e-001) (12, 4.17212784290313720000e-001) (13, 2.96592652797698970000e-001) (14, -8.41122806072235110000e-001) (15, 1.02307260036468510000e-001) (16, 9.69189524650573730000e-001) (17, 2.10393261909484860000e+000) (18, 1.59093841910362240000e-001) (19, 2.83445622771978380000e-002) (20, 6.75343751907348630000e-001) (21, -1.23092746734619140000e+000) (22, 5.10960459709167480000e-001) (23, 4.19800460338592530000e-001) (24, 1.46286606788635250000e+000) (25, 1.09799790382385250000e+000) (26, -3.89459681510925290000e+000) (27, -1.58753883838653560000e+000) (28, -4.39324855804443360000e+000) (29, -2.24945402145385740000e+000) (30, 5.49219548702239990000e-001) (31, -4.42349255084991460000e-001) (32, 7.92843461036682130000e-001) (33, 3.47413748502731320000e-001) (34, 7.91773796081542970000e-001) (35, -4.30107784271240230000e+000) (36, 2.22403138875961300000e-001) (37, -3.51419955492019650000e-001) (38, 7.00961202383041380000e-002) (39, -3.41915003955364230000e-002) (40, 8.60535621643066410000e-001) (41, 1.76638233661651610000e+000) (42, -3.73137071728706360000e-002) (43, 2.28979659080505370000e+000) (44, 6.29485487937927250000e-001) (45, -8.18344414234161380000e-001) (46, 1.00331091880798340000e+000) (47, 6.80935621261596680000e-001) (48, -9.60407108068466190000e-002) (49, 6.53910040855407710000e-001) (50, 8.72722342610359190000e-002) (51, 4.18723434209823610000e-001) (52, 3.73798429965972900000e-001) (53, -1.03627800941467290000e-001) (54, -2.29342609643936160000e-001) (55, 1.94234959781169890000e-002) (56, 4.13515388965606690000e-001) (57, 2.30168387293815610000e-001) (58, -1.66828727722167970000e+000) (59, -4.35420840978622440000e-001) (60, 1.15815210342407230000e+000) (61, -2.36194193363189700000e-001) (62, -1.69196888804435730000e-001) (63, 3.22554290294647220000e-001) (64, 6.84207296371459960000e+000) (0, 1.74071633815765380000e+000) (1, 1.05800676345825200000e+000) (2, 1.12532925605773930000e+000) (3, 1.18593513965606690000e+000) (4, 3.13602805137634280000e+000) (5, 1.46362984180450440000e+000) (6, 2.44455599784851070000e+000) (7, 1.95838475227355960000e+000) (8, 5.08988857269287110000e-001) (9, 7.92409300804138180000e-001) (10, 1.34923994541168210000e+000) (11, 1.28323352336883540000e+000) (12, 1.33840143680572510000e+000) (13, 1.04254305362701420000e+000) (14, 1.27182114124298100000e+000) (15, 9.88244414329528810000e-001) (16, 6.21918439865112300000e-001) (17, 1.03621804714202880000e+000) (18, 9.54623818397521970000e-001) (19, 1.00258445739746090000e+000) (20, 9.59178209304809570000e-001) (21, 1.21740221977233890000e+000) (22, 8.63082766532897950000e-001) (23, 6.96736752986907960000e-001) (24, 6.62941098213195800000e-001) (25, 7.14694619178771970000e-001) (26, 8.26901316642761230000e-001) (27, 9.44008886814117430000e-001) (28, 9.60427343845367430000e-001) (29, 8.26420307159423830000e-001) (30, 8.08568716049194340000e-001) (31, 6.92533314228057860000e-001) (32, 7.50575959682464600000e-001) (33, 7.77430593967437740000e-001) (34, 9.90363895893096920000e-001) (35, 1.08040499687194820000e+000) (36, 9.07506763935089110000e-001) (37, 8.22861015796661380000e-001) (38, 8.00439238548278810000e-001) (39, 7.67683029174804690000e-001) (40, 6.87765836715698240000e-001) (41, 4.25165987014770510000e+000) (42, 9.16545093059539790000e-001) (43, 1.16964054107666020000e+000) (44, 9.72086429595947270000e-001) (45, 1.30684494972229000000e+000) (46, 9.77846503257751460000e-001) (47, 5.84576070308685300000e-001) (48, 6.01793527603149410000e-001) (49, 8.05909812450408940000e-001) (50, 1.38907909393310550000e+000) (51, 1.35803747177124020000e+000) (52, 1.60578358173370360000e+000) (53, 1.04775011539459230000e+000) (54, 1.12331795692443850000e+000) (55, 1.04114234447479250000e+000) (56, 1.39951121807098390000e+000) (57, 1.18536555767059330000e+000) (58, 1.02994239330291750000e+000) (59, 2.32244634628295900000e+000) (60, 6.93346500396728520000e-001) (61, 1.40988957881927490000e+000) (62, 2.61019301414489750000e+000) (63, 7.50299572944641110000e-001) (64, -1.78206634521484370000e+000) (0, 1.25067472457885740000e+000) (1, 1.33456420898437500000e+000) (2, 5.99473059177398680000e-001) (3, 1.46972894668579100000e+000) (4, -1.08457767963409420000e+000) (5, 2.41926884651184080000e+000) (6, 3.59553480148315430000e+000) (7, 2.71510601043701170000e-001) (8, 1.20912015438079830000e+000) (9, 1.38631546497344970000e+000) (10, 1.95119583606719970000e+000) (11, 1.35023856163024900000e+000) (12, 1.94819223880767820000e+000) (13, 1.40217542648315430000e+001) (14, 2.31910228729248050000e+000) (15, 1.68837642669677730000e+000) (16, 6.93226039409637450000e-001) (17, 1.61868929862976070000e+000) (18, 1.71297955513000490000e+000) (19, 2.19927406311035160000e+000) (20, 1.80409717559814450000e+000) (21, 1.79857969284057620000e+000) (22, 1.33991909027099610000e+000) (23, 1.04878890514373780000e+000) (24, 2.58314847946166990000e+000) (25, 1.23301863670349120000e+000) (26, 1.31442332267761230000e+000) (27, 1.49142742156982420000e+000) (28, 1.48617064952850340000e+000) (29, 1.96465051174163820000e+000) (30, 1.22765803337097170000e+000) (31, 1.09799373149871830000e+000) (32, 1.23825097084045410000e+000) (33, 1.07249438762664790000e+000) (34, 1.33713817596435550000e+000) (35, 1.33885848522186280000e+000) (36, 1.56827378273010250000e+000) (37, 1.35145974159240720000e+000) (38, 1.26226878166198730000e+000) (39, 1.12318921089172360000e+000) (40, 7.23312854766845700000e-001) (41, 1.00899004936218260000e+000) (42, 1.77247369289398190000e+000) (43, 1.34712791442871090000e+000) (44, 1.66351962089538570000e+000) (45, 1.87778675556182860000e+000) (46, 1.40075492858886720000e+000) (47, 1.02725374698638920000e+000) (48, 9.02707695960998540000e-001) (49, 8.31424593925476070000e-001) (50, 1.59927296638488770000e+000) (51, 2.03222417831420900000e+000) (52, 2.14907765388488770000e+000) (53, 1.49000322818756100000e+000) (54, 1.70336616039276120000e+000) (55, 1.54865407943725590000e+000) (56, 9.99555826187133790000e-001) (57, 1.58773851394653320000e+000) (58, 1.17397654056549070000e+000) (59, 3.73939895629882810000e+000) (60, 4.72294139862060550000e+000) (61, 1.97547376155853270000e+000) (62, 2.62612605094909670000e+000) (63, 3.98763895034790040000e+000) (64, -8.14974403381347660000e+000) (0, 1.30512535572052000000e+000) (1, 1.19254016876220700000e+000) (2, 1.03661811351776120000e+000) (3, 2.05987954139709470000e+000) (4, 3.42557382583618160000e+000) (5, 1.17492699623107910000e+000) (6, 1.11871588230133060000e+000) (7, 3.01788520812988280000e+000) (8, 8.64174842834472660000e-001) (9, 8.53746950626373290000e-001) (10, 2.00083899497985840000e+000) (11, 1.34336233139038090000e+000) (12, 1.65756654739379880000e+000) (13, 1.44736456871032710000e+000) (14, 1.61046850681304930000e+000) (15, 1.30639755725860600000e+000) (16, 7.13135659694671630000e-001) (17, 1.09763407707214360000e+000) (18, 7.94089257717132570000e-001) (19, 4.57286834716796870000e+000) (20, 1.11451470851898190000e+000) (21, 1.27317249774932860000e+000) (22, 1.00070619583129880000e+000) (23, 8.50693702697753910000e-001) (24, 8.65049004554748540000e-001) (25, 8.52064073085784910000e-001) (26, 1.03881847858428960000e+000) (27, 1.03993272781372070000e+000) (28, 1.17262017726898190000e+000) (29, 1.05416536331176760000e+000) (30, 1.25745511054992680000e+000) (31, 9.73914384841918950000e-001) (32, 9.38978254795074460000e-001) (33, 7.01773285865783690000e-001) (34, 1.14480078220367430000e+000) (35, 8.74777734279632570000e-001) (36, 1.11275935173034670000e+000) (37, 1.07667386531829830000e+000) (38, 2.20999240875244140000e+000) (39, 9.70471620559692380000e-001) (40, 5.47696650028228760000e-001) (41, 1.11099278926849370000e+000) (42, 1.16482329368591310000e+000) (43, 1.11168754100799560000e+000) (44, 1.54453778266906740000e+000) (45, 2.11225891113281250000e+000) (46, 1.21064341068267820000e+000) (47, 9.63226020336151120000e-001) (48, 2.18581271171569820000e+000) (49, 6.17599189281463620000e-001) (50, 1.46743822097778320000e+000) (51, 1.84653806686401370000e+000) (52, 1.92201447486877440000e+000) (53, 8.52400779724121090000e-001) (54, 1.82130455970764160000e+000) (55, 1.23422932624816890000e+000) (56, -7.52020105719566350000e-002) (57, 1.38677704334259030000e+000) (58, 1.44102156162261960000e+000) (59, 3.08396100997924800000e+000) (60, 7.64999568462371830000e-001) (61, 1.81966507434844970000e+000) (62, 4.02620792388916020000e+000) (63, 2.68589258193969730000e+000) (64, 7.99695205688476560000e+000) (0, 1.72793626785278320000e+000) (1, 1.23221170902252200000e+000) (2, 1.34639668464660640000e+000) (3, 2.40198397636413570000e+000) (4, 1.29695785045623780000e+000) (5, 1.56895124912261960000e+000) (6, 4.75509452819824220000e+000) (7, 7.01444208621978760000e-001) (8, 6.97075068950653080000e-001) (9, 9.32336270809173580000e-001) (10, 1.46802628040313720000e+000) (11, 1.36888635158538820000e+000) (12, 1.51723289489746090000e+000) (13, 1.12772989273071290000e+000) (14, 1.35236704349517820000e+000) (15, 1.03405141830444340000e+000) (16, 6.91000282764434810000e-001) (17, 1.06665945053100590000e+000) (18, 1.02365112304687500000e+000) (19, 1.08811712265014650000e+000) (20, 1.00189220905303960000e+000) (21, 1.30398130416870120000e+000) (22, 8.85216593742370610000e-001) (23, 7.33257472515106200000e-001) (24, 9.00549292564392090000e-001) (25, 7.51932144165039060000e-001) (26, 8.86034607887268070000e-001) (27, 1.00099158287048340000e+000) (28, 9.73157584667205810000e-001) (29, 8.65845799446105960000e-001) (30, 8.42542648315429690000e-001) (31, 7.68228530883789060000e-001) (32, 7.54975795745849610000e-001) (33, 7.57863163948059080000e-001) (34, 8.95986497402191160000e-001) (35, 1.04846096038818360000e+000) (36, 9.61140573024749760000e-001) (37, 1.02860558032989500000e+000) (38, 9.14702236652374270000e-001) (39, 7.94577598571777340000e-001) (40, 6.55881583690643310000e-001) (41, 1.00757563114166260000e+000) (42, 1.11325204372406010000e+000) (43, 1.20353460311889650000e+000) (44, 1.14223897457122800000e+000) (45, 1.29328644275665280000e+000) (46, 9.21654224395751950000e-001) (47, 7.67340540885925290000e-001) (48, 7.15798497200012210000e-001) (49, 8.61139535903930660000e-001) (50, 1.31290650367736820000e+000) (51, 1.47168076038360600000e+000) (52, 1.49072217941284180000e+000) (53, 1.13777959346771240000e+000) (54, 1.33408832550048830000e+000) (55, 1.09557366371154790000e+000) (56, 1.58294987678527830000e+000) (57, 1.39747476577758790000e+000) (58, 1.63016974925994870000e+000) (59, 2.48338961601257320000e+000) (60, 2.83880567550659180000e+000) (61, 1.45354163646698000000e+000) (62, 2.68341183662414550000e+000) (63, 1.76154375076293950000e+000) (64, 2.58881062269210820000e-001) (0, 1.45792460441589360000e+000) (1, -3.31354832649230960000e+000) (2, 1.05016970634460450000e+000) (3, 2.04511451721191410000e+000) (4, 3.01145100593566890000e+000) (5, 1.43547379970550540000e+000) (6, 1.88673591613769530000e+000) (7, 2.50787734985351560000e+000) (8, 8.65302324295043950000e-001) (9, 5.72418689727783200000e-001) (10, 1.62355387210845950000e+000) (11, 8.70272731781005860000e+000) (12, 1.36493039131164550000e+000) (13, 7.41123259067535400000e-001) (14, 1.37937712669372560000e+000) (15, 1.03366875648498540000e+000) (16, 8.11890184879302980000e-001) (17, 1.14722096920013430000e+000) (18, 2.06497716903686520000e+000) (19, 1.13416409492492680000e+000) (20, 1.41749596595764160000e+000) (21, 7.51371324062347410000e-001) (22, 7.97984600067138670000e-001) (23, 9.72407639026641850000e-001) (24, 6.26115441322326660000e-001) (25, 4.60400724411010740000e+000) (26, 4.12717008590698240000e+000) (27, 5.08437395095825200000e-001) (28, 8.40050399303436280000e-001) (29, 1.34159374237060550000e+000) (30, 9.78641927242279050000e-001) (31, 5.75124442577362060000e-001) (32, 4.66829031705856320000e-001) (33, 7.83171951770782470000e-001) (34, 1.07931387424468990000e+000) (35, 5.78152227401733400000e+000) (36, 1.37974321842193600000e+000) (37, 1.08725953102111820000e+000) (38, 5.66005110740661620000e-001) (39, 9.86060678958892820000e-001) (40, 6.94389462471008300000e-001) (41, 7.59978353977203370000e-001) (42, 1.36923575401306150000e+000) (43, 1.00482594966888430000e+000) (44, 1.30472767353057860000e+000) (45, 1.29355525970458980000e+000) (46, 1.06819891929626460000e+000) (47, 8.42985868453979490000e-001) (48, 4.92457777261734010000e-001) (49, 1.15729963779449460000e+000) (50, 1.36665391921997070000e+000) (51, 1.85030066967010500000e+000) (52, 2.05627536773681640000e+000) (53, 1.17118203639984130000e+000) (54, 1.73200023174285890000e+000) (55, 1.30674397945404050000e+000) (56, 2.44136428833007810000e+000) (57, 1.46221339702606200000e+000) (58, 1.55339610576629640000e+000) (59, 3.15759944915771480000e+000) (60, 1.20858824253082280000e+000) (61, 1.75359117984771730000e+000) (62, 2.24722099304199220000e+000) (63, 2.46304273605346680000e+000) (64, -5.98357820510864260000e+000) (0, 4.81517702341079710000e-001) (1, 1.13763284683227540000e+000) (2, 1.20747029781341550000e+000) (3, 2.32249760627746580000e+000) (4, 2.71787261962890620000e+000) (5, 1.63127982616424560000e+000) (6, 3.09650731086730960000e+000) (7, 1.78791916370391850000e+000) (8, 7.22988545894622800000e-001) (9, 9.14241135120391850000e-001) (10, 1.53354561328887940000e+000) (11, 9.58669185638427730000e+000) (12, 1.64495205879211430000e+000) (13, 1.22672307491302490000e+000) (14, 1.46973109245300290000e+000) (15, 1.16274440288543700000e+000) (16, 7.00323462486267090000e-001) (17, 1.11557793617248540000e+000) (18, 1.04407811164855960000e+000) (19, 1.05020761489868160000e+000) (20, 1.05553972721099850000e+000) (21, 1.36823320388793950000e+000) (22, 1.03952670097351070000e+000) (23, 7.84276902675628660000e-001) (24, 9.76506829261779790000e-001) (25, 8.20198118686676030000e-001) (26, 9.68794047832489010000e-001) (27, 1.09309983253479000000e+000) (28, 1.08129155635833740000e+000) (29, 9.09737229347229000000e-001) (30, 9.95722591876983640000e-001) (31, 8.61456513404846190000e-001) (32, 8.04225385189056400000e-001) (33, 8.83772850036621090000e-001) (34, 1.06784594058990480000e+000) (35, 1.16113460063934330000e+000) (36, 1.08919262886047360000e+000) (37, 1.02796530723571780000e+000) (38, 9.38105404376983640000e-001) (39, 8.44806432723999020000e-001) (40, 7.24620580673217770000e-001) (41, 1.16026806831359860000e+000) (42, 1.33065223693847660000e+000) (43, 1.39602172374725340000e+000) (44, 1.35678899288177490000e+000) (45, 1.41555976867675780000e+000) (46, 1.04977393150329590000e+000) (47, 8.06934773921966550000e-001) (48, 7.40205705165863040000e-001) (49, 1.00353789329528810000e+000) (50, 1.57703340053558350000e+000) (51, 1.72235679626464840000e+000) (52, 1.85520827770233150000e+000) (53, 1.31384384632110600000e+000) (54, 1.51818525791168210000e+000) (55, 1.29112946987152100000e+000) (56, 2.02800250053405760000e+000) (57, 1.41095757484436040000e+000) (58, 1.72228181362152100000e+000) (59, 3.40960550308227540000e+000) (60, 3.55958032608032230000e+000) (61, 1.70362484455108640000e+000) (62, 3.24579358100891110000e+000) (63, 2.02461862564086910000e+000) (64, -2.11414647102355960000e+000) (0, 1.54868781566619870000e+000) (1, 8.84262800216674800000e-001) (2, 8.96452307701110840000e-001) (3, 1.39488482475280760000e+000) (4, 1.53055799007415770000e+000) (5, 1.40509068965911870000e+000) (6, 1.51308965682983400000e+000) (7, 2.49342769384384160000e-002) (8, 7.74839758872985840000e-001) (9, 9.49307501316070560000e-001) (10, 1.43001532554626460000e+000) (11, 3.34296762943267820000e-001) (12, 1.80264711380004880000e-001) (13, 8.26981782913208010000e-001) (14, 1.44202268123626710000e+000) (15, 1.19618499279022220000e+000) (16, 2.77682870626449580000e-001) (17, 7.48201012611389160000e-001) (18, 1.56332933902740480000e+000) (19, 1.45886170864105220000e+000) (20, 3.28438806533813480000e+000) (21, 3.21291232109069820000e+000) (22, -1.74281112849712370000e-002) (23, 4.58413451910018920000e-001) (24, 1.53480386734008790000e+000) (25, 6.34110033512115480000e-001) (26, 3.41987895965576170000e+000) (27, 4.75148773193359370000e+000) (28, 1.17558801174163820000e+000) (29, 1.02106797695159910000e+000) (30, 7.00034499168396000000e-001) (31, 6.53321206569671630000e-001) (32, 5.18288731575012210000e-001) (33, 7.83838212490081790000e-001) (34, 9.47566479444503780000e-002) (35, 3.42746786773204800000e-002) (36, 5.21860218048095700000e+000) (37, 3.47217607498168950000e+000) (38, 8.23242723941802980000e-001) (39, 1.04115498065948490000e+000) (40, 6.49959266185760500000e-001) (41, 7.98156201839447020000e-001) (42, 5.22710025310516360000e-001) (43, 5.84163963794708250000e-001) (44, 6.00857913494110110000e-001) (45, 1.28045701980590820000e+000) (46, 5.49001395702362060000e-001) (47, 9.43753182888031010000e-001) (48, 6.04302942752838130000e-001) (49, 5.42253494262695310000e-001) (50, 1.42053353786468510000e+000) (51, 2.75996494293212890000e+000) (52, 1.23017883300781250000e+000) (53, 1.58241450786590580000e+000) (54, 5.57917654514312740000e-001) (55, 1.01272857189178470000e+000) (56, -1.26026737689971920000e+000) (57, 2.16553524136543270000e-001) (58, 1.74579381942749020000e+000) (59, 1.22788369655609130000e+000) (60, 7.18928635120391850000e-001) (61, 1.30112397670745850000e+000) (62, 2.27411770820617680000e+000) (63, 1.41893935203552250000e+000) (64, -9.20531845092773440000e+000) (0, 2.21127438545227050000e+000) (1, 1.25888681411743160000e+000) (2, 1.55269157886505130000e+000) (3, 3.79876255989074710000e+000) (4, 3.75739288330078120000e+000) (5, 1.59537875652313230000e+000) (6, 1.11592578887939450000e+000) (7, 4.42793846130371090000e+000) (8, 9.32290971279144290000e-001) (9, 9.79574918746948240000e-001) (10, 1.03736734390258790000e+000) (11, 1.61088073253631590000e+000) (12, 1.36173045635223390000e+000) (13, 1.27650272846221920000e+000) (14, 1.52601730823516850000e+000) (15, 1.23444628715515140000e+000) (16, 1.02247941493988040000e+000) (17, 1.09490549564361570000e+000) (18, 1.17899847030639650000e+000) (19, 1.27380895614624020000e+000) (20, 1.16622340679168700000e+000) (21, 1.29315423965454100000e+000) (22, 1.11927819252014160000e+000) (23, 8.07756543159484860000e-001) (24, 8.40002298355102540000e-001) (25, 8.71058762073516850000e-001) (26, 1.17001938819885250000e+000) (27, 9.77984905242919920000e-001) (28, 1.18080747127532960000e+000) (29, 1.16138482093811040000e+000) (30, 1.04176270961761470000e+000) (31, 7.84875929355621340000e-001) (32, 7.04378724098205570000e-001) (33, 1.04985451698303220000e+000) (34, 2.82355499267578120000e+000) (35, 1.79250717163085940000e+000) (36, 2.85125827789306640000e+000) (37, 9.22667860984802250000e-001) (38, 6.81383490562438960000e-001) (39, 7.21325755119323730000e-001) (40, 7.50171661376953130000e-001) (41, 1.23973143100738530000e+000) (42, 1.64885830879211430000e+000) (43, 1.07864630222320560000e+000) (44, 1.29695725440979000000e+000) (45, 1.23303234577178960000e+000) (46, 1.28276824951171880000e+000) (47, 8.02795469760894780000e-001) (48, 4.15421128273010250000e-001) (49, 1.96641707420349120000e+000) (50, 1.70951163768768310000e+000) (51, 1.39851641654968260000e+000) (52, 1.81682515144348140000e+000) (53, 9.12773072719573970000e-001) (54, 1.08970987796783450000e+000) (55, 9.65631961822509770000e-001) (56, 1.08651387691497800000e+000) (57, 1.16813480854034420000e+000) (58, 1.41849303245544430000e+000) (59, 2.01279711723327640000e+000) (60, 1.36156177520751950000e+000) (61, 2.10388374328613280000e+000) (62, 2.90311312675476070000e+000) (63, 4.82950353622436520000e+000) (64, -4.43929767608642580000e+000) (0, 1.35849070549011230000e+000) (1, 1.19480097293853760000e+000) (2, 1.34360420703887940000e+000) (3, 1.66346430778503420000e+000) (4, 3.60659861564636230000e+000) (5, 1.49252843856811520000e+000) (6, 2.08848714828491210000e+000) (7, 1.39320588111877440000e+000) (8, 8.39475631713867190000e-001) (9, 7.40925908088684080000e-001) (10, 1.43218517303466800000e+000) (11, 1.03878068923950200000e+000) (12, 1.50550615787506100000e+000) (13, 1.02360296249389650000e+000) (14, 1.35225296020507810000e+000) (15, 1.03308844566345210000e+000) (16, 6.34449899196624760000e-001) (17, 8.10849189758300780000e-001) (18, 9.77290391921997070000e-001) (19, 9.02180552482604980000e-001) (20, 9.01334702968597410000e-001) (21, 1.24209642410278320000e+000) (22, 9.52186763286590580000e-001) (23, 6.22110366821289060000e-001) (24, 7.96726346015930180000e-001) (25, 6.99810504913330080000e-001) (26, 9.12162542343139650000e-001) (27, 9.62726473808288570000e-001) (28, 1.04468965530395510000e+000) (29, 8.01944017410278320000e-001) (30, 7.17137932777404790000e-001) (31, 7.08899140357971190000e-001) (32, 7.59383320808410640000e-001) (33, 5.91729879379272460000e-001) (34, 8.50389659404754640000e-001) (35, 8.72330725193023680000e-001) (36, 8.12424480915069580000e-001) (37, 7.15453565120697020000e-001) (38, 6.59179031848907470000e-001) (39, 5.93010842800140380000e-001) (40, 6.54797136783599850000e-001) (41, 8.56212496757507320000e-001) (42, 9.72555816173553470000e-001) (43, 1.03643620014190670000e+000) (44, 4.16070938110351560000e+000) (45, 8.12524855136871340000e-001) (46, 1.05813825130462650000e+000) (47, 6.32818520069122310000e-001) (48, 6.98138654232025150000e-001) (49, 6.45272314548492430000e-001) (50, 1.13546133041381840000e+000) (51, 1.38302266597747800000e+000) (52, 1.04236137866973880000e+000) (53, 4.25455236434936520000e+000) (54, 1.26864981651306150000e+000) (55, 9.94070649147033690000e-001) (56, 1.59164428710937500000e+000) (57, 8.45490336418151860000e-001) (58, 6.08965814113616940000e-001) (59, 1.97778189182281490000e+000) (60, 1.70050039887428280000e-001) (61, 1.60559010505676270000e+000) (62, 2.03783035278320310000e+000) (63, 6.58754110336303710000e-001) (64, -2.10111808776855470000e+000) (0, -4.87212985754013060000e-001) (1, 1.16685092449188230000e+000) (2, 1.14577460289001460000e+000) (3, 1.73389554023742680000e+000) (4, 1.41932415962219240000e+000) (5, 2.03488230705261230000e+000) (6, 1.77580344676971440000e+000) (7, 1.92480444908142090000e+000) (8, 8.99205505847930910000e-002) (9, 3.10907959938049320000e+000) (10, 1.57254385948181150000e+000) (11, 1.03934831619262700000e+001) (12, 2.01087999343872070000e+000) (13, 9.07043516635894780000e-001) (14, 1.62585222721099850000e+000) (15, 1.18072843551635740000e+000) (16, 6.75317525863647460000e-001) (17, 1.19812464714050290000e+000) (18, 1.26956474781036380000e+000) (19, 1.84654086828231810000e-001) (20, 1.58197462558746340000e+000) (21, 1.00691330432891850000e+000) (22, 2.85534310340881350000e+000) (23, 1.79339778423309330000e+000) (24, 1.06084358692169190000e+000) (25, 3.85778784751892090000e+000) (26, 1.20941209793090820000e+000) (27, 1.10025691986083980000e+000) (28, 9.80095148086547850000e-001) (29, 1.58152508735656740000e+000) (30, 1.85871958732604980000e+000) (31, 1.01585996150970460000e+000) (32, 9.11530315876007080000e-001) (33, 7.52185642719268800000e-001) (34, 1.53341960906982420000e+000) (35, 1.10975003242492680000e+000) (36, 1.16099929809570310000e+000) (37, 1.22827208042144780000e+000) (38, 1.01420295238494870000e+000) (39, 9.37620759010314940000e-001) (40, 8.59770059585571290000e-001) (41, 9.17881667613983150000e-001) (42, 3.09691596031188960000e+000) (43, 1.30863511562347410000e+000) (44, 1.22631120681762700000e+000) (45, 1.99978065490722660000e+000) (46, 8.99309635162353520000e-001) (47, 7.49806165695190430000e-001) (48, 6.07407271862030030000e-001) (49, 1.27782559394836430000e+000) (50, 1.34604370594024660000e+000) (51, 1.64599704742431640000e+000) (52, 1.84798514842987060000e+000) (53, 1.24623978137969970000e+000) (54, 1.72945106029510500000e+000) (55, 8.38696897029876710000e-001) (56, 1.86137723922729490000e+000) (57, 1.25545001029968260000e+000) (58, 2.11755990982055660000e+000) (59, 4.00179433822631840000e+000) (60, 2.52805900573730470000e+000) (61, 1.65488970279693600000e+000) (62, 2.49167919158935550000e+000) (63, 2.03086161613464360000e+000) (64, -2.81401944160461430000e+000) (65, 1.02873468399047850000e+001) (66, -4.12373161315917970000e+000) (67, 3.71042175292968750000e+001) (68, 3.42004704475402830000e+000) (69, 2.01064395904541020000e+001) (70, 1.90187370777130130000e+000) (71, 2.58817362785339360000e+000) (72, 4.37857913970947270000e+000) (73, 8.32519721984863280000e+000) (74, 1.65306890010833740000e+000) (75, -8.97023499011993410000e-001) (76, 1.75913929939270020000e+000) (77, -1.14821672439575200000e+000) (78, 8.48094367980957030000e+000) (79, 1.52234926223754880000e+001) (80, 1.98766601085662840000e+000) (81, 7.63165998458862300000e+000) (82, 1.91771984100341800000e+001) (83, 5.76693820953369140000e+000) (84, -2.29616022109985350000e+000) (85, 7.32049322128295900000e+000) (86, 5.52025794982910160000e+000) (87, 5.05880451202392580000e+000) (88, 3.09541473388671880000e+001) (89, 4.68904685974121090000e+000) (90, 1.96409702301025390000e+001) (91, 2.83801102638244630000e+000) (92, 4.94483709335327150000e+000) (93, 5.46015882492065430000e+000) (94, 5.49999237060546870000e+000) (95, -3.33431363105773930000e+000) 
