FANN_FLO_2.1
num_layers=3
learning_rate=0.500000
connection_rate=1.000000
network_type=0
learning_momentum=0.000000
training_algorithm=2
train_error_function=1
train_stop_function=0
cascade_output_change_fraction=0.010000
quickprop_decay=-0.000100
quickprop_mu=1.750000
rprop_increase_factor=1.200000
rprop_decrease_factor=0.500000
rprop_delta_min=0.000000
rprop_delta_max=50.000000
rprop_delta_zero=0.100000
cascade_output_stagnation_epochs=12
cascade_candidate_change_fraction=0.010000
cascade_candidate_stagnation_epochs=12
cascade_max_out_epochs=150
cascade_min_out_epochs=50
cascade_max_cand_epochs=150
cascade_min_cand_epochs=50
cascade_num_candidate_groups=2
bit_fail_limit=3.49999994039535520000e-001
cascade_candidate_limit=1.00000000000000000000e+003
cascade_weight_multiplier=4.00000005960464480000e-001
cascade_activation_functions_count=10
cascade_activation_functions=3 5 7 8 10 11 14 15 16 17 
cascade_activation_steepnesses_count=4
cascade_activation_steepnesses=2.50000000000000000000e-001 5.00000000000000000000e-001 7.50000000000000000000e-001 1.00000000000000000000e+000 
layer_sizes=65 31 2 
scale_included=1
scale_mean_in=1.238172 0.676163 1.166932 1.423604 1.265257 1.526235 4.362895 1.220299 0.415513 0.621453 0.877449 1.018822 1.141514 0.964965 1.388023 0.872901 0.286558 0.511134 0.616063 0.577974 0.690963 0.840323 0.609822 0.330642 0.186662 0.028277 0.212022 0.192303 0.190830 0.230054 0.053666 0.112060 -0.193832 -0.053825 -0.247366 -0.250155 -0.246428 -0.271148 -0.085003 -0.127081 -0.294280 -0.524093 -0.639789 -0.605861 -0.724731 -0.866715 -0.634577 -0.346292 -0.420722 -0.628519 -0.871526 -1.031727 -1.147460 -0.985921 -1.401938 -0.881914 -1.190645 -0.683929 -1.165794 -1.402794 -1.245103 -1.512214 -4.283541 -1.219215 
scale_deviation_in=2.329899 2.196650 2.632232 2.899556 2.775715 2.654228 4.932734 2.971555 1.286003 1.721194 2.618856 2.647407 2.785478 2.301116 2.601683 2.116069 1.259836 1.890324 1.905427 2.146673 2.125036 2.243880 1.818186 1.500449 1.466001 1.431866 1.725752 1.893628 1.862293 1.721110 1.649804 1.532210 1.444870 1.433269 1.717571 1.882931 1.850917 1.721144 1.650179 1.530567 1.255995 1.870667 1.891895 2.135352 2.113707 2.235015 1.831217 1.504364 1.284971 1.715538 2.581935 2.631802 2.769945 2.307861 2.608992 2.130057 2.302727 2.193258 2.610870 2.833054 2.713746 2.642469 4.876315 2.977305 
scale_new_min_in=-10.000000 -10.000000 -10.000000 -10.000000 -10.000000 -10.000000 -10.000000 -10.000000 -10.000000 -10.000000 -10.000000 -10.000000 -10.000000 -10.000000 -10.000000 -10.000000 -10.000000 -10.000000 -10.000000 -10.000000 -10.000000 -10.000000 -10.000000 -10.000000 -10.000000 -10.000000 -10.000000 -10.000000 -10.000000 -10.000000 -10.000000 -10.000000 -10.000000 -10.000000 -10.000000 -10.000000 -10.000000 -10.000000 -10.000000 -10.000000 -10.000000 -10.000000 -10.000000 -10.000000 -10.000000 -10.000000 -10.000000 -10.000000 -10.000000 -10.000000 -10.000000 -10.000000 -10.000000 -10.000000 -10.000000 -10.000000 -10.000000 -10.000000 -10.000000 -10.000000 -10.000000 -10.000000 -10.000000 -10.000000 
scale_factor_in=10.000000 10.000000 10.000000 10.000000 10.000000 10.000000 10.000000 10.000000 10.000000 10.000000 10.000000 10.000000 10.000000 10.000000 10.000000 10.000000 10.000000 10.000000 10.000000 10.000000 10.000000 10.000000 10.000000 10.000000 10.000000 10.000000 10.000000 10.000000 10.000000 10.000000 10.000000 10.000000 10.000000 10.000000 10.000000 10.000000 10.000000 10.000000 10.000000 10.000000 10.000000 10.000000 10.000000 10.000000 10.000000 10.000000 10.000000 10.000000 10.000000 10.000000 10.000000 10.000000 10.000000 10.000000 10.000000 10.000000 10.000000 10.000000 10.000000 10.000000 10.000000 10.000000 10.000000 10.000000 
scale_mean_out=100.184196 
scale_deviation_out=100.110779 
scale_new_min_out=0.000000 
scale_factor_out=100.000000 
neurons (num_inputs, activation_function, activation_steepness)=(0, 0, 0.00000000000000000000e+000) (0, 0, 0.00000000000000000000e+000) (0, 0, 0.00000000000000000000e+000) (0, 0, 0.00000000000000000000e+000) (0, 0, 0.00000000000000000000e+000) (0, 0, 0.00000000000000000000e+000) (0, 0, 0.00000000000000000000e+000) (0, 0, 0.00000000000000000000e+000) (0, 0, 0.00000000000000000000e+000) (0, 0, 0.00000000000000000000e+000) (0, 0, 0.00000000000000000000e+000) (0, 0, 0.00000000000000000000e+000) (0, 0, 0.00000000000000000000e+000) (0, 0, 0.00000000000000000000e+000) (0, 0, 0.00000000000000000000e+000) (0, 0, 0.00000000000000000000e+000) (0, 0, 0.00000000000000000000e+000) (0, 0, 0.00000000000000000000e+000) (0, 0, 0.00000000000000000000e+000) (0, 0, 0.00000000000000000000e+000) (0, 0, 0.00000000000000000000e+000) (0, 0, 0.00000000000000000000e+000) (0, 0, 0.00000000000000000000e+000) (0, 0, 0.00000000000000000000e+000) (0, 0, 0.00000000000000000000e+000) (0, 0, 0.00000000000000000000e+000) (0, 0, 0.00000000000000000000e+000) (0, 0, 0.00000000000000000000e+000) (0, 0, 0.00000000000000000000e+000) (0, 0, 0.00000000000000000000e+000) (0, 0, 0.00000000000000000000e+000) (0, 0, 0.00000000000000000000e+000) (0, 0, 0.00000000000000000000e+000) (0, 0, 0.00000000000000000000e+000) (0, 0, 0.00000000000000000000e+000) (0, 0, 0.00000000000000000000e+000) (0, 0, 0.00000000000000000000e+000) (0, 0, 0.00000000000000000000e+000) (0, 0, 0.00000000000000000000e+000) (0, 0, 0.00000000000000000000e+000) (0, 0, 0.00000000000000000000e+000) (0, 0, 0.00000000000000000000e+000) (0, 0, 0.00000000000000000000e+000) (0, 0, 0.00000000000000000000e+000) (0, 0, 0.00000000000000000000e+000) (0, 0, 0.00000000000000000000e+000) (0, 0, 0.00000000000000000000e+000) (0, 0, 0.00000000000000000000e+000) (0, 0, 0.00000000000000000000e+000) (0, 0, 0.00000000000000000000e+000) (0, 0, 0.00000000000000000000e+000) (0, 0, 0.00000000000000000000e+000) (0, 0, 0.00000000000000000000e+000) (0, 0, 0.00000000000000000000e+000) (0, 0, 0.00000000000000000000e+000) (0, 0, 0.00000000000000000000e+000) (0, 0, 0.00000000000000000000e+000) (0, 0, 0.00000000000000000000e+000) (0, 0, 0.00000000000000000000e+000) (0, 0, 0.00000000000000000000e+000) (0, 0, 0.00000000000000000000e+000) (0, 0, 0.00000000000000000000e+000) (0, 0, 0.00000000000000000000e+000) (0, 0, 0.00000000000000000000e+000) (0, 0, 0.00000000000000000000e+000) (65, 5, 5.00000000000000000000e-001) (65, 5, 5.00000000000000000000e-001) (65, 5, 5.00000000000000000000e-001) (65, 5, 5.00000000000000000000e-001) (65, 5, 5.00000000000000000000e-001) (65, 5, 5.00000000000000000000e-001) (65, 5, 5.00000000000000000000e-001) (65, 5, 5.00000000000000000000e-001) (65, 5, 5.00000000000000000000e-001) (65, 5, 5.00000000000000000000e-001) (65, 5, 5.00000000000000000000e-001) (65, 5, 5.00000000000000000000e-001) (65, 5, 5.00000000000000000000e-001) (65, 5, 5.00000000000000000000e-001) (65, 5, 5.00000000000000000000e-001) (65, 5, 5.00000000000000000000e-001) (65, 5, 5.00000000000000000000e-001) (65, 5, 5.00000000000000000000e-001) (65, 5, 5.00000000000000000000e-001) (65, 5, 5.00000000000000000000e-001) (65, 5, 5.00000000000000000000e-001) (65, 5, 5.00000000000000000000e-001) (65, 5, 5.00000000000000000000e-001) (65, 5, 5.00000000000000000000e-001) (65, 5, 5.00000000000000000000e-001) (65, 5, 5.00000000000000000000e-001) (65, 5, 5.00000000000000000000e-001) (65, 5, 5.00000000000000000000e-001) (65, 5, 5.00000000000000000000e-001) (65, 5, 5.00000000000000000000e-001) (0, 5, 0.00000000000000000000e+000) (31, 0, 5.00000000000000000000e-001) (0, 0, 0.00000000000000000000e+000) 
connections (connected_to_neuron, weight)=(0, 1.96007480621337890000e+001) (1, 1.76207399368286130000e+000) (2, 7.28911010742187500000e+002) (3, 9.35430236816406250000e+002) (4, 6.25301170349121090000e+000) (5, 3.07603740692138670000e+001) (6, -1.23465240001678470000e+000) (7, -1.11079931259155270000e+000) (8, 6.73641622066497800000e-001) (9, 1.82223856449127200000e-001) (10, 1.50000000000000000000e+003) (11, -3.27084565162658690000e+000) (12, 1.37308816909790040000e+001) (13, -5.22106742858886720000e+000) (14, 5.75959205627441410000e+000) (15, 1.73577224731445310000e+002) (16, -5.09572357177734380000e+002) (17, 1.40075454711914060000e+001) (18, 4.00998735427856450000e+000) (19, -1.59435224533081050000e+000) (20, -4.06925439834594730000e+000) (21, 2.12441196441650390000e+001) (22, 2.09058928489685060000e+000) (23, -4.42632532119750980000e+000) (24, 1.34326202392578120000e+002) (25, -1.37190806865692140000e+000) (26, 4.59283294677734380000e+001) (27, 5.03895187377929690000e+000) (28, -1.78331553936004640000e-001) (29, 5.84338486194610600000e-001) (30, 5.45823001861572270000e+000) (31, -2.17659926414489750000e+000) (32, 5.43608760833740230000e+000) (33, 3.17667579650878910000e+001) (34, 9.30522384643554690000e+001) (35, 2.24028396606445310000e+000) (36, 5.72318847656250000000e+002) (37, 1.15028703212738040000e+000) (38, 1.36853790283203130000e+001) (39, 3.82368493080139160000e+000) (40, -2.58252716064453120000e+000) (41, 8.41336131095886230000e-001) (42, 5.77477531433105470000e+001) (43, -1.61832618713378910000e+000) (44, 1.17718725585937500000e+003) (45, 3.28344055175781250000e+002) (46, 1.72677922248840330000e+000) (47, -6.39706730842590330000e-001) (48, 6.57571220397949220000e+000) (49, 2.97592201232910160000e+001) (50, 8.77367935180664060000e+001) (51, 3.25759162902832030000e+001) (52, -4.58974212408065800000e-001) (53, 2.72389488220214840000e+001) (54, 3.03269958496093750000e+001) (55, 1.39204437255859370000e+002) (56, -1.75173065185546870000e+002) (57, 1.35315075683593750000e+003) (58, 1.19722961425781250000e+003) (59, 5.24210700988769530000e+001) (60, 2.25461311340332030000e+001) (61, 1.84879124164581300000e+000) (62, -4.90327930450439450000e+000) (63, -4.74818849563598630000e+000) (64, 5.50486488342285160000e+001) (0, -8.34087505936622620000e-002) (1, 2.19984388351440430000e+000) (2, 2.65051841735839840000e+000) (3, -1.40549349784851070000e+000) (4, -1.44239032268524170000e+000) (5, 2.56279253959655760000e+000) (6, 5.86898231506347660000e+000) (7, 5.94600009918212890000e+000) (8, 4.92228716611862180000e-001) (9, 1.78709459304809570000e+000) (10, -1.90598642826080320000e+000) (11, 1.46673059463500980000e+000) (12, 2.82105088233947750000e+000) (13, 3.10053038597106930000e+000) (14, 2.76606369018554690000e+000) (15, 2.97923874855041500000e+000) (16, 1.67656338214874270000e+000) (17, 2.38267493247985840000e+000) (18, 4.20001649856567380000e+000) (19, 2.21305274963378910000e+000) (20, 1.41571938991546630000e-001) (21, 2.23755538463592530000e-002) (22, -4.37103652954101560000e+000) (23, 5.98680794239044190000e-001) (24, 1.23295915126800540000e+000) (25, 4.41495805978775020000e-001) (26, 1.00779557228088380000e+000) (27, 6.62668824195861820000e-001) (28, 1.21765375137329100000e+000) (29, 7.43694901466369630000e-001) (30, 2.06912374496459960000e+000) (31, 2.33421611785888670000e+000) (32, 5.34932374954223630000e+000) (33, 1.42423319816589360000e+000) (34, 3.31780046224594120000e-001) (35, 3.70059341192245480000e-001) (36, 2.58119893074035640000e+000) (37, 1.12887549400329590000e+000) (38, 2.63674163818359380000e+000) (39, 2.21749210357666020000e+000) (40, -6.21181983947753910000e+001) (41, -5.60357391834259030000e-001) (42, 5.35317993164062500000e+000) (43, 6.13897943496704100000e+000) (44, 4.22412538528442380000e+000) (45, 9.72744286060333250000e-001) (46, 2.47051334381103520000e+000) (47, 1.32342109680175780000e+001) (48, -1.25330877304077150000e+000) (49, 2.65609288215637210000e+000) (50, -1.70492255687713620000e+000) (51, 2.21193462610244750000e-001) (52, -4.48360204696655270000e+000) (53, -1.26821219921112060000e+000) (54, 2.47348159551620480000e-001) (55, 1.13359332084655760000e+000) (56, 1.57195007801055910000e+000) (57, 4.44805030822753910000e+001) (58, -1.55318960547447200000e-001) (59, -1.29807817935943600000e+000) (60, 3.37390124797821040000e-001) (61, 1.24108159542083740000e+000) (62, 3.23644137382507320000e+000) (63, 2.12206673622131350000e+000) (64, -1.67844955444335940000e+002) (0, 5.74339866638183590000e+000) (1, 3.19475822448730470000e+001) (2, 4.90518093109130860000e+000) (3, 1.07343797683715820000e+001) (4, 4.18390106201171870000e+002) (5, -6.56731081008911130000e+000) (6, 8.08858489990234370000e+000) (7, 4.34005508422851560000e+001) (8, 6.07513475418090820000e+000) (9, 2.34020948410034180000e+000) (10, 3.27728973388671870000e+002) (11, 1.46701002120971680000e+001) (12, 1.93687105178833010000e+000) (13, 3.95856704711914060000e+001) (14, -9.10188140869140630000e+001) (15, 2.08317321777343750000e+002) (16, -4.67984771728515620000e+002) (17, 4.67565917968750000000e+000) (18, 4.55210762023925780000e+001) (19, 1.30737566947937010000e+000) (20, 4.62189435958862300000e+000) (21, 4.96432983398437500000e+002) (22, 3.39280090332031250000e+002) (23, 3.64527535438537600000e+000) (24, 3.28016495704650880000e+000) (25, 3.18888759613037110000e+001) (26, 3.15531005859375000000e+001) (27, 3.31593399047851560000e+001) (28, 4.19919681549072270000e+000) (29, 5.83134269714355470000e+000) (30, 1.22055006027221680000e+001) (31, 8.30147552490234370000e+000) (32, 5.09417152404785160000e+001) (33, 8.85011482238769530000e+000) (34, 1.61225219726562500000e+002) (35, 4.99151153564453130000e+001) (36, 1.00562156677246090000e+002) (37, 5.16684389114379880000e+000) (38, 1.01733160018920900000e+001) (39, 2.53205275535583500000e+000) (40, 1.33780491352081300000e+000) (41, 5.48036422729492190000e+001) (42, 1.09745101928710940000e+001) (43, 1.18391904830932620000e+001) (44, 1.59325227737426760000e+001) (45, 8.14375972747802730000e+000) (46, 3.04814171791076660000e+000) (47, 2.99892973899841310000e+000) (48, 1.44501943588256840000e+001) (49, 8.20348262786865230000e-001) (50, 1.75217636108398440000e+002) (51, 4.58449029922485350000e+000) (52, 2.40046620368957520000e+000) (53, 4.19852066040039060000e+001) (54, 1.03725833892822270000e+001) (55, 2.20370040893554690000e+002) (56, -1.58456287384033200000e+001) (57, -1.43814770507812500000e+003) (58, -5.84177322387695310000e+001) (59, 4.27481658935546870000e+002) (60, 1.06631307601928710000e+001) (61, 6.87502503395080570000e-001) (62, 2.50011920928955080000e+001) (63, 2.58240938186645510000e+000) (64, -6.49219665527343750000e+001) (0, 1.01587939262390140000e+000) (1, 1.81909046173095700000e+001) (2, 3.37285499572753910000e+001) (3, -2.33764314651489260000e+000) (4, 1.33486881256103520000e+001) (5, 2.48917371034622190000e-001) (6, -1.52935647964477540000e+001) (7, 4.81603193283081050000e+000) (8, 1.29949626922607420000e+001) (9, 6.48980379104614260000e+000) (10, 2.92110824584960940000e+000) (11, -4.11130046844482420000e+000) (12, 3.61223487854003910000e+001) (13, -3.63535094261169430000e+000) (14, -4.40235185623168950000e+000) (15, -4.93560600280761720000e+000) (16, -2.38301181793212890000e+000) (17, 4.60675811767578120000e+000) (18, -2.17804765701293950000e+000) (19, -3.24684929847717290000e+000) (20, -4.47065877914428710000e+000) (21, 7.72380447387695310000e+000) (22, -2.10349559783935550000e+000) (23, -3.20803689956665040000e+000) (24, 9.72789764404296870000e+000) (25, 1.35742568969726560000e+001) (26, 1.44824028015136720000e+001) (27, -9.32099223136901860000e-001) (28, 5.28951215744018550000e+000) (29, 1.80652275085449220000e+001) (30, 3.21296477317810060000e+000) (31, 1.44468917846679690000e+001) (32, 6.52337360382080080000e+000) (33, 1.70472240447998050000e+001) (34, 1.30956726074218750000e+001) (35, 5.97432708740234370000e+000) (36, -2.28896021842956540000e+000) (37, -6.92029178142547610000e-001) (38, 4.32383918762207030000e+000) (39, 1.72418823242187500000e+001) (40, 1.94346797466278080000e+000) (41, 2.32537193298339840000e+001) (42, -9.64599549770355220000e-001) (43, 2.89698429107666020000e+001) (44, 1.79186058044433590000e+000) (45, 1.02686190605163570000e+000) (46, -3.31566905975341800000e+000) (47, 2.69886684417724610000e+001) (48, 1.39857530593872070000e+001) (49, 4.93949031829833980000e+000) (50, 9.67664432525634770000e+000) (51, 2.56878738403320310000e+001) (52, 1.61984558105468750000e+001) (53, 1.68340625762939450000e+001) (54, 1.65831623077392580000e+001) (55, 5.84358870983123780000e-001) (56, -3.11931467056274410000e+000) (57, -3.60944604873657230000e+000) (58, 1.19335212707519530000e+001) (59, 1.41563749313354490000e+001) (60, 1.62499485015869140000e+001) (61, 1.23478908538818360000e+001) (62, -5.47416496276855470000e+000) (63, -3.00395512580871580000e+000) (64, 1.50000000000000000000e+003) (0, 2.92598462104797360000e+000) (1, 2.50486404418945310000e+002) (2, 2.07380180358886720000e+001) (3, 3.15271210670471190000e+000) (4, 1.39714345932006840000e+001) (5, 7.71609604358673100000e-001) (6, 4.10175689697265620000e+002) (7, 2.28075199127197270000e+001) (8, 1.97415947914123540000e+000) (9, 2.63000297546386720000e+000) (10, 5.38166236877441410000e+001) (11, 9.78554534912109370000e+000) (12, 6.75613451004028320000e+000) (13, 4.72396945953369140000e+000) (14, 2.75785140991210940000e+001) (15, 2.23622188568115230000e+001) (16, 2.65669616699218750000e+002) (17, -1.77737399935722350000e-001) (18, 1.49501304626464840000e+001) (19, 1.17276585102081300000e+000) (20, 2.46634979248046870000e+001) (21, 4.72143220901489260000e+000) (22, 4.59094848632812500000e+001) (23, 2.40902018547058110000e+000) (24, 3.12932181358337400000e+000) (25, 1.02065544128417970000e+002) (26, 5.65942096710205080000e+000) (27, -8.45498371124267580000e+000) (28, 2.94651770591735840000e+000) (29, 2.00973200798034670000e+000) (30, 1.45168809890747070000e+001) (31, 2.75886273384094240000e+000) (32, 6.02548980712890620000e+000) (33, 3.70862793922424320000e+000) (34, 5.35036277770996090000e+000) (35, 1.87303733825683590000e+001) (36, 1.10265274047851560000e+001) (37, 1.83371276855468750000e+001) (38, 1.50733673572540280000e+000) (39, 2.70909929275512700000e+000) (40, 6.78006553649902340000e+000) (41, 2.44137215614318850000e+000) (42, 9.89105319976806640000e+000) (43, 1.83083176612854000000e+000) (44, 4.80026513338088990000e-001) (45, 3.34638854980468750000e+002) (46, 3.05052876472473140000e+000) (47, 1.80763339996337890000e+000) (48, -1.05008649826049800000e+001) (49, -1.01105661392211910000e+001) (50, 4.07848358154296880000e+001) (51, 8.97952377796173100000e-001) (52, -3.80320472717285160000e+001) (53, 3.75061912536621090000e+001) (54, 4.98196840286254880000e+000) (55, -1.25466699600219730000e+001) (56, 4.31265068054199220000e+001) (57, -1.40047033691406250000e+003) (58, 1.16639499664306640000e+001) (59, -1.00501574575901030000e-001) (60, 1.53971033096313480000e+001) (61, 1.20915527343750000000e+001) (62, 2.85169792175292970000e+001) (63, 1.16372880935668950000e+001) (64, -7.95021133422851560000e+001) (0, -2.42567424774169920000e+001) (1, -2.49355196952819820000e+000) (2, -1.01510543823242190000e+001) (3, -5.36892056465148930000e-001) (4, -1.14124145507812500000e+001) (5, -1.16500587463378910000e+002) (6, -2.15315418243408200000e+001) (7, -3.69721679687500000000e+001) (8, -1.46370959281921390000e+000) (9, -9.48917770385742190000e+000) (10, -4.39971801757812500000e+002) (11, -2.31871566772460940000e+001) (12, -7.86445260047912600000e-001) (13, 3.93877458572387700000e+000) (14, -2.50640182495117190000e+001) (15, -2.73989844322204590000e+000) (16, 3.74373359680175780000e+001) (17, -1.33472045898437500000e+002) (18, -6.28962898254394530000e+000) (19, -5.87878179550170900000e+000) (20, -1.42126235961914060000e+001) (21, -6.68612718582153320000e+000) (22, -5.24762573242187500000e+001) (23, -8.02048873901367190000e+000) (24, -4.71273918151855470000e+001) (25, -2.90745711326599120000e+000) (26, -1.40885925292968750000e+001) (27, 7.54493415355682370000e-001) (28, 4.69926178455352780000e-001) (29, 3.56883168220520020000e+000) (30, -1.68090128898620610000e+000) (31, -2.27920188903808590000e+001) (32, 1.05063334107398990000e-001) (33, 6.84704971313476560000e+000) (34, -8.65862274169921880000e+001) (35, 2.61928768157958980000e+001) (36, 1.68367080688476560000e+002) (37, -1.06476056575775150000e+000) (38, -4.61901187896728520000e+000) (39, -4.05824613571166990000e+000) (40, 8.10801386833190920000e-001) (41, -3.27918648719787600000e+000) (42, 1.74530923366546630000e+000) (43, -8.88754558563232420000e+000) (44, -5.60775232315063480000e+000) (45, 8.79582946777343750000e+002) (46, -3.81484580039978030000e+000) (47, -2.46163964271545410000e+000) (48, 2.42692208290100100000e+000) (49, -1.61041240692138670000e+001) (50, 6.11893177032470700000e+000) (51, -1.36918945312500000000e+001) (52, -1.12551677227020260000e+000) (53, -1.67869865894317630000e+000) (54, -9.89320874214172360000e-001) (55, -3.63908691406250000000e+001) (56, 1.51748840332031250000e+002) (57, -1.22851489257812500000e+003) (58, -1.11179485321044920000e+001) (59, -1.18141403198242190000e+002) (60, -3.28313517570495610000e+000) (61, 3.30300450325012210000e+000) (62, -1.42171068191528320000e+001) (63, -8.25217151641845700000e+000) (64, 1.32514053344726560000e+002) (0, 2.12977428436279300000e+001) (1, 1.07940559387207030000e+001) (2, -1.70310235023498540000e+000) (3, -3.88283729553222660000e+000) (4, 4.70751047134399410000e+000) (5, 6.05742597579956050000e+000) (6, 1.10356468200683590000e+002) (7, 4.50958938598632810000e+001) (8, 1.89734625816345210000e+000) (9, 1.46499073505401610000e+000) (10, -1.10584301757812500000e+003) (11, 8.39194259643554690000e+001) (12, 1.22210874557495120000e+001) (13, 2.61893672943115230000e+001) (14, 3.44344687461853030000e+000) (15, 2.36262416839599610000e+001) (16, 1.28361096191406250000e+003) (17, 1.51229560375213620000e+000) (18, 2.88058185577392580000e+000) (19, 1.04210784912109370000e+002) (20, 3.47829389572143550000e+000) (21, 2.56514954566955570000e+000) (22, -2.10057037353515620000e+002) (23, 3.65969777107238770000e+000) (24, -3.84355354309082030000e+000) (25, 2.53905320167541500000e+000) (26, -4.66329431533813480000e+000) (27, -6.57415847778320310000e+001) (28, 3.47827577590942380000e+000) (29, 7.91468143463134770000e+000) (30, 1.28564500808715820000e+000) (31, 9.52176189422607420000e+000) (32, -5.95429539680480960000e-001) (33, -5.20116882324218750000e+002) (34, -7.15371398925781250000e+001) (35, -2.65751238912343980000e-002) (36, -4.25587606430053710000e+000) (37, 3.87528085708618160000e+000) (38, -1.09302842617034910000e+000) (39, -2.62088999152183530000e-002) (40, 2.90120744705200200000e+000) (41, 3.16792190074920650000e-001) (42, 1.89437127113342290000e+000) (43, 1.98050916194915770000e+000) (44, 1.16554880142211910000e+000) (45, -6.61144714355468750000e+001) (46, -8.18843231201171870000e+001) (47, 1.92232072353363040000e-001) (48, 4.99487686157226560000e+000) (49, -3.57845878601074220000e+000) (50, -1.56365756988525390000e+001) (51, 2.04269733428955080000e+001) (52, 3.02573227882385250000e+000) (53, -4.17700958251953130000e+000) (54, -7.80894927978515630000e+001) (55, -1.93589115142822270000e+001) (56, 1.39710372924804690000e+002) (57, 1.43333361816406250000e+003) (58, 1.35957412719726560000e+002) (59, -1.32480106353759770000e+001) (60, -1.10061025619506840000e+001) (61, 1.61979281902313230000e+000) (62, 2.24357261657714840000e+001) (63, 2.11579055786132810000e+001) (64, -7.69851303100585940000e+001) (0, 1.60960459709167480000e+000) (1, -9.24811303615570070000e-001) (2, -5.05818367004394530000e-001) (3, -1.05659687519073490000e+000) (4, 5.16574859619140630000e-001) (5, 6.15338325500488280000e-001) (6, -1.92124295234680180000e+000) (7, -2.73593842983245850000e-001) (8, -3.63843500614166260000e-001) (9, -1.05927968025207520000e+000) (10, -1.86778774261474610000e+001) (11, -2.71235680580139160000e+000) (12, -2.24398159980773930000e+000) (13, -1.67875111103057860000e+000) (14, -5.45867145061492920000e-001) (15, -5.57920336723327640000e-001) (16, 2.12442703247070310000e+001) (17, -1.55692517757415770000e+000) (18, -6.76932096481323240000e+000) (19, -9.13410949707031250000e+000) (20, -3.92070674896240230000e+000) (21, -2.96204328536987300000e+000) (22, -2.35546207427978520000e+000) (23, -1.85747456550598140000e+000) (24, -5.90257942676544190000e-001) (25, 8.44551265239715580000e-001) (26, -3.02779269218444820000e+000) (27, -1.89778995513916020000e+001) (28, 9.06578078866004940000e-002) (29, -4.62812042236328120000e+000) (30, -5.55247497558593750000e+000) (31, 2.97528505325317380000e+000) (32, -7.22143113613128660000e-001) (33, -2.25735378265380860000e+000) (34, -2.39324450492858890000e+000) (35, -5.24260997772216800000e+000) (36, -6.56637811660766600000e+000) (37, -3.15741395950317380000e+000) (38, -2.90892553329467770000e+000) (39, -3.24010801315307620000e+000) (40, 9.50450897216796870000e+000) (41, -7.81938016414642330000e-001) (42, -1.67670977115631100000e+000) (43, -2.78070163726806640000e+000) (44, -5.24342155456542970000e+000) (45, -7.52905893325805660000e+000) (46, -1.71912918090820310000e+001) (47, -5.25567483901977540000e+000) (48, -7.08861303329467770000e+000) (49, -3.96600842475891110000e+000) (50, -1.60155940055847170000e+000) (51, -2.86059236526489260000e+000) (52, -2.10621833801269530000e+000) (53, -2.92139959335327150000e+000) (54, 1.96520161628723140000e+000) (55, -9.34027552604675290000e-001) (56, 1.85919702053070070000e+000) (57, -2.42277979850769040000e+000) (58, -2.76693153381347660000e+000) (59, -4.48793232440948490000e-001) (60, -1.96119041442871090000e+001) (61, -1.87628784179687500000e+001) (62, -4.19057846069335940000e+001) (63, -4.38054293394088750000e-001) (64, 2.34010295867919920000e+001) (0, 4.35815477371215820000e+000) (1, 4.32126283645629880000e+000) (2, 5.11369085311889650000e+000) (3, 5.75594472885131840000e+000) (4, 5.35403013229370120000e+000) (5, 5.07440185546875000000e+000) (6, 9.94925117492675780000e+000) (7, 5.96397018432617190000e+000) (8, 2.61637783050537110000e+000) (9, 3.37345480918884280000e+000) (10, 5.16360712051391600000e+000) (11, 5.33895921707153320000e+000) (12, 5.55167913436889650000e+000) (13, 4.63140344619750980000e+000) (14, 5.14983034133911130000e+000) (15, 4.26784229278564450000e+000) (16, 2.41646718978881840000e+000) (17, 3.82279729843139650000e+000) (18, 3.97563338279724120000e+000) (19, 4.54585981369018550000e+000) (20, 4.46237134933471680000e+000) (21, 4.62763404846191410000e+000) (22, 3.73407673835754390000e+000) (23, 3.16663503646850590000e+000) (24, 2.92350268363952640000e+000) (25, 2.91994738578796390000e+000) (26, 3.61552786827087400000e+000) (27, 4.22336101531982420000e+000) (28, 4.11455059051513670000e+000) (29, 3.71036076545715330000e+000) (30, 3.60502505302429200000e+000) (31, 3.17585587501525880000e+000) (32, 2.89588427543640140000e+000) (33, 2.91145420074462890000e+000) (34, 3.56199431419372560000e+000) (35, 4.22712755203247070000e+000) (36, 4.13495302200317380000e+000) (37, 3.68890857696533200000e+000) (38, 3.56316781044006350000e+000) (39, 3.20450687408447270000e+000) (40, 2.38820338249206540000e+000) (41, 3.79836153984069820000e+000) (42, 3.96589016914367680000e+000) (43, 4.49848270416259770000e+000) (44, 4.43015623092651370000e+000) (45, 4.62297296524047850000e+000) (46, 3.77585744857788090000e+000) (47, 3.15887165069580080000e+000) (48, 2.62090730667114260000e+000) (49, 3.34229111671447750000e+000) (50, 5.10871934890747070000e+000) (51, 5.31323623657226560000e+000) (52, 5.53993272781372070000e+000) (53, 4.64516878128051760000e+000) (54, 5.16627502441406250000e+000) (55, 4.29951095581054690000e+000) (56, 4.33128452301025390000e+000) (57, 4.32131052017211910000e+000) (58, 5.08858633041381840000e+000) (59, 5.65802097320556640000e+000) (60, 5.26318359375000000000e+000) (61, 5.08391141891479490000e+000) (62, 9.84581279754638670000e+000) (63, 5.97336626052856450000e+000) (64, -6.07067060470581050000e+000) (0, 1.14481866359710690000e+000) (1, 1.19732275009155270000e+001) (2, 1.45328640937805180000e+000) (3, 1.17842078208923340000e+000) (4, 2.14685082435607910000e+000) (5, 5.71209383010864260000e+000) (6, -2.80128622055053710000e+000) (7, 1.55212998390197750000e+000) (8, 4.98378372192382810000e+000) (9, 7.57151937484741210000e+000) (10, 1.01957321166992190000e+001) (11, 9.69863128662109370000e+000) (12, 1.73189964294433590000e+001) (13, 1.98730647563934330000e+000) (14, 1.70964069366455080000e+001) (15, 7.82918548583984370000e+000) (16, -5.66058111190795900000e+000) (17, 3.46769690513610840000e+000) (18, 2.11864032745361330000e+001) (19, -7.18243062496185300000e-001) (20, -6.78055644035339360000e-001) (21, 1.70865020751953130000e+001) (22, 2.13149585723876950000e+001) (23, -6.91333949565887450000e-001) (24, 5.70862483978271480000e+000) (25, 6.64621686935424800000e+000) (26, 8.29958248138427730000e+000) (27, 3.65219426155090330000e+000) (28, 3.83207321166992190000e-001) (29, 2.19761157035827640000e+000) (30, 1.26566619873046880000e+001) (31, 1.36562881469726560000e+001) (32, 1.03904533386230470000e+001) (33, 1.06743984222412110000e+001) (34, 7.68591928482055660000e+000) (35, 4.47996902465820310000e+000) (36, 1.40422284603118900000e+000) (37, 6.77914261817932130000e-001) (38, 9.26685905456542970000e+000) (39, 1.18613166809082030000e+001) (40, -1.60375380516052250000e+000) (41, 1.60481224060058590000e+001) (42, 7.57284021377563480000e+000) (43, 2.70912718772888180000e+000) (44, 1.76217555999755860000e+001) (45, 4.90072059631347660000e+000) (46, 2.63743710517883300000e+000) (47, -2.10660874843597410000e-001) (48, 1.45280492305755620000e+000) (49, 9.25094985961914060000e+000) (50, 2.48025169372558590000e+001) (51, 1.38202581405639650000e+001) (52, 4.08499002456665040000e+000) (53, 2.04966049194335940000e+001) (54, 1.61238307952880860000e+001) (55, 1.03639039993286130000e+001) (56, -1.70633077621459960000e+000) (57, -3.41516113281250000000e+001) (58, 7.62864446640014650000e+000) (59, 1.41171188354492190000e+001) (60, 2.09438729286193850000e+000) (61, 2.11684799194335940000e+001) (62, 1.81779823303222660000e+001) (63, 1.51649265289306640000e+001) (64, 1.50000000000000000000e+003) (0, 1.14882624149322510000e+000) (1, 1.18078410625457760000e+000) (2, 1.38875985145568850000e+000) (3, 1.57120645046234130000e+000) (4, 1.44671535491943360000e+000) (5, 1.36618793010711670000e+000) (6, 2.74417090415954590000e+000) (7, 1.63965106010437010000e+000) (8, 7.25988745689392090000e-001) (9, 9.18012976646423340000e-001) (10, 1.40996825695037840000e+000) (11, 1.47084951400756840000e+000) (12, 1.52604401111602780000e+000) (13, 1.26850223541259770000e+000) (14, 1.40919280052185060000e+000) (15, 1.17392218112945560000e+000) (16, 6.45944774150848390000e-001) (17, 1.05196607112884520000e+000) (18, 1.11126267910003660000e+000) (19, 1.25832068920135500000e+000) (20, 1.23835301399230960000e+000) (21, 1.28293848037719730000e+000) (22, 1.03677260875701900000e+000) (23, 8.78994166851043700000e-001) (24, 8.02141249179840090000e-001) (25, 8.03068459033966060000e-001) (26, 9.97712790966033940000e-001) (27, 1.18063890933990480000e+000) (28, 1.14757490158081050000e+000) (29, 1.03246080875396730000e+000) (30, 9.97164189815521240000e-001) (31, 8.87634813785552980000e-001) (32, 7.91771531105041500000e-001) (33, 8.02152574062347410000e-001) (34, 9.90945696830749510000e-001) (35, 1.17708289623260500000e+000) (36, 1.14908015727996830000e+000) (37, 1.03283190727233890000e+000) (38, 9.89473044872283940000e-001) (39, 8.88547062873840330000e-001) (40, 6.42714619636535640000e-001) (41, 1.04552054405212400000e+000) (42, 1.10494124889373780000e+000) (43, 1.25551736354827880000e+000) (44, 1.23623466491699220000e+000) (45, 1.28137063980102540000e+000) (46, 1.04388785362243650000e+000) (47, 8.78334641456604000000e-001) (48, 7.28091001510620120000e-001) (49, 9.10806894302368160000e-001) (50, 1.39448583126068120000e+000) (51, 1.46543157100677490000e+000) (52, 1.52306926250457760000e+000) (53, 1.27656412124633790000e+000) (54, 1.41350913047790530000e+000) (55, 1.18192875385284420000e+000) (56, 1.14727485179901120000e+000) (57, 1.17900502681732180000e+000) (58, 1.37956547737121580000e+000) (59, 1.54982173442840580000e+000) (60, 1.42149472236633300000e+000) (61, 1.36993181705474850000e+000) (62, 2.71209907531738280000e+000) (63, 1.63985729217529300000e+000) (64, -1.61993908882141110000e+000) (0, 4.41876620054245000000e-001) (1, -3.50312995910644530000e+001) (2, 2.73874114990234370000e+002) (3, 6.22755088806152340000e+001) (4, 8.13428802490234380000e+001) (5, 8.33628368377685550000e+000) (6, 4.61696350097656250000e+002) (7, 4.45213409423828120000e+002) (8, 3.56866717338562010000e+000) (9, 1.29307007789611820000e+000) (10, 1.50000000000000000000e+003) (11, 1.99494647979736330000e+001) (12, 1.48134922981262210000e+000) (13, -4.85931444168090820000e+000) (14, 1.68953704833984370000e+000) (15, 1.25142917633056640000e+001) (16, -9.05464477539062500000e+001) (17, 4.15448181152343750000e+002) (18, 1.19324922561645510000e+001) (19, -5.02396087646484380000e+001) (20, -1.53033339977264400000e+000) (21, 4.34171028137207030000e+001) (22, 9.21253128051757810000e+001) (23, 9.74473815917968750000e+002) (24, 1.93430538177490230000e+001) (25, 6.72987318038940430000e+000) (26, 1.25464029312133790000e+001) (27, 3.87957115173339840000e+001) (28, 9.67174887657165530000e-001) (29, 1.01696121692657470000e+000) (30, 2.08987255096435550000e+001) (31, -1.14723896980285640000e+000) (32, 2.03348731994628910000e+001) (33, 4.06285238265991210000e+000) (34, 1.95095443725585940000e+002) (35, 1.98959388732910160000e+001) (36, 3.04986457824707030000e+001) (37, 1.51058149337768550000e+000) (38, 1.31748037338256840000e+001) (39, 5.48467779159545900000e+000) (40, -1.85964143276214600000e+000) (41, 3.20333900451660160000e+001) (42, 1.26895284652709960000e+001) (43, -2.77730154991149900000e+000) (44, 1.45621404647827150000e+001) (45, 2.74319877624511720000e+001) (46, 1.45742944335937500000e+003) (47, 8.07646632194519040000e-001) (48, 2.18478317260742190000e+001) (49, 8.21570014953613280000e+000) (50, 3.60575408935546870000e+001) (51, 3.17746791839599610000e+001) (52, -1.30115966796875000000e+001) (53, 2.76166858673095700000e+001) (54, 3.29161834716796880000e+001) (55, 1.14321575164794920000e+001) (56, -1.09921618652343750000e+003) (57, 1.14639721679687500000e+003) (58, -3.37861976623535160000e+001) (59, 2.88499116897583010000e+000) (60, 1.80465583801269530000e+001) (61, 8.11965560913085940000e+000) (62, 1.08305826187133790000e+001) (63, -2.52028417587280270000e+000) (64, 1.33910415649414060000e+002) (0, 8.30112755298614500000e-001) (1, -4.86663675308227540000e+000) (2, -4.46514081954956050000e+000) (3, -8.83536911010742190000e+000) (4, 6.72922897338867190000e+000) (5, -1.63438928127288820000e+000) (6, -2.20287036895751950000e+001) (7, -1.22858438491821290000e+001) (8, -2.83558821678161620000e+000) (9, 6.24332141876220700000e+000) (10, 9.06976985931396480000e+000) (11, 3.38331222534179690000e+001) (12, -6.35253667831420900000e+000) (13, -3.35515642166137700000e+000) (14, -5.32166624069213870000e+000) (15, -1.16896085739135740000e+001) (16, -3.69320273399353030000e+000) (17, -2.89295268058776860000e+000) (18, 2.62689727783203120000e+002) (19, -8.84693145751953130000e+000) (20, -3.94033288955688480000e+000) (21, 1.49500484466552730000e+001) (22, -4.72455358505249020000e+000) (23, -6.90038728713989260000e+000) (24, -5.65361452102661130000e+000) (25, -3.83500671386718750000e+000) (26, 4.62591934204101560000e+000) (27, -1.49956715106964110000e+000) (28, 8.54491996765136720000e+000) (29, -4.76580286026000980000e+000) (30, -1.00906145572662350000e+000) (31, -5.19752645492553710000e+000) (32, 2.68186032772064210000e-001) (33, -4.44703149795532230000e+000) (34, 1.59299335479736330000e+001) (35, 1.42816960811614990000e+000) (36, 3.96328010559082030000e+001) (37, -6.03032636642456050000e+000) (38, 1.22057819366455080000e+001) (39, -3.88801693916320800000e+000) (40, 4.63294506072998050000e+000) (41, -1.41668677330017090000e+000) (42, -3.00638437271118160000e+000) (43, -6.34165763854980470000e+000) (44, -5.13484239578247070000e+000) (45, -2.84101700782775880000e+000) (46, 3.46823211669921870000e+002) (47, -7.00228452682495120000e+000) (48, 5.66227293014526370000e+000) (49, 3.10207819938659670000e+000) (50, 5.40068664550781250000e+002) (51, 1.40810966491699220000e+001) (52, 6.66780352592468260000e-001) (53, 2.06434936523437500000e+001) (54, 2.49562501907348630000e+000) (55, -1.37748467922210690000e+000) (56, -9.15526504516601560000e+001) (57, -7.96564817428588870000e+000) (58, -1.45895278453826900000e+000) (59, 3.25813412666320800000e+000) (60, 9.06484413146972660000e+000) (61, 2.81067824363708500000e+000) (62, -6.57503128051757810000e+000) (63, -4.45240402221679690000e+000) (64, 1.24654113769531250000e+002) (0, 6.38752818107604980000e-001) (1, -9.95004057884216310000e-001) (2, -8.55342566967010500000e-001) (3, 9.03725147247314450000e-001) (4, 4.76095527410507200000e-001) (5, 6.10582195222377780000e-002) (6, 3.24047708511352540000e+000) (7, 2.87469685077667240000e-001) (8, 1.18264816701412200000e-001) (9, -1.32006481289863590000e-002) (10, -1.50341863632202150000e+001) (11, -2.58275121450424190000e-001) (12, 1.19151365756988530000e+000) (13, 7.01514542102813720000e-001) (14, 1.90024447441101070000e+000) (15, 1.20730566978454590000e+000) (16, -3.13841432332992550000e-001) (17, 6.04112565517425540000e-001) (18, 4.34486955404281620000e-001) (19, -4.40821528434753420000e-001) (20, -4.03802126646041870000e-001) (21, 1.61664888262748720000e-001) (22, 7.57821619510650630000e-001) (23, 5.34200131893157960000e-001) (24, 4.33084785938262940000e-001) (25, 5.32282173633575440000e-001) (26, 5.83206057548522950000e-001) (27, -8.48208516836166380000e-002) (28, -6.59957826137542720000e-002) (29, -1.42347469925880430000e-001) (30, 4.01634812355041500000e-001) (31, 4.05687659978866580000e-001) (32, 2.19256353378295900000e+000) (33, 6.42022490501403810000e-001) (34, 6.16521835327148440000e-001) (35, 4.82388406991958620000e-001) (36, 1.98681724071502690000e+000) (37, 1.17535340785980220000e+000) (38, -3.66756588220596310000e-001) (39, 1.28303781151771550000e-001) (40, 1.80249884724617000000e-001) (41, 6.10788106918334960000e-001) (42, 1.61570763587951660000e+000) (43, -5.02759933471679690000e-001) (44, 7.41104423999786380000e-001) (45, 9.85242664813995360000e-001) (46, 4.72277879714965820000e-001) (47, 1.06465375423431400000e+000) (48, 9.04429376125335690000e-001) (49, 8.54560613632202150000e-001) (50, -6.08787202835083010000e+000) (51, 1.12004292011260990000e+000) (52, 1.51604974269866940000e+000) (53, 9.61263835430145260000e-001) (54, 3.66337388753890990000e-001) (55, 1.80566996335983280000e-001) (56, -1.14001083374023440000e+000) (57, 2.52464473247528080000e-001) (58, 1.32777482271194460000e-001) (59, 1.70606875419616700000e+000) (60, 7.42984056472778320000e-001) (61, 1.12692987918853760000e+000) (62, -1.90170511603355410000e-001) (63, 5.24845182895660400000e-001) (64, 6.12652244567871090000e+001) (0, -7.77414560317993160000e-001) (1, -3.16371629014611240000e-003) (2, -2.38418388366699220000e+001) (3, 3.33448715209960940000e+001) (4, -5.11241483688354490000e+000) (5, -2.45436525344848630000e+000) (6, -1.31356220245361330000e+001) (7, -3.79218368530273440000e+001) (8, -1.03871059417724610000e+000) (9, -3.62490034103393550000e+000) (10, 3.01738250732421870000e+002) (11, -9.63712692260742190000e+000) (12, -6.77371072769165040000e+000) (13, -4.23471403121948240000e+000) (14, -2.83641433715820310000e+000) (15, -2.78973541259765620000e+002) (16, 2.44971237182617190000e+001) (17, -1.99563634395599370000e+000) (18, -2.24046916961669920000e+001) (19, -2.55911660194396970000e+000) (20, -1.36083555221557620000e+000) (21, -2.06665420532226560000e+001) (22, -1.86295394897460940000e+001) (23, -1.25088667869567870000e+000) (24, -7.61025810241699220000e+000) (25, -1.90680217742919920000e+000) (26, -7.94355487823486330000e+000) (27, 2.68455672264099120000e+000) (28, -3.86244148015975950000e-001) (29, -9.81247234344482420000e+000) (30, -2.79817152023315430000e+000) (31, -5.82309150695800780000e+000) (32, -2.93110996484756470000e-001) (33, -4.19780778884887700000e+000) (34, -5.52126159667968750000e+002) (35, 2.77947483062744140000e+001) (36, -9.57766246795654300000e+000) (37, -7.92609119415283200000e+000) (38, -6.03363323211669920000e+000) (39, -3.79028773307800290000e+000) (40, 8.17315196990966800000e+000) (41, -7.82312774658203130000e+000) (42, 3.07948803901672360000e+000) (43, -2.77574706077575680000e+000) (44, -1.61905443668365480000e+000) (45, 2.99054679870605470000e+001) (46, 2.74236869812011720000e+001) (47, -1.50650138854980470000e+001) (48, 3.57569724321365360000e-001) (49, -9.02937240600585940000e+001) (50, 7.26226925849914550000e-001) (51, -6.37148590087890630000e+001) (52, -3.57230871915817260000e-001) (53, -1.64938907623291020000e+001) (54, -7.82621860504150390000e-001) (55, -3.46980209350585940000e+001) (56, 4.87802772521972660000e+001) (57, -2.51756866455078120000e+002) (58, -8.35424518585205080000e+000) (59, -3.15724029541015630000e+001) (60, 4.38423842191696170000e-001) (61, 1.83604466915130620000e+000) (62, -5.01475477218627930000e+000) (63, -6.42768430709838870000e+000) (64, 1.29563568115234370000e+002) (0, 2.63650817871093750000e+001) (1, 8.11302661895751950000e+000) (2, 6.52288742065429690000e+001) (3, -7.02482342720031740000e-001) (4, 6.58288717269897460000e+000) (5, 1.20285621643066410000e+002) (6, 5.23163223266601560000e+000) (7, -1.57479643821716310000e+000) (8, -1.78080635070800780000e+001) (9, 1.36964168548583980000e+001) (10, 1.42208160400390630000e+002) (11, -2.94445896148681640000e+000) (12, -1.19843330383300780000e+001) (13, 6.95802124023437500000e+002) (14, -1.12987384796142580000e+001) (15, -2.59767174720764160000e+000) (16, -1.18281898498535160000e+001) (17, 1.52584136962890620000e+002) (18, 1.76408559083938600000e-001) (19, -4.38534545898437500000e+000) (20, -5.83369112014770510000e+000) (21, 3.32037010192871090000e+001) (22, 2.10427856445312500000e+001) (23, -1.18767130374908450000e+000) (24, -1.40763223171234130000e-001) (25, -5.54986178874969480000e-001) (26, 4.49271488189697270000e+000) (27, -3.56050252914428710000e-001) (28, -6.79751753807067870000e-001) (29, -2.13785719871521000000e+000) (30, -1.97300076484680180000e+000) (31, -1.61559162139892580000e+001) (32, -6.51214361190795900000e-001) (33, 9.94828760623931880000e-001) (34, 1.01851940155029300000e+001) (35, -1.65927207469940190000e+000) (36, 4.88389587402343750000e+000) (37, -6.52784645557403560000e-001) (38, -1.28159415721893310000e+000) (39, -2.65270423889160160000e+000) (40, -3.46935195922851560000e+001) (41, 1.50229278564453120000e+002) (42, -5.78365182876586910000e+000) (43, 1.31512191772460940000e+002) (44, 5.93671083450317380000e+000) (45, 2.55667686462402340000e+000) (46, 3.02240800857543950000e+000) (47, -1.78130125999450680000e+000) (48, 4.75155258178710940000e+000) (49, 5.10619068145751950000e+000) (50, 1.49123513698577880000e+000) (51, 2.35009117126464840000e+001) (52, -5.32714033126831050000e+000) (53, 1.82379797101020810000e-001) (54, 7.32941436767578130000e+001) (55, 1.24465513229370120000e+001) (56, 1.18307361602783200000e+001) (57, -1.54906494140625000000e+002) (58, 1.39733295440673830000e+001) (59, 7.19702816009521480000e+000) (60, 3.00822806358337400000e+000) (61, 1.17091875076293950000e+001) (62, -2.37952518463134770000e+000) (63, -4.89276707172393800000e-001) (64, 1.70297889709472660000e+001) (0, 3.10736465454101560000e+000) (1, 3.25423812866210940000e+000) (2, -4.84604187011718750000e+001) (3, -3.70339843750000000000e+002) (4, -1.94927825927734380000e+001) (5, -1.96919071674346920000e+000) (6, 1.47026691436767580000e+001) (7, 1.00202808380126950000e+001) (8, 1.31592855453491210000e+001) (9, 1.42615452408790590000e-001) (10, -5.78424568176269530000e+001) (11, 1.54383916854858400000e+001) (12, 6.27719354629516600000e+000) (13, 8.96357154846191410000e+000) (14, 2.65348386764526370000e+000) (15, 2.55495643615722660000e+000) (16, 8.13251647949218750000e+002) (17, 7.36568689346313480000e+000) (18, 4.56470298767089840000e+000) (19, 1.59207935333251950000e+001) (20, 6.00479221343994140000e+000) (21, 5.09742021560668950000e+000) (22, -5.86817932128906250000e+001) (23, 6.53371286392211910000e+000) (24, -3.16957378387451170000e+000) (25, -5.86259193420410160000e+001) (26, -1.81499233245849610000e+001) (27, 1.52189645767211910000e+001) (28, 1.52274503707885740000e+001) (29, 2.61197910308837890000e+001) (30, 1.11222734451293950000e+001) (31, -6.58727600097656250000e+002) (32, -2.97413992881774900000e+000) (33, -9.50082302093505860000e-001) (34, -1.06169860839843750000e+002) (35, -2.71226501464843750000e+001) (36, 3.99808478355407710000e+000) (37, 3.57227554321289060000e+001) (38, -6.05278372764587400000e-001) (39, 2.94601607322692870000e+000) (40, 4.94435358047485350000e+000) (41, 2.52595591545104980000e+000) (42, 7.73245811462402340000e+000) (43, 7.87067699432373050000e+000) (44, -1.37461414337158200000e+001) (45, -6.31971664428710940000e+001) (46, 2.66777832031250000000e+002) (47, 9.95712280273437500000e+000) (48, -9.21979045867919920000e+000) (49, -1.69866886138916020000e+001) (50, -2.81291151046752930000e+000) (51, -1.12784103393554690000e+002) (52, -6.45063171386718750000e+001) (53, -4.65469360351562500000e+001) (54, -2.13580951690673830000e+001) (55, -2.23032653808593750000e+002) (56, 7.74065490722656250000e+002) (57, -1.15493359375000000000e+003) (58, 7.65213906764984130000e-001) (59, -7.41653442382812500000e+002) (60, -7.05534172058105470000e+000) (61, 5.74338912963867190000e-001) (62, 7.37313604354858400000e+000) (63, 4.51629161834716800000e-001) (64, -7.76701889038085940000e+001) (0, 2.99567103385925290000e-001) (1, 3.06126332283020020000e+000) (2, 5.09243965148925780000e+000) (3, 5.37531185150146480000e+000) (4, 4.12501955032348630000e+000) (5, 4.27846288681030270000e+000) (6, 1.27326231002807620000e+001) (7, 7.13344860076904300000e+000) (8, -8.45418274402618410000e-002) (9, 7.99266993999481200000e-001) (10, 3.94261398315429690000e+001) (11, -9.80191135406494140000e+000) (12, 5.69398117065429690000e+000) (13, 1.24163560867309570000e+001) (14, 5.04508686065673830000e+000) (15, 5.21593952178955080000e+000) (16, 2.82629561424255370000e+000) (17, 4.37496995925903320000e+000) (18, 3.97631287574768070000e+000) (19, 6.48943996429443360000e+000) (20, 6.82638740539550780000e+000) (21, 2.80073523521423340000e+000) (22, 4.28280830383300780000e+000) (23, 4.20081090927124020000e+000) (24, -8.68449401855468750000e+000) (25, -1.26534719467163090000e+001) (26, 2.58712977170944210000e-001) (27, 1.59207515716552730000e+001) (28, 1.20631637573242190000e+001) (29, 6.63289976119995120000e+000) (30, 4.83005666732788090000e+000) (31, 4.80958175659179690000e+000) (32, -1.10848190307617190000e+002) (33, 2.00743341445922850000e+000) (34, 1.96075272560119630000e+000) (35, 6.41942739486694340000e+000) (36, 8.38332462310791020000e+000) (37, 2.39999723434448240000e+000) (38, 9.18154335021972660000e+000) (39, 4.97715139389038090000e+000) (40, -1.36124491691589360000e+000) (41, -9.67279815673828120000e+000) (42, 5.30136680603027340000e+000) (43, 6.38718271255493160000e+000) (44, 5.95885229110717770000e+000) (45, 4.74603462219238280000e+000) (46, 4.31041955947875980000e+000) (47, 2.64514017105102540000e+000) (48, 1.63889133930206300000e+000) (49, -2.36628799438476560000e+002) (50, -1.88593826293945310000e+001) (51, -1.64244365692138670000e+001) (52, -1.20535039901733400000e+000) (53, -1.43317312002182010000e-001) (54, -1.78571593761444090000e+000) (55, -1.76763839721679690000e+001) (56, 2.74466476440429690000e+001) (57, 2.65591144561767580000e+000) (58, 2.11186361312866210000e+000) (59, -6.15025520324707030000e+000) (60, -4.14204806089401250000e-001) (61, -1.98306140899658200000e+001) (62, -3.99602546691894530000e+001) (63, -1.87015319824218750000e+002) (64, -1.28569122314453120000e+002) (0, 9.53275871276855470000e+000) (1, 1.53166782855987550000e+000) (2, 6.22733473777771000000e-001) (3, -7.03484630584716800000e+000) (4, 1.18078410625457760000e+000) (5, -5.96331262588500980000e+000) (6, 2.22711849212646480000e+001) (7, 3.00482177734375000000e+000) (8, 1.82188796997070310000e+000) (9, 8.37682723999023440000e+000) (10, -1.55025726318359370000e+002) (11, 4.66348743438720700000e+000) (12, 3.83038759231567380000e-001) (13, 1.35854089260101320000e+000) (14, 1.81738924980163570000e+000) (15, 4.24581956863403320000e+000) (16, 3.35613739013671870000e+002) (17, 1.46221570968627930000e+001) (18, 2.50907344818115230000e+001) (19, 1.48458299636840820000e+001) (20, 2.32829070091247560000e+000) (21, -1.69551162719726560000e+001) (22, 7.10598897933959960000e+000) (23, 2.49755501747131350000e+000) (24, 5.91622018814086910000e+000) (25, 4.74435234069824220000e+000) (26, -5.56136054992675780000e+001) (27, -1.68383819580078120000e+002) (28, 5.26854515075683590000e+000) (29, 2.66825008392333980000e+001) (30, 3.16910982131958010000e+000) (31, 5.49136734008789060000e+000) (32, 7.57891654968261720000e-001) (33, 2.97445011138916020000e+000) (34, 7.19802188873291020000e+000) (35, 1.59340438842773440000e+001) (36, 7.31077861785888670000e+000) (37, 3.80392909049987790000e+000) (38, 4.79669904708862300000e+000) (39, 1.62575256824493410000e+000) (40, 1.88090438842773440000e+001) (41, 1.91996726989746090000e+001) (42, 8.25107479095458980000e+000) (43, 7.84228181838989260000e+000) (44, 5.37308502197265630000e+001) (45, 1.16910729980468750000e+003) (46, 4.07072925567626950000e+000) (47, 2.88496208190917970000e+000) (48, -4.83367300033569340000e+000) (49, -1.33236446380615230000e+001) (50, -9.06452238559722900000e-002) (51, -4.60586738586425780000e+000) (52, -4.20722770690917970000e+000) (53, -5.70174932479858400000e+000) (54, 1.94054770469665530000e+000) (55, 1.44029140472412110000e+000) (56, 4.37822990417480470000e+001) (57, -1.33578393554687500000e+003) (58, 6.44546556472778320000e+000) (59, 1.82936608791351320000e+000) (60, -1.62871818542480470000e+001) (61, 3.86886620521545410000e+000) (62, 5.84293508529663090000e+000) (63, 7.42684326171875000000e+001) (64, -6.97007904052734380000e+001) (0, 1.88268929719924930000e-001) (1, -2.86394906044006350000e+000) (2, -3.53207550048828130000e+001) (3, -1.18930511474609380000e+001) (4, 3.93861436843872070000e+000) (5, -1.03853553771972660000e+002) (6, -1.68800888061523440000e+001) (7, -6.54040374755859370000e+001) (8, -2.29838657379150390000e+000) (9, -8.04076015949249270000e-001) (10, -2.78789184570312500000e+002) (11, -2.02745552062988280000e+001) (12, -1.52769670486450200000e+001) (13, -9.86828517913818360000e+000) (14, -5.69901504516601560000e+001) (15, -3.31470146179199220000e+001) (16, 8.92231903076171880000e+001) (17, -7.39790010452270510000e+000) (18, -3.66498732566833500000e+000) (19, -3.74730110168457030000e+000) (20, -8.95915603637695310000e+000) (21, -1.47687959671020510000e+001) (22, -6.58712844848632810000e+001) (23, -7.49379682540893550000e+000) (24, -1.77630310058593750000e+001) (25, -7.67777872085571290000e+000) (26, -1.41592216491699220000e+001) (27, -9.38273620605468750000e+000) (28, 1.16157913208007810000e+000) (29, -4.32275831699371340000e-001) (30, -4.68737506866455080000e+000) (31, -8.31818923950195310000e+001) (32, -1.23572969436645510000e+001) (33, -2.60508365631103520000e+001) (34, -1.08753616333007810000e+002) (35, 2.34835510253906250000e+001) (36, -1.29775509238243100000e-001) (37, -4.11892366409301760000e+000) (38, -1.11461000442504880000e+001) (39, -4.58376598358154300000e+000) (40, -3.13336372375488280000e+000) (41, -1.19324922561645510000e+001) (42, -2.21925884485244750000e-001) (43, -2.66038942337036130000e+000) (44, -1.38090133666992190000e+001) (45, -5.39969139099121090000e+001) (46, -2.52942144870758060000e-001) (47, 7.10673391819000240000e-001) (48, -2.59566307067871090000e+000) (49, -2.37182211875915530000e+000) (50, -1.29012741088867190000e+002) (51, -2.13617610931396480000e+001) (52, -1.31035232543945310000e+000) (53, -8.52764892578125000000e+000) (54, -1.41128330230712890000e+001) (55, -1.07600204467773440000e+002) (56, 1.25351352691650390000e+001) (57, -1.00956628417968750000e+003) (58, -1.59630157470703120000e+002) (59, -7.36427545547485350000e+000) (60, -1.21824293136596680000e+001) (61, -3.81395649909973140000e+000) (62, -6.62951421737670900000e+000) (63, -1.39812183380126950000e+001) (64, 5.64400939941406250000e+001) (0, 2.69338631629943850000e+000) (1, 1.28420486450195310000e+001) (2, 1.69793529510498050000e+001) (3, 4.23992614746093750000e+001) (4, 1.70218074321746830000e+000) (5, 3.34152722358703610000e+000) (6, 7.62266063690185550000e+000) (7, 6.28721857070922850000e+000) (8, 2.32580995559692380000e+000) (9, 1.72258865833282470000e+000) (10, -6.44604248046875000000e+002) (11, 2.27310395240783690000e+000) (12, 5.01853942871093750000e+000) (13, 2.28757500648498540000e+000) (14, 6.84559965133666990000e+000) (15, 5.22212839126586910000e+000) (16, 4.39800310134887700000e+000) (17, 2.57393670082092290000e+000) (18, 5.03372430801391600000e+000) (19, 4.14640855789184570000e+000) (20, 3.72754049301147460000e+000) (21, -4.21471738815307620000e+000) (22, 1.13912000656127930000e+001) (23, 1.43575010299682620000e+001) (24, 6.41593627929687500000e+001) (25, 1.93291425704956050000e+000) (26, 1.15564765930175780000e+002) (27, -9.58538970947265630000e+001) (28, 1.74215259552001950000e+001) (29, 2.36525845527648930000e+000) (30, 1.30946674346923830000e+001) (31, -7.61212348937988280000e-001) (32, 1.24950408935546880000e+001) (33, 2.30555458068847660000e+001) (34, -2.55918025970458980000e+000) (35, -5.20675420761108400000e-001) (36, 6.95727682113647460000e+000) (37, 1.97900283336639400000e+000) (38, 4.78824138641357420000e+000) (39, 7.88422966003417970000e+000) (40, 2.74965620040893550000e+000) (41, 2.59954738616943360000e+000) (42, 8.01961040496826170000e+000) (43, 8.17418289184570310000e+000) (44, 1.27900762557983400000e+001) (45, 1.24060640335083010000e+001) (46, 2.38557076454162600000e+000) (47, 2.06776356697082520000e+000) (48, -2.52436995506286620000e+000) (49, 1.19330954551696780000e+000) (50, -2.56365680694580080000e+000) (51, 3.57013778686523440000e+001) (52, 1.71820526123046870000e+002) (53, 1.45116462707519530000e+001) (54, 1.36826385498046870000e+002) (55, -5.30283142089843750000e+002) (56, 4.37328376770019530000e+001) (57, 1.48413964843750000000e+003) (58, 4.87346076965332030000e+000) (59, 4.54146308898925780000e+001) (60, 1.71704444885253910000e+001) (61, 6.36486101150512700000e+000) (62, 6.21322870254516600000e+000) (63, 6.66937923431396480000e+000) (64, -7.54695816040039060000e+001) (0, 1.49864636230468750000e+003) (1, 9.03147430419921880000e+001) (2, 2.50436649322509770000e+001) (3, -2.59509552001953120000e+002) (4, 2.26839874267578120000e+002) (5, 1.27661872863769530000e+002) (6, -2.92550601959228520000e+001) (7, -1.67419159412384030000e+000) (8, 5.77267399057745930000e-003) (9, 5.99426574707031250000e+002) (10, 1.05969680786132810000e+002) (11, 1.50286114215850830000e+000) (12, -1.93535690307617190000e+001) (13, -3.61593723297119140000e+000) (14, -1.12411823272705080000e+001) (15, -6.41277456283569340000e+000) (16, -9.81078369140625000000e+002) (17, -2.08549523353576660000e+000) (18, 3.99526405334472660000e+000) (19, -2.66376209259033200000e+000) (20, -4.30859899520874020000e+000) (21, 7.40791549682617190000e+001) (22, 3.41911464929580690000e-001) (23, 2.56968078613281250000e+001) (24, 5.03999328613281250000e+001) (25, 2.45849654078483580000e-001) (26, 1.53047771453857420000e+001) (27, 6.62553283691406250000e+002) (28, 1.87262115478515630000e+001) (29, 3.57874183654785160000e+001) (30, 3.54998550415039060000e+001) (31, -3.89384698867797850000e+000) (32, -6.00504970550537110000e+000) (33, -2.63456797599792480000e+000) (34, 3.08161258697509770000e+000) (35, 7.35876098632812500000e+002) (36, 5.56058837890625000000e+002) (37, 1.43812494277954100000e+001) (38, 2.75440979003906250000e+001) (39, 3.32303833961486820000e+000) (40, -5.96430053710937500000e+001) (41, -1.03727760314941410000e+001) (42, 8.62542915344238280000e+000) (43, -1.87732887268066410000e+000) (44, 3.66249537467956540000e+000) (45, -2.81734085083007810000e+000) (46, 1.13893833160400390000e+001) (47, 8.88949692249298100000e-001) (48, 2.32196769714355470000e+001) (49, 1.81749229431152340000e+001) (50, 1.31064465332031250000e+003) (51, 4.71231155395507810000e+001) (52, -1.47203671932220460000e+000) (53, 7.20171127319335940000e+001) (54, 2.88957595825195310000e+000) (55, 9.46007461547851560000e+001) (56, -4.67889137268066410000e+001) (57, -1.42396020507812500000e+003) (58, -1.64890980720520020000e+000) (59, 5.21585235595703130000e+001) (60, 9.88665580749511720000e+000) (61, 2.82987651824951170000e+001) (62, 3.26823234558105470000e+001) (63, -8.01726722717285160000e+000) (64, 5.65402412414550780000e+001) (0, 2.42230319976806640000e+000) (1, -6.08598113059997560000e-001) (2, 5.00491917133331300000e-001) (3, 2.86400556564331050000e-001) (4, -9.39469993114471440000e-001) (5, -1.12686268985271450000e-001) (6, -2.91770744323730470000e+000) (7, -2.26281428337097170000e+000) (8, 5.14934110641479490000e+000) (9, -3.96090418100357060000e-001) (10, 1.98661565780639650000e+000) (11, 7.92495459318161010000e-002) (12, -1.87619674205780030000e+000) (13, 3.81120443344116210000e-001) (14, -1.18838989734649660000e+000) (15, -3.19338470697402950000e-001) (16, 4.70799407958984380000e+001) (17, -9.70254540443420410000e-001) (18, -5.68155944347381590000e-001) (19, 2.78479552268981930000e+000) (20, 1.67298877239227290000e+000) (21, -1.82187974452972410000e-001) (22, -1.00962245464324950000e+000) (23, 3.67117673158645630000e-001) (24, 9.87286806106567380000e-001) (25, 7.04689472913742070000e-002) (26, -1.00200939178466800000e+000) (27, -6.85497105121612550000e-001) (28, 1.93481409549713130000e+000) (29, -1.32085847854614260000e+000) (30, -2.64061987400054930000e-001) (31, -7.74448037147521970000e-001) (32, 8.28248858451843260000e-001) (33, 2.90048182010650630000e-001) (34, -1.78307518362998960000e-001) (35, -1.20446753501892090000e+000) (36, -8.77971053123474120000e-002) (37, -1.37757102493196730000e-003) (38, 6.62664830684661870000e-001) (39, -3.18703562021255490000e-001) (40, -5.34977316856384280000e-001) (41, -1.23370444774627690000e+000) (42, 8.95954430103302000000e-001) (43, 9.19428840279579160000e-002) (44, 6.59370779991149900000e-001) (45, 2.50309467315673830000e-001) (46, -1.91894277930259700000e-001) (47, 2.56493538618087770000e-001) (48, -1.70810386538505550000e-001) (49, -7.28977620601654050000e-002) (50, 4.04904842376708980000e-001) (51, 2.21909299492836000000e-001) (52, -2.31758430600166320000e-001) (53, 1.29570469260215760000e-001) (54, -5.03380633890628810000e-002) (55, -6.33510053157806400000e-001) (56, -1.53474196791648860000e-001) (57, -1.96212220191955570000e+000) (58, 3.60959589481353760000e-001) (59, 2.34706163406372070000e-001) (60, 5.20015656948089600000e-001) (61, 5.24346053600311280000e-001) (62, -1.02338600158691410000e+000) (63, 5.86990535259246830000e-001) (64, -4.76573038101196290000e+000) (0, -9.85917091369628910000e+000) (1, 5.00361776351928710000e+000) (2, 9.92567062377929690000e-001) (3, 5.71978092193603520000e+000) (4, -7.77899789810180660000e+000) (5, 5.53345263004302980000e-001) (6, 1.77937908172607420000e+001) (7, 9.68627643585205080000e+000) (8, 4.42442798614501950000e+000) (9, 3.49820566177368160000e+000) (10, -2.41089797019958500000e+000) (11, 7.99023771286010740000e+000) (12, 6.71322536468505860000e+000) (13, 5.22386407852172850000e+000) (14, 5.16751384735107420000e+000) (15, 4.67231416702270510000e+000) (16, 2.38991904258728030000e+000) (17, 8.15699672698974610000e+000) (18, 1.52788372039794920000e+001) (19, 1.31730499267578130000e+001) (20, 1.43826828002929690000e+001) (21, 1.11686906814575200000e+001) (22, 6.74987649917602540000e+000) (23, 9.33197689056396480000e+000) (24, -1.34944558143615720000e-001) (25, 6.77605152130126950000e+000) (26, 2.32468471527099610000e+001) (27, 2.51426753997802730000e+001) (28, 3.76224365234375000000e+001) (29, 1.17514295578002930000e+001) (30, 6.60150885581970210000e-001) (31, 8.85587024688720700000e+000) (32, 4.07642412185668950000e+000) (33, 6.35496282577514650000e+000) (34, 9.40660285949707030000e+000) (35, 1.98002414703369140000e+001) (36, 1.86479988098144530000e+001) (37, 2.12091903686523440000e+001) (38, 5.51229667663574220000e+000) (39, 7.89590215682983400000e+000) (40, 7.75769567489624020000e+000) (41, -7.67055153846740720000e-001) (42, 1.50037174224853520000e+001) (43, 1.31812772750854490000e+001) (44, 2.18041820526123050000e+001) (45, 7.75882816314697270000e+000) (46, 6.92742872238159180000e+000) (47, 2.78465175628662110000e+001) (48, 3.38884204626083370000e-001) (49, 1.40993440151214600000e+000) (50, 8.58289241790771480000e-001) (51, 5.76701021194458010000e+000) (52, 4.99396657943725590000e+000) (53, 9.07166290283203120000e+000) (54, -4.36713546514511110000e-001) (55, 6.17125701904296870000e+000) (56, -9.21986401081085210000e-001) (57, -1.15505352020263670000e+001) (58, 2.23508667945861820000e+000) (59, 1.97136104106903080000e+000) (60, 1.56290292739868160000e+000) (61, -3.95914673805236820000e+000) (62, 3.66857070922851560000e+001) (63, 2.07111682891845700000e+001) (64, -3.80731849670410160000e+001) (0, -1.05652627944946290000e+001) (1, 1.50865201950073240000e+001) (2, 5.73824834823608400000e+000) (3, 7.25566635131835940000e+001) (4, 8.48494720458984370000e+000) (5, 2.42243266105651860000e+000) (6, -2.05907669067382810000e+002) (7, 1.81360435485839840000e+001) (8, 5.40055656433105470000e+000) (9, 5.41489181518554690000e+001) (10, 1.20814880371093750000e+002) (11, 3.49001541137695310000e+001) (12, 1.78498210906982420000e+001) (13, 7.29729557037353520000e+000) (14, 7.50663852691650390000e+000) (15, 7.50019645690917970000e+000) (16, -2.45887794494628910000e+001) (17, 7.16039037704467770000e+000) (18, 2.23979930877685550000e+001) (19, 1.19010248184204100000e+001) (20, 1.13182010650634770000e+001) (21, 1.53063611984252930000e+001) (22, 2.11365966796875000000e+001) (23, 1.69747180938720700000e+001) (24, 1.97231353759765630000e+002) (25, 6.18163490295410160000e+000) (26, 3.57651580810546870000e+002) (27, 2.48578586578369140000e+001) (28, 7.49336090087890630000e+001) (29, 1.12809305191040040000e+001) (30, 2.54605407714843750000e+001) (31, 1.52444801330566410000e+001) (32, 2.79084348678588870000e+000) (33, 5.22158432006835940000e+001) (34, 2.33393459320068360000e+001) (35, 2.38381328582763670000e+001) (36, 2.19177989959716800000e+001) (37, 1.66176223754882810000e+001) (38, 7.19196319580078130000e+001) (39, 5.35438117980957030000e+001) (40, 1.01844620704650880000e+000) (41, 5.55961322784423830000e+000) (42, 1.47903432846069340000e+001) (43, 1.89773616790771480000e+001) (44, 2.43029270172119140000e+001) (45, 7.87422704696655270000e+000) (46, 6.71063232421875000000e+001) (47, 1.01605176925659180000e+001) (48, 1.61110153198242190000e+001) (49, 1.91863040924072270000e+001) (50, 1.02331628799438480000e+001) (51, 6.97765274047851560000e+001) (52, 7.41454887390136720000e+000) (53, 9.46778030395507810000e+001) (54, 6.23861694335937500000e+001) (55, 5.79559097290039060000e+001) (56, -9.95578289031982420000e+000) (57, 5.94585754394531250000e+002) (58, 3.53604698181152340000e+000) (59, 2.72645130157470700000e+001) (60, 4.90836668014526370000e+000) (61, 1.98496317863464360000e+000) (62, 1.97541599273681640000e+001) (63, 1.00088891983032230000e+001) (64, -6.92902450561523440000e+001) (0, 2.27828192710876460000e+000) (1, 6.61586809158325200000e+000) (2, 4.06373023986816410000e+000) (3, 1.19123868942260740000e+001) (4, 7.18101024627685550000e+000) (5, 4.78719520568847660000e+000) (6, 2.51673450469970700000e+001) (7, 9.02864742279052730000e+000) (8, 3.11930155754089360000e+000) (9, 3.67974281311035160000e+000) (10, 1.21794509887695310000e+001) (11, 1.64095401763916020000e+001) (12, 1.13491992950439450000e+001) (13, 5.86829280853271480000e+000) (14, 6.19710922241210940000e+000) (15, 9.00505542755126950000e+000) (16, 1.26765084266662600000e+000) (17, 4.83391857147216800000e+000) (18, 1.67033996582031250000e+001) (19, 1.00502452850341800000e+001) (20, 1.22375211715698240000e+001) (21, 1.02491083145141600000e+001) (22, 4.69686508178710940000e+000) (23, 6.71490144729614260000e+000) (24, 4.26146364212036130000e+000) (25, 3.23477339744567870000e+000) (26, 5.94544315338134770000e+000) (27, 1.92466201782226560000e+001) (28, 1.47226018905639650000e+001) (29, 1.19267044067382810000e+001) (30, 1.27182245254516600000e+001) (31, 5.20106554031372070000e+000) (32, 4.58073616027832030000e+000) (33, 4.07521867752075200000e+000) (34, 4.43357467651367190000e+000) (35, 2.27274494171142580000e+001) (36, 9.34963035583496090000e+000) (37, 8.33433151245117190000e+000) (38, 1.15214710235595700000e+001) (39, 6.57825946807861330000e+000) (40, 1.02418982982635500000e+000) (41, 3.30214762687683110000e+000) (42, 9.87431240081787110000e+000) (43, 8.87224864959716800000e+000) (44, 8.86612987518310550000e+000) (45, 1.08531026840209960000e+001) (46, 6.89635896682739260000e+000) (47, 5.72206354141235350000e+000) (48, 5.24805212020874020000e+000) (49, 2.18456912040710450000e+000) (50, 1.15156054496765140000e+000) (51, 7.02566432952880860000e+000) (52, 4.68474102020263670000e+000) (53, 4.93873643875122070000e+000) (54, 6.37394714355468750000e+000) (55, 7.93060636520385740000e+000) (56, 4.64799728393554690000e+001) (57, -1.09680902957916260000e+000) (58, -1.77115514874458310000e-001) (59, 7.02242422103881840000e+000) (60, 4.82694101333618160000e+000) (61, 2.25197482109069820000e+000) (62, 1.60221061706542970000e+001) (63, 8.84218025207519530000e+000) (64, 2.21418258666992190000e+002) (0, -2.06052684783935550000e+000) (1, 1.19486391544342040000e+000) (2, -1.40631504058837890000e+001) (3, -2.45147943496704100000e+000) (4, -3.72763943672180180000e+000) (5, -8.64725494384765620000e+000) (6, -1.30721020698547360000e+000) (7, 1.40694332122802730000e+000) (8, -1.17340779304504390000e+000) (9, -1.09877662658691410000e+001) (10, -2.37596549987792970000e+001) (11, -9.48796176910400390000e+000) (12, -1.65350162982940670000e+000) (13, 1.47833788394927980000e+000) (14, -5.31354904174804690000e+001) (15, -1.50176601409912110000e+001) (16, 3.87742757797241210000e+000) (17, -4.51952075958251950000e+000) (18, -2.84416079521179200000e+000) (19, 1.26440513134002690000e+000) (20, 1.16275894641876220000e+000) (21, -1.09856710433959960000e+001) (22, -4.33210551738739010000e-001) (23, -1.11635673046112060000e+000) (24, -8.24177742004394530000e+000) (25, -8.03386211395263670000e+000) (26, -1.16763343811035160000e+001) (27, -7.44881916046142580000e+000) (28, -1.87151861190795900000e+000) (29, -2.93999695777893070000e+000) (30, -1.88897180557250980000e+000) (31, -5.32469320297241210000e+000) (32, -1.40875351428985600000e+000) (33, -6.59429788589477540000e+000) (34, -7.66725444793701170000e+000) (35, -6.77121734619140620000e+000) (36, -2.04891986846923830000e+001) (37, -1.79963397979736330000e+001) (38, -8.40524482727050780000e+000) (39, -8.52351284027099610000e+000) (40, 3.45594930648803710000e+000) (41, -1.26756649017333980000e+001) (42, -1.39899816513061520000e+001) (43, -1.38321781158447270000e+001) (44, -4.18135786056518550000e+000) (45, -1.15249309539794920000e+001) (46, 8.49539339542388920000e-001) (47, -2.93460309505462650000e-001) (48, -8.99408340454101560000e+000) (49, -2.46731162071228030000e+000) (50, -1.51102075576782230000e+001) (51, -1.44921846389770510000e+001) (52, -8.55584335327148440000e+000) (53, -1.66194953918457030000e+001) (54, 4.80930519104003910000e+000) (55, -1.83986320495605470000e+001) (56, 1.89316976070404050000e+000) (57, -3.66704010963439940000e+000) (58, -1.30591096878051760000e+001) (59, -1.07585334777832030000e+001) (60, -9.07614040374755860000e+000) (61, -1.73348064422607420000e+001) (62, -3.85720367431640620000e+001) (63, -2.07455730438232420000e+001) (64, -1.43713256835937500000e+003) (0, 8.49695777893066410000e+000) (1, 2.34971557617187500000e+002) (2, 2.75087699890136720000e+001) (3, -1.89013004302978520000e+001) (4, 4.90460014343261720000e+000) (5, 7.16386127471923830000e+000) (6, 3.14988589286804200000e+000) (7, 2.03326206207275390000e+001) (8, -3.88742297887802120000e-001) (9, 9.69762682914733890000e-001) (10, -9.56781372070312500000e+002) (11, 8.57469329833984380000e+001) (12, 1.06402465820312500000e+002) (13, -3.40857839584350590000e+000) (14, 1.58956161499023440000e+002) (15, 7.71648645401000980000e+000) (16, 1.52234542846679690000e+002) (17, 3.00343704223632810000e+000) (18, -5.00250959396362300000e+000) (19, 1.58241617679595950000e+000) (20, -1.55725765228271480000e+000) (21, 1.58880805969238280000e+001) (22, -4.45724601745605470000e+001) (23, 1.11156380176544190000e+000) (24, -1.72412812709808350000e-001) (25, 2.58405666351318360000e+001) (26, 1.44022302627563480000e+001) (27, -2.03491172790527340000e+001) (28, -1.77082157135009770000e+001) (29, -8.93635302782058720000e-002) (30, -3.70445013046264650000e+000) (31, 1.13948369026184080000e+000) (32, 6.87616920471191410000e+000) (33, 1.20622072219848630000e+001) (34, 1.45737990736961360000e-001) (35, -4.85099411010742190000e+000) (36, -1.14391565322875980000e+001) (37, 1.59535837173461910000e+000) (38, -3.55640459060668950000e+000) (39, -1.01754450798034670000e+000) (40, 6.55174589157104490000e+000) (41, 3.57051944732666020000e+000) (42, -2.44742822647094730000e+000) (43, -1.18107283115386960000e+000) (44, -5.09559440612792970000e+000) (45, -2.99871277809143070000e+000) (46, 1.45362529754638670000e+001) (47, -5.87840914726257320000e-001) (48, -4.29803943634033200000e+000) (49, 2.35067939758300780000e+000) (50, 2.96986126899719240000e+000) (51, -9.89189982414245610000e-001) (52, 4.92215394973754880000e+000) (53, 3.02399711608886720000e+001) (54, 2.00273704528808590000e+001) (55, -5.84278602600097660000e+001) (56, 3.84305725097656250000e+002) (57, 1.48413964843750000000e+003) (58, 2.93079242706298830000e+001) (59, 3.79157012939453120000e+002) (60, 1.22945274353027340000e+002) (61, 2.63496637344360350000e+000) (62, -3.60101866722106930000e+000) (63, -2.46547722816467290000e+000) (64, 1.47337661743164060000e+002) (0, 9.34316539764404300000e+000) (1, 1.12148291015625000000e+003) (2, 1.20133695602416990000e+001) (3, 1.05927146911621090000e+002) (4, 6.00765563964843750000e+002) (5, 2.74683437347412110000e+001) (6, 1.74825515747070310000e+002) (7, 1.22797216796875000000e+003) (8, 2.44290065765380860000e+000) (9, 1.50492858886718750000e+001) (10, 9.72385131835937500000e+002) (11, 3.63328125000000000000e+002) (12, 4.96632843017578130000e+001) (13, 1.47562160491943360000e+001) (14, 2.73328742980957030000e+001) (15, 3.52057647705078120000e+000) (16, -6.39874877929687500000e+001) (17, 8.66322231292724610000e+000) (18, 4.56831264495849610000e+000) (19, 1.91006698608398440000e+001) (20, -1.54393768310546870000e+000) (21, 1.28599700927734370000e+002) (22, 7.71505737304687500000e+000) (23, 7.62847661972045900000e-002) (24, 4.95228042602539060000e+001) (25, 2.93729448318481450000e+000) (26, 3.02780151367187500000e+002) (27, 5.89352493286132810000e+001) (28, 1.04857659339904790000e+000) (29, 1.49062271118164060000e+002) (30, 2.88298854827880860000e+001) (31, 3.73330354690551760000e+000) (32, 1.29600620269775390000e+000) (33, 5.20293045043945310000e+000) (34, 4.39677524566650390000e+000) (35, 2.96741210937500000000e+002) (36, -4.94480466842651370000e+000) (37, 5.83317232131958010000e+000) (38, 1.90592517852783200000e+001) (39, 1.52644577026367190000e+001) (40, 1.68690848350524900000e+000) (41, 3.29364013671875000000e+001) (42, 2.43703365325927730000e+001) (43, 1.47264254093170170000e+000) (44, 2.35449790954589840000e+000) (45, 1.18200817108154300000e+001) (46, 8.03327083587646480000e+000) (47, 1.33735799789428710000e+001) (48, 1.97393703460693360000e+001) (49, 4.84830522537231450000e+000) (50, 2.21208686828613280000e+001) (51, 7.78290481567382810000e+001) (52, 9.45477426052093510000e-001) (53, 3.19403781890869140000e+001) (54, 3.92675209045410160000e+001) (55, 2.73141354322433470000e-001) (56, -1.96985950469970700000e+001) (57, 1.09313415527343750000e+003) (58, 4.60853390395641330000e-002) (59, 6.29515647888183590000e+000) (60, 9.50771999359130860000e+000) (61, 4.06131219863891600000e+000) (62, 2.67852377891540530000e+000) (63, 2.81482815742492680000e-001) (64, 1.42946670532226560000e+002) (0, -1.45650339126586910000e+001) (1, 2.07803298950195310000e+002) (2, 3.73404731750488280000e+001) (3, 5.11820220947265630000e+001) (4, 1.02033340930938720000e+000) (5, -2.86167488098144530000e+001) (6, -1.03591400146484370000e+002) (7, -1.28198146820068360000e+001) (8, 2.76951146125793460000e+000) (9, -9.41368026733398440000e+001) (10, 9.83281188964843750000e+002) (11, 5.34346160888671880000e+001) (12, -5.99705162048339840000e+001) (13, 4.49764495849609370000e+002) (14, -1.59762277603149410000e+001) (15, -5.57131652832031250000e+001) (16, 1.94981430053710940000e+002) (17, -8.87909164428710940000e+001) (18, 2.98306375741958620000e-001) (19, -1.73160338401794430000e+000) (20, -1.71288681030273440000e+000) (21, 2.24216957092285160000e+001) (22, 1.67974197387695310000e+002) (23, -8.21323096752166750000e-001) (24, -4.75107669830322270000e+000) (25, -2.80746626853942870000e+000) (26, 5.77703189849853520000e+000) (27, 4.95532897949218750000e+002) (28, 2.37465877532958980000e+001) (29, 6.64752817153930660000e+000) (30, 1.18396396636962890000e+001) (31, 3.35714447021484370000e+002) (32, -1.22582256793975830000e+000) (33, -4.11472034454345700000e+000) (34, 6.08275634765625000000e+002) (35, 3.85651397705078130000e+000) (36, 3.57853050231933590000e+001) (37, -1.71883118152618410000e+000) (38, 1.80821895599365230000e+001) (39, -2.24755454063415530000e+000) (40, -4.83237886428833010000e+000) (41, 1.28721833229064940000e-001) (42, 7.85602664947509770000e+000) (43, -7.16900587081909180000e-001) (44, -3.68081283569335940000e+000) (45, 6.80143356323242190000e+001) (46, 3.65589675903320310000e+001) (47, 6.87514096498489380000e-002) (48, 1.61736206054687500000e+002) (49, 2.21321163177490230000e+001) (50, 1.15725240707397460000e+001) (51, -1.10688762664794920000e+001) (52, -8.03042769432067870000e-001) (53, 3.57745623588562010000e+000) (54, -5.89610576629638670000e+000) (55, 3.20390396118164060000e+001) (56, 2.42776927947998050000e+001) (57, -1.37796716308593750000e+003) (58, -2.47388534545898440000e+001) (59, 7.34609794616699220000e+000) (60, -9.26010360717773440000e+001) (61, -1.49864065647125240000e+000) (62, -7.84166765213012700000e+000) (63, -8.99896502494812010000e-001) (64, 5.63015060424804690000e+001) (65, 1.79691269993782040000e-001) (66, -4.46135640144348140000e-001) (67, -2.21301545388996600000e-003) (68, 8.84598433971405030000e-001) (69, -3.57468836009502410000e-002) (70, -1.12135566771030430000e-001) (71, -4.50908318161964420000e-002) (72, -2.44356036186218260000e-001) (73, -1.24904563903808590000e+002) (74, 1.63877620697021480000e+001) (75, -7.47587509155273440000e+001) (76, 1.09250314533710480000e-001) (77, -1.30824819207191470000e-002) (78, 5.74384212493896480000e-001) (79, -5.53679186850786210000e-004) (80, 2.76516348123550420000e-001) (81, -6.37705251574516300000e-002) (82, -2.19738185405731200000e-001) (83, 1.85730885714292530000e-002) (84, -1.63088321685791020000e-001) (85, 1.23954698443412780000e-001) (86, 2.38451614975929260000e-001) (87, 8.43374133110046390000e-001) (88, -9.53567549586296080000e-002) (89, 1.09198614954948430000e-001) (90, 6.35485351085662840000e-001) (91, -4.29535369873046880000e+001) (92, 1.61527529358863830000e-001) (93, 2.00269848108291630000e-001) (94, -7.24557265639305110000e-002) (95, 1.38563140869140620000e+002) 
