FANN_FLO_2.1
num_layers=3
learning_rate=0.500000
connection_rate=1.000000
network_type=0
learning_momentum=0.000000
training_algorithm=2
train_error_function=1
train_stop_function=0
cascade_output_change_fraction=0.010000
quickprop_decay=-0.000100
quickprop_mu=1.750000
rprop_increase_factor=1.200000
rprop_decrease_factor=0.500000
rprop_delta_min=0.000000
rprop_delta_max=50.000000
rprop_delta_zero=0.100000
cascade_output_stagnation_epochs=12
cascade_candidate_change_fraction=0.010000
cascade_candidate_stagnation_epochs=12
cascade_max_out_epochs=150
cascade_min_out_epochs=50
cascade_max_cand_epochs=150
cascade_min_cand_epochs=50
cascade_num_candidate_groups=2
bit_fail_limit=3.49999994039535520000e-001
cascade_candidate_limit=1.00000000000000000000e+003
cascade_weight_multiplier=4.00000005960464480000e-001
cascade_activation_functions_count=10
cascade_activation_functions=3 5 7 8 10 11 14 15 16 17 
cascade_activation_steepnesses_count=4
cascade_activation_steepnesses=2.50000000000000000000e-001 5.00000000000000000000e-001 7.50000000000000000000e-001 1.00000000000000000000e+000 
layer_sizes=65 21 2 
scale_included=1
scale_mean_in=-2.360074 -0.889572 -1.456304 -3.243498 -3.064850 -1.920975 -4.212507 -1.764059 -0.486261 -0.756247 -0.862028 -0.933162 -1.144193 -0.985370 -1.445642 -0.871397 -0.289818 -0.442532 -0.655591 -0.497059 -0.585758 -1.120631 -0.527092 -0.231639 -0.210794 -0.021016 -0.264923 -0.184567 -0.148013 -0.191222 0.021095 -0.086217 0.154863 -0.029249 0.304096 0.428260 0.324650 0.266596 0.069329 0.123447 0.186501 0.453032 0.884835 0.601127 0.672239 1.149509 0.541030 0.290828 0.548141 0.692225 0.815070 0.950353 1.058071 0.941522 1.339988 0.874082 2.180118 0.853986 1.434036 3.172597 2.901899 1.748738 4.137931 1.786980 
scale_deviation_in=2.605038 1.947868 2.220804 4.191248 4.285688 2.542319 4.637007 2.874125 1.157905 1.542610 2.425975 2.180196 2.488141 1.867920 2.291078 1.779750 1.140876 1.743201 1.694335 1.784068 1.693847 2.153774 1.518900 1.251178 1.438482 1.239728 1.511172 1.675614 1.654140 1.456254 1.411365 1.255768 1.237881 1.271549 1.526928 1.725143 1.630244 1.541213 1.389100 1.279420 1.079543 1.652000 1.852430 1.970462 1.908804 2.128463 1.613837 1.242046 1.132418 1.410854 2.259854 2.424872 2.530180 1.881490 2.197680 1.817006 2.572749 2.094646 2.384050 4.075881 4.231050 2.457974 4.694221 2.929878 
scale_new_min_in=-10.000000 -10.000000 -10.000000 -10.000000 -10.000000 -10.000000 -10.000000 -10.000000 -10.000000 -10.000000 -10.000000 -10.000000 -10.000000 -10.000000 -10.000000 -10.000000 -10.000000 -10.000000 -10.000000 -10.000000 -10.000000 -10.000000 -10.000000 -10.000000 -10.000000 -10.000000 -10.000000 -10.000000 -10.000000 -10.000000 -10.000000 -10.000000 -10.000000 -10.000000 -10.000000 -10.000000 -10.000000 -10.000000 -10.000000 -10.000000 -10.000000 -10.000000 -10.000000 -10.000000 -10.000000 -10.000000 -10.000000 -10.000000 -10.000000 -10.000000 -10.000000 -10.000000 -10.000000 -10.000000 -10.000000 -10.000000 -10.000000 -10.000000 -10.000000 -10.000000 -10.000000 -10.000000 -10.000000 -10.000000 
scale_factor_in=10.000000 10.000000 10.000000 10.000000 10.000000 10.000000 10.000000 10.000000 10.000000 10.000000 10.000000 10.000000 10.000000 10.000000 10.000000 10.000000 10.000000 10.000000 10.000000 10.000000 10.000000 10.000000 10.000000 10.000000 10.000000 10.000000 10.000000 10.000000 10.000000 10.000000 10.000000 10.000000 10.000000 10.000000 10.000000 10.000000 10.000000 10.000000 10.000000 10.000000 10.000000 10.000000 10.000000 10.000000 10.000000 10.000000 10.000000 10.000000 10.000000 10.000000 10.000000 10.000000 10.000000 10.000000 10.000000 10.000000 10.000000 10.000000 10.000000 10.000000 10.000000 10.000000 10.000000 10.000000 
scale_mean_out=35.915600 
scale_deviation_out=256.927643 
scale_new_min_out=-100.000000 
scale_factor_out=100.000000 
neurons (num_inputs, activation_function, activation_steepness)=(0, 0, 0.00000000000000000000e+000) (0, 0, 0.00000000000000000000e+000) (0, 0, 0.00000000000000000000e+000) (0, 0, 0.00000000000000000000e+000) (0, 0, 0.00000000000000000000e+000) (0, 0, 0.00000000000000000000e+000) (0, 0, 0.00000000000000000000e+000) (0, 0, 0.00000000000000000000e+000) (0, 0, 0.00000000000000000000e+000) (0, 0, 0.00000000000000000000e+000) (0, 0, 0.00000000000000000000e+000) (0, 0, 0.00000000000000000000e+000) (0, 0, 0.00000000000000000000e+000) (0, 0, 0.00000000000000000000e+000) (0, 0, 0.00000000000000000000e+000) (0, 0, 0.00000000000000000000e+000) (0, 0, 0.00000000000000000000e+000) (0, 0, 0.00000000000000000000e+000) (0, 0, 0.00000000000000000000e+000) (0, 0, 0.00000000000000000000e+000) (0, 0, 0.00000000000000000000e+000) (0, 0, 0.00000000000000000000e+000) (0, 0, 0.00000000000000000000e+000) (0, 0, 0.00000000000000000000e+000) (0, 0, 0.00000000000000000000e+000) (0, 0, 0.00000000000000000000e+000) (0, 0, 0.00000000000000000000e+000) (0, 0, 0.00000000000000000000e+000) (0, 0, 0.00000000000000000000e+000) (0, 0, 0.00000000000000000000e+000) (0, 0, 0.00000000000000000000e+000) (0, 0, 0.00000000000000000000e+000) (0, 0, 0.00000000000000000000e+000) (0, 0, 0.00000000000000000000e+000) (0, 0, 0.00000000000000000000e+000) (0, 0, 0.00000000000000000000e+000) (0, 0, 0.00000000000000000000e+000) (0, 0, 0.00000000000000000000e+000) (0, 0, 0.00000000000000000000e+000) (0, 0, 0.00000000000000000000e+000) (0, 0, 0.00000000000000000000e+000) (0, 0, 0.00000000000000000000e+000) (0, 0, 0.00000000000000000000e+000) (0, 0, 0.00000000000000000000e+000) (0, 0, 0.00000000000000000000e+000) (0, 0, 0.00000000000000000000e+000) (0, 0, 0.00000000000000000000e+000) (0, 0, 0.00000000000000000000e+000) (0, 0, 0.00000000000000000000e+000) (0, 0, 0.00000000000000000000e+000) (0, 0, 0.00000000000000000000e+000) (0, 0, 0.00000000000000000000e+000) (0, 0, 0.00000000000000000000e+000) (0, 0, 0.00000000000000000000e+000) (0, 0, 0.00000000000000000000e+000) (0, 0, 0.00000000000000000000e+000) (0, 0, 0.00000000000000000000e+000) (0, 0, 0.00000000000000000000e+000) (0, 0, 0.00000000000000000000e+000) (0, 0, 0.00000000000000000000e+000) (0, 0, 0.00000000000000000000e+000) (0, 0, 0.00000000000000000000e+000) (0, 0, 0.00000000000000000000e+000) (0, 0, 0.00000000000000000000e+000) (0, 0, 0.00000000000000000000e+000) (65, 5, 5.00000000000000000000e-001) (65, 5, 5.00000000000000000000e-001) (65, 5, 5.00000000000000000000e-001) (65, 5, 5.00000000000000000000e-001) (65, 5, 5.00000000000000000000e-001) (65, 5, 5.00000000000000000000e-001) (65, 5, 5.00000000000000000000e-001) (65, 5, 5.00000000000000000000e-001) (65, 5, 5.00000000000000000000e-001) (65, 5, 5.00000000000000000000e-001) (65, 5, 5.00000000000000000000e-001) (65, 5, 5.00000000000000000000e-001) (65, 5, 5.00000000000000000000e-001) (65, 5, 5.00000000000000000000e-001) (65, 5, 5.00000000000000000000e-001) (65, 5, 5.00000000000000000000e-001) (65, 5, 5.00000000000000000000e-001) (65, 5, 5.00000000000000000000e-001) (65, 5, 5.00000000000000000000e-001) (65, 5, 5.00000000000000000000e-001) (0, 5, 0.00000000000000000000e+000) (21, 0, 5.00000000000000000000e-001) (0, 0, 0.00000000000000000000e+000) 
connections (connected_to_neuron, weight)=(0, 8.79757642745971680000e-001) (1, 1.74415946006774900000e-001) (2, -7.03436183929443360000e+000) (3, -5.22724103927612300000e+000) (4, 2.80044746398925780000e+000) (5, -3.76691818237304690000e-001) (6, 2.99939036369323730000e+000) (7, 3.04838371276855470000e+000) (8, -5.31830406188964840000e+000) (9, -4.05514180660247800000e-001) (10, 2.50898914337158200000e+001) (11, 1.44232475757598880000e+000) (12, 3.60039925575256350000e+000) (13, 2.59051799774169920000e+000) (14, 2.94192743301391600000e+000) (15, 1.22089564800262450000e+000) (16, 1.85328948497772220000e+000) (17, -4.47595739364624020000e+000) (18, 9.71958577632904050000e-001) (19, 9.11458110809326170000e+000) (20, 1.13422946929931640000e+001) (21, -2.76196289062500000000e+000) (22, 2.89101123809814450000e+000) (23, 1.82333719730377200000e+000) (24, 1.99863357543945310000e+001) (25, 1.24890813827514650000e+001) (26, 2.72803924560546870000e+002) (27, 3.40860519409179690000e+001) (28, 2.35296630859375000000e+001) (29, 2.29650497436523440000e+001) (30, 4.89458122253417970000e+001) (31, 1.33776458740234370000e+002) (32, 4.66183013916015620000e+002) (33, 7.46019840240478520000e-001) (34, 2.37408847808837890000e+001) (35, 9.54191207885742190000e+000) (36, 7.51833038330078120000e+001) (37, 1.90055465698242190000e+000) (38, 4.25232543945312500000e+001) (39, 1.28000831604003910000e+001) (40, 1.83617568969726560000e+002) (41, 9.52680492401123050000e+000) (42, 7.45084381103515630000e+000) (43, 2.94600701332092290000e+000) (44, -1.08565878868103030000e+000) (45, 4.27942581176757810000e+001) (46, 3.35969018936157230000e+000) (47, 4.76630897521972660000e+001) (48, 1.12527404785156250000e+002) (49, 1.17832366943359370000e+002) (50, 5.10748028755187990000e-001) (51, 1.51107091903686520000e+001) (52, 7.66389894485473630000e+000) (53, 2.80827312469482420000e+001) (54, 2.15665131807327270000e-001) (55, 8.39539337158203120000e+000) (56, 3.49446334838867190000e+001) (57, 2.06998729705810550000e+001) (58, 1.48700513839721680000e+001) (59, 1.20728778839111330000e+001) (60, 3.18208122253417970000e+001) (61, 2.74694323539733890000e+000) (62, 1.36920423507690430000e+001) (63, 3.04927120208740230000e+001) (64, -1.56893372535705570000e-001) (0, 2.81092673540115360000e-001) (1, 1.58493733406066890000e+000) (2, -4.69701194763183590000e+000) (3, -4.61611366271972660000e+000) (4, 7.70954656600952150000e+000) (5, -4.19633865356445310000e+000) (6, 1.80147895812988280000e+001) (7, 7.85877609252929690000e+000) (8, -4.31893444061279300000e+000) (9, 6.06969237327575680000e-001) (10, 2.71940116882324220000e+001) (11, 1.88192296028137210000e+000) (12, -3.20390892028808590000e+000) (13, 4.79875326156616210000e+000) (14, 4.79513120651245120000e+000) (15, 2.10587096214294430000e+000) (16, 1.87853658199310300000e+000) (17, -9.63072357177734380000e+001) (18, 1.15698134899139400000e+000) (19, 4.65438175201416020000e+000) (20, 1.31209373474121090000e+001) (21, 4.74483519792556760000e-001) (22, 1.99193115234375000000e+001) (23, 3.36830782890319820000e+000) (24, 6.24106502532958980000e+000) (25, 9.47303009033203120000e+000) (26, 6.00239944458007810000e+000) (27, 2.92687358856201170000e+001) (28, 2.52714576721191410000e+001) (29, 2.51005268096923830000e+001) (30, 2.99345073699951170000e+001) (31, 2.85281944274902340000e+000) (32, 6.54987621307373050000e+000) (33, 1.81786136627197270000e+001) (34, 5.09253425598144530000e+001) (35, 4.52131576538085940000e+001) (36, 3.30327796936035160000e+001) (37, 1.02832756042480470000e+001) (38, 2.14034538269042970000e+001) (39, 8.22856903076171880000e+000) (40, 3.26879978179931640000e+000) (41, 6.97372341156005860000e+000) (42, 3.41517295837402340000e+001) (43, 2.20821475982666020000e+001) (44, 1.69909706115722660000e+001) (45, 4.71500282287597660000e+001) (46, 8.98110198974609370000e+000) (47, -4.02041673660278320000e-002) (48, 2.71833572387695310000e+001) (49, 1.50404462814331050000e+001) (50, 2.98655261993408200000e+001) (51, 9.84392738342285160000e+000) (52, 5.49292411804199220000e+001) (53, 5.15348548889160160000e+001) (54, 3.24470787048339840000e+001) (55, 1.20013675689697270000e+001) (56, 3.10232353210449220000e+001) (57, 1.16970863342285160000e+001) (58, 1.20230503082275390000e+001) (59, 6.83634901046752930000e+000) (60, 5.42859992980957030000e+001) (61, 9.18015575408935550000e+000) (62, 1.19654945373535160000e+002) (63, 1.24660134315490720000e+000) (64, -1.07001640319824220000e+002) (0, 5.80255746841430660000e-001) (1, -7.26842209696769710000e-002) (2, -6.21139335632324220000e+000) (3, -1.63330097198486330000e+001) (4, 1.58851933479309080000e+000) (5, -4.79970836639404300000e+000) (6, 3.16476845741271970000e+000) (7, 2.76730298995971680000e+000) (8, -6.51968479156494140000e+000) (9, -8.56180846691131590000e-001) (10, 2.36933498382568360000e+001) (11, 6.39498472213745120000e-001) (12, 2.61179327964782710000e+000) (13, 9.11623418331146240000e-001) (14, 1.32638323307037350000e+000) (15, -2.09833478927612300000e+000) (16, 1.25481188297271730000e+000) (17, -1.83848297595977780000e+000) (18, -1.39455699920654300000e+000) (19, 2.89300155639648440000e+000) (20, 1.10681653022766110000e+000) (21, -4.77442359924316410000e+000) (22, 2.52350187301635740000e+000) (23, 2.30648875236511230000e+000) (24, 5.91909313201904300000e+000) (25, 7.97783184051513670000e+000) (26, -1.29027926921844480000e+000) (27, 2.96059751510620120000e+000) (28, 1.22153139114379880000e+000) (29, 2.23154621124267580000e+001) (30, 6.37521076202392580000e+000) (31, 2.53539657592773440000e+000) (32, 1.25821232795715330000e+000) (33, 1.89665775299072270000e+001) (34, 2.34714460372924800000e+000) (35, 1.26065790653228760000e+000) (36, 2.08508586883544920000e+001) (37, 1.73516006469726560000e+001) (38, 1.57563819885253910000e+001) (39, 1.88148999214172360000e+000) (40, 1.27151737213134770000e+001) (41, 1.13043165206909180000e+000) (42, 5.75775623321533200000e+000) (43, -5.08177757263183590000e-001) (44, -3.13633489608764650000e+000) (45, 4.13442087173461910000e+000) (46, 1.41365098953247070000e+000) (47, -6.35265302658081050000e+000) (48, 4.58699321746826170000e+000) (49, 8.46484375000000000000e+000) (50, 1.08422387695312500000e+003) (51, 3.58962625265121460000e-001) (52, 3.02670621871948240000e+000) (53, 3.47040557861328130000e+000) (54, -1.55241250991821290000e+000) (55, 6.90481543540954590000e-001) (56, 1.51765508651733400000e+001) (57, 1.90238933563232420000e+001) (58, 5.57196617126464840000e+000) (59, 6.69025707244873050000e+000) (60, 9.79564285278320310000e+000) (61, 6.11213922500610350000e+000) (62, 9.17613446712493900000e-001) (63, 2.38303160667419430000e+000) (64, -2.72771215438842770000e+000) (0, -6.61950767040252690000e-001) (1, -2.49891683459281920000e-001) (2, -1.27750120162963870000e+001) (3, -6.92983436584472660000e+000) (4, 1.73357045650482180000e+000) (5, -5.74333858489990230000e+000) (6, 1.91862583160400390000e+000) (7, 3.15511226654052730000e+000) (8, -6.64250946044921870000e+000) (9, -2.88426727056503300000e-001) (10, 2.38872966766357420000e+001) (11, 2.66428142786026000000e-001) (12, 1.74182736873626710000e+000) (13, 4.83060151338577270000e-001) (14, 2.62885904312133790000e+000) (15, -7.42277979850769040000e-001) (16, 9.61106419563293460000e-001) (17, -1.49611396789550780000e+001) (18, -1.18915104866027830000e+000) (19, 1.51328468322753910000e+000) (20, 1.46004581451416020000e+000) (21, -5.51438331604003910000e+000) (22, 2.79090285301208500000e+000) (23, 1.72898471355438230000e+000) (24, 5.59721755981445310000e+000) (25, 6.72589969635009770000e+000) (26, -5.16907453536987300000e-001) (27, 6.12118148803710940000e+000) (28, 5.92732715606689450000e+000) (29, 3.79132843017578120000e+000) (30, 1.09712810516357420000e+001) (31, 9.50957107543945310000e+000) (32, 3.51302032470703130000e+001) (33, 4.45901985168457030000e+001) (34, 1.99710636138916020000e+001) (35, 2.10433254241943360000e+001) (36, 1.96290264129638670000e+001) (37, 1.03738517761230470000e+002) (38, 1.63276596069335940000e+001) (39, 7.73514175415039060000e+000) (40, 7.45109176635742190000e+001) (41, 2.62638305664062500000e+002) (42, 2.06379814147949220000e+001) (43, 4.57653083801269530000e+001) (44, 1.45599761962890620000e+002) (45, 9.65377807617187500000e+000) (46, 2.58358650207519530000e+001) (47, -1.01266345977783200000e+001) (48, 7.42639255523681640000e+000) (49, 9.53788757324218750000e+000) (50, 7.07611007690429690000e+001) (51, 2.83705368041992190000e+001) (52, 2.29908132553100590000e+000) (53, 4.11599769592285160000e+001) (54, 7.39337387084960940000e+001) (55, 7.79978370666503910000e+000) (56, 1.62309478759765630000e+002) (57, 4.57152786254882810000e+001) (58, 4.38290214538574220000e+001) (59, 3.97058563232421870000e+002) (60, 7.81504821777343750000e+001) (61, 5.69214820861816410000e+001) (62, 2.70127349853515620000e+002) (63, 1.33772687911987300000e+001) (64, 1.20961875915527340000e+001) (0, -3.98939847946166990000e+000) (1, -1.58635354042053220000e+000) (2, -4.67067871093750000000e+001) (3, -1.06078498840332030000e+002) (4, -9.58392024040222170000e-001) (5, -7.83268737792968750000e+000) (6, 1.09557591378688810000e-001) (7, 1.00676190853118900000e+000) (8, -9.74937534332275390000e+000) (9, -1.37146449089050290000e+000) (10, 3.16360015869140620000e+001) (11, 8.68762016296386720000e+000) (12, -2.33750991821289060000e+002) (13, -2.47626256942749020000e+000) (14, 1.19458353519439700000e+000) (15, -8.08361649513244630000e-001) (16, 2.29625177383422850000e+000) (17, -4.72580688476562500000e+002) (18, 4.34720575809478760000e-001) (19, 8.13956165313720700000e+000) (20, 4.80777311325073240000e+000) (21, -3.84372806549072270000e+000) (22, 2.22982144355773930000e+000) (23, 4.89975214004516600000e+000) (24, 8.43146705627441410000e+000) (25, 7.88486633300781250000e+001) (26, 3.20826416015625000000e+001) (27, 1.86572341918945310000e+001) (28, 1.27122055053710940000e+002) (29, 1.75000514984130860000e+001) (30, 2.08744144439697270000e+001) (31, 2.95528024435043330000e-001) (32, 3.76836967468261720000e+001) (33, 1.13268836975097660000e+002) (34, 5.22599649429321290000e+000) (35, 2.70637786865234370000e+002) (36, 5.07423522949218750000e+002) (37, 3.98908805847167970000e+001) (38, 3.97598228454589840000e+001) (39, 1.80974369049072270000e+001) (40, -3.30018579959869380000e-001) (41, 5.81162643432617190000e+000) (42, 1.96321334838867190000e+001) (43, 5.30506277084350590000e+000) (44, 4.20916786193847660000e+001) (45, 2.18065986633300780000e+001) (46, 9.50768814086914060000e+001) (47, -8.17109489440917970000e+000) (48, 1.00987525939941410000e+002) (49, 8.49782085418701170000e+000) (50, 6.72166290283203120000e+001) (51, 8.94819355010986330000e+000) (52, 3.98695945739746090000e+001) (53, 5.38394966125488280000e+001) (54, 6.75498046875000000000e+001) (55, 1.05943500995635990000e+000) (56, 5.03033113479614260000e+000) (57, 1.04070976257324220000e+002) (58, 4.84745597839355470000e+000) (59, 4.94869375228881840000e+000) (60, 4.44114160537719730000e+000) (61, 2.23789501190185550000e+001) (62, 1.30889415740966800000e+001) (63, 1.06533265113830570000e+000) (64, -7.73294677734375000000e+001) (0, 2.16605281829833980000e+000) (1, 2.38268899917602540000e+000) (2, -5.91104316711425780000e+000) (3, -1.38501195907592770000e+001) (4, 9.77730941772460940000e+000) (5, -2.56104707717895510000e+000) (6, 5.79305505752563480000e+000) (7, -1.90856075286865230000e+000) (8, -5.69871902465820310000e+000) (9, 4.91366815567016600000e+000) (10, 3.04186210632324220000e+001) (11, 5.83143901824951170000e+000) (12, -7.48708629608154300000e+000) (13, 1.72439060211181640000e+001) (14, 1.18707246780395510000e+001) (15, 1.73409521579742430000e+000) (16, 3.82118487358093260000e+000) (17, -9.50631866455078130000e+001) (18, 1.06072835922241210000e+001) (19, 1.74741455078125000000e+002) (20, 3.51871109008789060000e+001) (21, 2.99705266952514650000e+000) (22, 1.13903026580810550000e+001) (23, 6.12483406066894530000e+000) (24, 7.86197948455810550000e+000) (25, 4.90879669189453120000e+002) (26, 2.98729724884033200000e+001) (27, 2.46409568786621090000e+001) (28, 3.75193405151367190000e+001) (29, 3.03278255462646480000e+001) (30, 5.07307014465332030000e+001) (31, 3.28225631713867190000e+001) (32, 2.12776756286621090000e+001) (33, 2.46686687469482420000e+001) (34, 5.60823860168457030000e+001) (35, 5.71278953552246090000e+001) (36, 1.24749977111816410000e+002) (37, 4.79858436584472660000e+001) (38, 4.48621520996093750000e+001) (39, 8.48648643493652340000e+000) (40, 4.21390869140625000000e+002) (41, 5.94205379486083980000e+000) (42, 2.08733978271484380000e+001) (43, 1.15001960754394530000e+002) (44, 3.65412231445312500000e+002) (45, 2.53449493408203120000e+002) (46, 7.86854019165039060000e+001) (47, 1.40453552246093750000e+002) (48, 5.41656494140625000000e+001) (49, 5.19196128845214840000e+001) (50, 1.69370346069335940000e+002) (51, 1.76865100860595700000e+001) (52, 1.16759132385253910000e+002) (53, 6.32023162841796880000e+001) (54, 7.19188461303710940000e+001) (55, 4.56353874206542970000e+001) (56, 2.93029403686523440000e+001) (57, 1.04611793518066410000e+002) (58, 4.76267585754394530000e+001) (59, 1.36727895736694340000e+001) (60, 4.92941207885742190000e+001) (61, 1.65235881805419920000e+001) (62, 6.59357986450195310000e+001) (63, 2.95331115722656250000e+001) (64, 5.77127799987792970000e+001) (0, 4.83848905563354490000e+000) (1, -4.05326128005981450000e+000) (2, -7.64112281799316410000e+000) (3, -1.08553066253662110000e+001) (4, 9.75161743164062500000e+000) (5, -4.28498935699462890000e+000) (6, 2.51713705062866210000e+000) (7, -7.41155529022216800000e+000) (8, -4.73077869415283200000e+000) (9, 4.97050237655639650000e+000) (10, 3.08373031616210940000e+001) (11, 4.66203308105468750000e+000) (12, -5.58812713623046870000e+000) (13, 1.24369049072265620000e+001) (14, 2.79412508010864260000e+000) (15, -8.14721226692199710000e-001) (16, 3.13445067405700680000e+000) (17, -3.82349815368652340000e+001) (18, 1.08386316299438480000e+001) (19, 1.72525348663330080000e+001) (20, 2.24706535339355470000e+001) (21, 5.50562381744384770000e+000) (22, 3.22231369018554690000e+001) (23, 4.46172428131103520000e+000) (24, 1.01221714019775390000e+001) (25, 1.25547859191894530000e+002) (26, 2.97262287139892580000e+001) (27, 4.22489662170410160000e+001) (28, 3.63969268798828130000e+001) (29, 1.17852470397949220000e+002) (30, 7.55694808959960940000e+001) (31, 3.63965940475463870000e+000) (32, 2.01083190917968750000e+002) (33, 1.38155944824218750000e+002) (34, 3.19904388427734370000e+002) (35, 5.81305358886718750000e+002) (36, 1.05549003601074220000e+002) (37, 4.45065650939941410000e+001) (38, 5.56027488708496090000e+001) (39, 2.09426174163818360000e+001) (40, 2.94973621368408200000e+001) (41, 1.05927360534667970000e+002) (42, 4.49358901977539060000e+001) (43, 2.63382843017578120000e+002) (44, 2.52635452270507810000e+002) (45, 4.57837257385253910000e+001) (46, 2.14517837524414060000e+002) (47, 1.46662368774414060000e+001) (48, 2.81235687255859370000e+002) (49, 2.79397918701171870000e+002) (50, 6.84026336669921880000e+001) (51, 2.76284236907958980000e+001) (52, 1.03892814636230470000e+002) (53, 1.25351173400878910000e+002) (54, 3.66055908203125000000e+002) (55, 2.09663009643554690000e+001) (56, 6.80257797241210940000e+001) (57, 7.76971244812011720000e+000) (58, 1.02838188171386720000e+002) (59, 3.01010475158691410000e+001) (60, 7.15926666259765630000e+001) (61, 3.01346923828125000000e+002) (62, 9.09746765136718750000e+002) (63, 3.00006942749023440000e+001) (64, 4.68453750610351560000e+001) (0, 8.31705927848815920000e-001) (1, -3.60878407955169680000e-001) (2, 9.78876686096191410000e+000) (3, 3.88023414611816410000e+001) (4, -2.96297264099121090000e+000) (5, 6.96906757354736330000e+000) (6, -3.34129548072814940000e+000) (7, 1.01433897018432620000e+000) (8, 6.94693183898925780000e+000) (9, 9.47277784347534180000e-001) (10, -3.61965370178222660000e+001) (11, -2.35701537132263180000e+000) (12, 2.32918053865432740000e-001) (13, -1.78239059448242190000e+001) (14, -3.49515533447265620000e+000) (15, 1.74467754364013670000e+000) (16, -4.66005563735961910000e+000) (17, 9.66366424560546880000e+001) (18, 3.12439751625061040000e+000) (19, -1.88967456817626950000e+001) (20, -4.02748107910156250000e+001) (21, 7.84123229980468750000e+000) (22, -6.53604364395141600000e+000) (23, -6.63571262359619140000e+000) (24, -1.19771528244018550000e+001) (25, -2.53050598144531250000e+002) (26, -8.38622570037841800000e+000) (27, -1.47541000366210940000e+002) (28, -6.01976890563964840000e+001) (29, -1.18114147186279300000e+001) (30, -1.31648588180541990000e+001) (31, -2.25377708673477170000e-001) (32, -3.63457260131835940000e+001) (33, -2.32114315032958980000e+001) (34, -4.35398674011230470000e+001) (35, -7.38438653945922850000e+000) (36, -2.73956546783447270000e+001) (37, -1.91413345336914060000e+001) (38, -1.49151878356933590000e+001) (39, -4.53839569091796880000e+001) (40, -1.22369270324707030000e+001) (41, -1.00625083923339840000e+002) (42, -4.48081283569335940000e+001) (43, -8.84891414642333980000e+000) (44, -1.23017921447753910000e+001) (45, -4.59388771057128910000e+001) (46, -5.35219860076904300000e+000) (47, 2.97694277763366700000e+000) (48, -1.32943687438964840000e+001) (49, -2.26763019561767580000e+001) (50, -2.29404602050781250000e+001) (51, -1.17967662811279300000e+001) (52, -4.26037025451660160000e+001) (53, -1.11411170959472660000e+001) (54, -1.15776653289794920000e+001) (55, -7.83666706085205080000e+000) (56, -1.42586563110351560000e+002) (57, -2.83764553070068360000e+000) (58, -2.06488800048828130000e+001) (59, -2.43570556640625000000e+001) (60, -5.21233034133911130000e+000) (61, -2.24099483489990230000e+001) (62, -1.48621635437011720000e+001) (63, -5.15919446945190430000e+000) (64, 4.56751327514648440000e+001) (0, -8.90971302986145020000e-001) (1, -1.35940492153167720000e-001) (2, -9.15809535980224610000e+000) (3, -1.32018327713012700000e+001) (4, 1.91893899440765380000e+000) (5, -5.91425323486328120000e+000) (6, 2.55502867698669430000e+000) (7, 1.08978950977325440000e+000) (8, -6.60873031616210940000e+000) (9, -7.48264908790588380000e-001) (10, 2.36925334930419920000e+001) (11, 5.69551825523376460000e-001) (12, 2.72406840324401860000e+000) (13, 5.52446365356445310000e-001) (14, 2.29178762435913090000e+000) (15, 9.24693465232849120000e-001) (16, 8.28032851219177250000e-001) (17, -1.48004102706909180000e+001) (18, -1.46800231933593750000e+000) (19, 1.39686083793640140000e+000) (20, 1.06224608421325680000e+000) (21, -5.83645629882812500000e+000) (22, 2.28479146957397460000e+000) (23, 2.28520894050598140000e+000) (24, 5.93861770629882810000e+000) (25, 8.36681938171386720000e+000) (26, -1.05051481723785400000e+000) (27, 6.11457252502441410000e+000) (28, 2.83110189437866210000e+000) (29, 4.42794656753540040000e+000) (30, 1.01779212951660160000e+002) (31, 5.87818717956542970000e+000) (32, 1.24461317062377930000e+001) (33, 2.13495464324951170000e+001) (34, 1.07958650588989260000e+001) (35, 9.33890819549560550000e+000) (36, 9.03486442565917970000e+000) (37, 4.35486259460449220000e+001) (38, 1.44741449356079100000e+001) (39, 1.82135162353515630000e+001) (40, 3.57278537750244140000e+000) (41, 1.90682449340820310000e+001) (42, 4.82722091674804690000e+001) (43, 1.10227264404296870000e+002) (44, 3.10762176513671880000e+001) (45, 1.78128013610839840000e+001) (46, 3.64646835327148440000e+001) (47, 9.73218917846679690000e+000) (48, 1.22264184951782230000e+001) (49, 2.12371006011962890000e+001) (50, 1.29855451583862300000e+001) (51, 2.85150642395019530000e+001) (52, 2.05785694122314450000e+001) (53, 5.42339820861816410000e+001) (54, 5.38146495819091800000e+000) (55, 7.76167106628417970000e+000) (56, 3.03045310974121090000e+001) (57, 1.87940959930419920000e+001) (58, 5.52359123229980470000e+001) (59, 1.59964551925659180000e+001) (60, 3.87290115356445310000e+001) (61, 2.10498886108398440000e+001) (62, 1.94711074829101560000e+001) (63, 5.54480590820312500000e+002) (64, 1.23630924224853520000e+001) (0, 1.20128583908081050000e+000) (1, 2.67789173126220700000e+000) (2, -6.83459854125976560000e+000) (3, -3.21357488632202150000e+000) (4, 5.26841878890991210000e+000) (5, -3.62238407135009770000e+000) (6, 2.02080917358398440000e+000) (7, 1.59820711612701420000e+000) (8, -4.52181148529052730000e+000) (9, 2.42457509040832520000e-001) (10, 3.25856170654296880000e+001) (11, 2.43243765830993650000e+000) (12, 4.52666378021240230000e+000) (13, 5.60971879959106450000e+000) (14, 3.37618684768676760000e+000) (15, 6.45152449607849120000e-001) (16, 2.78805708885192870000e+000) (17, -3.74104118347167970000e+001) (18, 8.83952230215072630000e-002) (19, 1.95787944793701170000e+001) (20, 6.48224878311157230000e+000) (21, -4.60009956359863280000e+000) (22, 4.76231098175048830000e+000) (23, 1.43317818641662600000e+000) (24, 8.63112640380859370000e+000) (25, 1.09324592590332030000e+002) (26, 2.13965816497802730000e+001) (27, 1.76315631866455080000e+001) (28, 4.76118431091308590000e+001) (29, 2.30535774230957030000e+001) (30, 1.62114135742187500000e+002) (31, 1.29061107635498050000e+001) (32, 1.73415050506591800000e+001) (33, 4.66503715515136720000e+001) (34, 2.40320644378662110000e+001) (35, 6.03952217102050780000e+000) (36, 2.54800338745117190000e+002) (37, 1.03597084045410160000e+002) (38, 2.07096176147460940000e+001) (39, 2.27576198577880860000e+001) (40, 1.49205427169799800000e+001) (41, 4.89828529357910160000e+001) (42, 5.13114089965820310000e+001) (43, 1.42725229263305660000e+001) (44, 6.34053134918212890000e+000) (45, 4.21997489929199220000e+001) (46, 3.97635879516601560000e+001) (47, 4.04024276733398440000e+001) (48, 2.31086425781250000000e+001) (49, 5.18465766906738280000e+001) (50, 1.75205993652343750000e+002) (51, 6.29060411453247070000e+000) (52, 2.55241699218750000000e+001) (53, 1.31921371459960940000e+002) (54, 1.52014343261718750000e+002) (55, 3.35009813308715820000e+000) (56, 7.10823669433593750000e+001) (57, 2.11758289337158200000e+001) (58, 4.94013549804687500000e+002) (59, 8.61280345916748050000e+000) (60, 1.27052688598632810000e+001) (61, 7.01706552505493160000e+000) (62, 1.15148277282714840000e+002) (63, 8.55508232116699220000e+000) (64, -7.71169042587280270000e+000) (0, 1.86769247055053710000e-001) (1, 9.87903952598571780000e-001) (2, -2.24086141586303710000e+000) (3, 2.88777768611907960000e-001) (4, 2.89022326469421390000e-001) (5, -1.50095629692077640000e+000) (6, 6.24635410308837890000e+000) (7, -5.69902472198009490000e-002) (8, -2.31075429916381840000e+000) (9, -5.81020750105381010000e-002) (10, 9.51684856414794920000e+000) (11, 9.50390994548797610000e-001) (12, 5.01902675628662110000e+000) (13, -1.09261631965637210000e-001) (14, -3.69294941425323490000e-001) (15, 3.10761719942092900000e-001) (16, 1.52337861061096190000e+000) (17, 4.42242026329040530000e-001) (18, 3.59070956707000730000e-001) (19, 1.17340528964996340000e+000) (20, 1.27595275640487670000e-001) (21, -2.21245336532592770000e+000) (22, 3.17334830760955810000e-001) (23, 7.15019047260284420000e-001) (24, 5.22515201568603520000e+000) (25, 7.37472991943359380000e+001) (26, 3.19945007562637330000e-001) (27, 2.17259216308593750000e+000) (28, 3.85293889045715330000e+000) (29, 1.22112655639648440000e+000) (30, 4.75464582443237300000e+000) (31, 2.49937510490417480000e+000) (32, 2.74750118255615230000e+001) (33, 1.85701980590820310000e+001) (34, 9.14716434478759770000e+000) (35, 4.21367721557617190000e+001) (36, 8.68030166625976560000e+000) (37, 1.33306770324707030000e+001) (38, 5.17887639999389650000e+000) (39, 2.33813905715942380000e+000) (40, 6.72605323791503910000e+000) (41, 9.79572963714599610000e+000) (42, 5.32730054855346680000e+000) (43, 3.09698557853698730000e+000) (44, 3.23577423095703120000e+001) (45, 1.00827760696411130000e+001) (46, 2.19534530639648440000e+001) (47, 1.41927087306976320000e+000) (48, 1.90123577117919920000e+001) (49, 1.53725538253784180000e+001) (50, 2.90228912353515620000e+002) (51, 3.67507505416870120000e+000) (52, 6.90815401077270510000e+000) (53, 6.14242553710937500000e+000) (54, 9.88549118041992190000e+001) (55, 1.71424210071563720000e+000) (56, 4.10971021652221680000e+000) (57, 2.80965332031250000000e+002) (58, 4.65496397018432620000e+000) (59, 3.99174737930297850000e+000) (60, 7.36608314514160160000e+000) (61, 9.38595008850097660000e+000) (62, 1.20392742156982420000e+001) (63, 1.74740707874298100000e+000) (64, 1.28904557228088380000e+000) (0, 1.30334007740020750000e+000) (1, 2.04963254928588870000e+000) (2, -3.89664268493652340000e+000) (3, -1.38065643310546870000e+001) (4, 1.50814714431762700000e+001) (5, -2.86599731445312500000e+000) (6, 6.72425556182861330000e+000) (7, 2.15691852569580080000e+000) (8, -2.79921340942382810000e+000) (9, 8.43326091766357420000e+000) (10, 2.97319412231445310000e+001) (11, 3.90407824516296390000e+000) (12, 6.09908390045166020000e+000) (13, 1.85720691680908200000e+001) (14, 1.06235961914062500000e+001) (15, -6.90929770469665530000e-001) (16, 6.33941411972045900000e+000) (17, -1.62896060943603520000e+001) (18, 1.35877094268798830000e+001) (19, 1.42703313827514650000e+001) (20, 7.21568450927734380000e+001) (21, 7.12043857574462890000e+000) (22, 6.77954339981079100000e+000) (23, 2.44923424720764160000e+000) (24, 3.47760047912597660000e+001) (25, 1.30466728210449220000e+001) (26, 1.17085533142089840000e+001) (27, 4.23871688842773440000e+001) (28, 6.29746818542480470000e+001) (29, 1.71840114593505860000e+001) (30, 1.53433132171630860000e+001) (31, 1.09804115295410160000e+001) (32, 3.58121991157531740000e+000) (33, 2.61855258941650390000e+001) (34, 6.93663406372070310000e+001) (35, 1.55802288055419920000e+001) (36, 2.08376998901367190000e+001) (37, 5.06849021911621090000e+001) (38, 8.99560165405273440000e+000) (39, 1.08115005493164060000e+001) (40, 1.24408035278320310000e+001) (41, 2.46125106811523440000e+001) (42, 4.79990615844726560000e+001) (43, 1.37177486419677730000e+001) (44, 1.51305322647094730000e+001) (45, 1.95155906677246090000e+001) (46, 6.95283508300781250000e+000) (47, -1.38272714614868160000e+000) (48, 2.96411285400390630000e+001) (49, 1.16925643920898440000e+002) (50, 2.23555374145507810000e+001) (51, 6.50405426025390630000e+001) (52, 6.33013267517089840000e+001) (53, 1.39798946380615230000e+001) (54, 3.01267070770263670000e+001) (55, 1.92074089050292970000e+001) (56, 7.13752555847167970000e+000) (57, 4.57047348022460940000e+001) (58, 7.02924575805664060000e+001) (59, 1.90837326049804690000e+001) (60, 1.81890525817871090000e+001) (61, 1.80507965087890630000e+001) (62, 1.89473609924316410000e+001) (63, 1.78646659851074220000e+001) (64, 5.36776885986328120000e+001) (0, 1.72326731681823730000e+000) (1, 1.17242491245269780000e+000) (2, 1.71017217636108400000e+000) (3, 3.79142475128173830000e+000) (4, 2.57806158065795900000e+000) (5, 1.74528789520263670000e+000) (6, 3.51261591911315920000e+000) (7, 2.20449662208557130000e+000) (8, 8.46058130264282230000e-001) (9, 8.65930080413818360000e-001) (10, 1.29699051380157470000e-001) (11, 1.50600063800811770000e+000) (12, 6.57674610614776610000e-001) (13, 1.56903326511383060000e+000) (14, 1.66797816753387450000e+000) (15, 1.42642712593078610000e+000) (16, 6.98821067810058590000e-001) (17, 3.49482440948486330000e+000) (18, 1.27015364170074460000e+000) (19, 1.17141842842102050000e+000) (20, 1.48415207862854000000e+000) (21, 1.93199729919433590000e+000) (22, 1.16086769104003910000e+000) (23, 9.50736761093139650000e-001) (24, 1.06049612164497380000e-001) (25, 5.81296145915985110000e-001) (26, 1.23640072345733640000e+000) (27, 1.02639377117156980000e+000) (28, 1.47320842742919920000e+000) (29, 1.04889464378356930000e+000) (30, 8.85654926300048830000e-001) (31, 7.99461841583251950000e-001) (32, 1.16528081893920900000e+000) (33, 8.93621802330017090000e-001) (34, 1.17607331275939940000e+000) (35, 1.17107713222503660000e+000) (36, 9.97985661029815670000e-001) (37, 2.33144021034240720000e+000) (38, 1.02402329444885250000e+000) (39, 1.23942005634307860000e+000) (40, 1.78212976455688480000e+000) (41, 1.27583432197570800000e+000) (42, 1.34572279453277590000e+000) (43, 1.27429151535034180000e+000) (44, 1.57864665985107420000e+000) (45, 1.44003045558929440000e+000) (46, 1.07878303527832030000e+000) (47, 9.72545266151428220000e-001) (48, 8.07995557785034180000e-001) (49, 1.01203775405883790000e+000) (50, 1.21499407291412350000e+000) (51, 1.86667418479919430000e+000) (52, 1.50710570812225340000e+000) (53, 6.09474372863769530000e+000) (54, 1.56192040443420410000e+000) (55, 7.92030394077301030000e-001) (56, 1.70416021347045900000e+000) (57, 9.67381477355957030000e-001) (58, 1.63770031929016110000e+000) (59, 2.66458582878112790000e+000) (60, 2.52689480781555180000e+000) (61, 1.65363144874572750000e+000) (62, 3.15125250816345210000e+000) (63, 2.09381508827209470000e+000) (64, -9.20281600952148440000e+000) (0, 9.28397774696350100000e-001) (1, 8.97023856639862060000e-001) (2, 1.30529375076293950000e+001) (3, 1.29575128555297850000e+001) (4, -3.84572625160217290000e+000) (5, 6.67247486114501950000e+000) (6, -8.44500839710235600000e-001) (7, 6.75696015357971190000e-001) (8, 8.47909355163574220000e+000) (9, 1.30560672283172610000e+000) (10, -2.90723152160644530000e+001) (11, -3.07244324684143070000e+000) (12, 5.34530448913574220000e+000) (13, -1.34975452423095700000e+001) (14, -2.05326581001281740000e+000) (15, 1.12458693981170650000e+000) (16, -1.68791949748992920000e+000) (17, 2.38304702758789060000e+002) (18, 6.63271248340606690000e-001) (19, -1.19242538452148440000e+002) (20, -1.14518032073974610000e+001) (21, 2.73925900459289550000e+000) (22, -4.06059646606445310000e+000) (23, -2.48783278465271000000e+000) (24, -6.20135498046875000000e+000) (25, -2.42325714111328120000e+002) (26, -2.01988277435302730000e+001) (27, -1.47614852905273440000e+002) (28, -1.24758087158203120000e+002) (29, -2.71024608612060550000e+001) (30, -5.48083305358886720000e+001) (31, -3.34698820114135740000e+000) (32, -6.92230773925781250000e+002) (33, -2.68212158203125000000e+002) (34, -2.63050170898437500000e+002) (35, -2.66308685302734370000e+002) (36, -5.19740562438964840000e+001) (37, -4.94765869140625000000e+002) (38, -9.85445938110351560000e+001) (39, -6.85157775878906250000e+001) (40, 6.95199608802795410000e-001) (41, -1.12925982475280760000e+000) (42, -1.04243980407714840000e+002) (43, -2.20167903900146480000e+001) (44, -1.82931785583496090000e+001) (45, -2.47801727294921870000e+002) (46, -3.00625076293945310000e+001) (47, 1.59771995544433590000e+001) (48, -5.27290420532226560000e+001) (49, -2.45230773925781250000e+002) (50, -2.69289321899414060000e+001) (51, -1.13290987014770510000e+001) (52, -1.98192558288574220000e+001) (53, -6.38956718444824220000e+001) (54, 8.84771287441253660000e-001) (55, -4.58957862854003910000e+001) (56, -1.42470993041992190000e+002) (57, -8.87016773223876950000e+000) (58, -4.67149124145507810000e+001) (59, -5.70660781860351560000e+000) (60, -7.82171535491943360000e+000) (61, -5.12327232360839840000e+001) (62, -2.38074264526367190000e+001) (63, -1.98705654144287110000e+001) (64, 4.36865043640136720000e+001) (0, 6.77304625511169430000e-001) (1, 8.58481466770172120000e-001) (2, -4.75720405578613280000e+000) (3, -3.15291357040405270000e+000) (4, 6.44295454025268550000e+000) (5, -3.05946063995361330000e+000) (6, 7.34595441818237300000e+000) (7, 6.03501272201538090000e+000) (8, -5.73887348175048830000e+000) (9, 5.11293821036815640000e-002) (10, 2.58067340850830080000e+001) (11, 2.34765267372131350000e+000) (12, -2.56717133522033690000e+000) (13, 5.84285879135131840000e+000) (14, 4.34956407546997070000e+000) (15, 2.70703744888305660000e+000) (16, 2.15145778656005860000e+000) (17, -9.59302520751953130000e+001) (18, 1.52640247344970700000e+000) (19, 3.11796045303344730000e+000) (20, 7.22282648086547850000e+000) (21, -4.39591789245605470000e+000) (22, 3.60970354080200200000e+000) (23, 1.28401727676391600000e+001) (24, 6.64910602569580080000e+000) (25, 4.67220458984375000000e+001) (26, 8.27886581420898440000e+000) (27, 3.45519828796386720000e+001) (28, 2.46841468811035160000e+001) (29, 2.35634212493896480000e+001) (30, 2.35222988128662110000e+001) (31, 1.38975238800048830000e+001) (32, 1.85803497314453120000e+002) (33, 4.39456520080566410000e+001) (34, 4.83818778991699220000e+001) (35, 2.12110843658447270000e+001) (36, 4.63331756591796880000e+001) (37, 2.55713241577148440000e+002) (38, 4.08545684814453130000e+001) (39, 1.14967937469482420000e+001) (40, 3.29724311828613280000e+001) (41, 4.86623344421386720000e+001) (42, 4.92453613281250000000e+002) (43, 1.23441856384277340000e+002) (44, 2.58817047119140620000e+002) (45, 1.17599510192871090000e+002) (46, 9.48283157348632810000e+001) (47, -1.31392002105712890000e+001) (48, 1.05543060302734370000e+002) (49, 4.84209747314453120000e+002) (50, 2.45898345947265620000e+002) (51, 6.75289916992187500000e+001) (52, 1.09316184997558590000e+002) (53, 2.68464221954345700000e+001) (54, 1.47010711669921870000e+002) (55, 1.10669937133789060000e+002) (56, 2.64130462646484370000e+002) (57, 1.13388221740722660000e+002) (58, 7.43043945312500000000e+002) (59, 3.27037200927734380000e+001) (60, 8.07235717773437500000e+001) (61, 1.28168823242187500000e+002) (62, 2.64054626464843750000e+002) (63, 6.28068447113037110000e-001) (64, -3.79818954467773440000e+001) (0, -7.77130722999572750000e-001) (1, 1.82700419425964360000e+000) (2, 9.42278003692626950000e+000) (3, 3.66132926940917970000e+001) (4, -3.19523763656616210000e+000) (5, 7.20043945312500000000e+000) (6, -2.97469162940979000000e+000) (7, 1.63456416130065920000e+000) (8, 8.16702938079833980000e+000) (9, -3.13044250011444090000e-001) (10, -2.84298629760742190000e+001) (11, -8.20258557796478270000e-001) (12, 8.03030133247375490000e-001) (13, -1.31292545795440670000e+000) (14, 3.16097408533096310000e-001) (15, -5.55955767631530760000e-001) (16, -1.67880094051361080000e+000) (17, 2.34817337036132810000e+002) (18, 2.70034384727478030000e+000) (19, -2.09125652313232420000e+001) (20, -3.88296294212341310000e+000) (21, 6.11936473846435550000e+000) (22, -1.09681175231933590000e+002) (23, 2.42368698120117190000e-001) (24, -1.60323696136474610000e+001) (25, -2.39986480712890620000e+002) (26, -1.90191631317138670000e+001) (27, -2.67201461791992190000e+001) (28, -5.71878471374511720000e+001) (29, -9.88264656066894530000e+000) (30, -4.92528953552246090000e+001) (31, -2.63060140609741210000e+000) (32, -8.18862304687500000000e+001) (33, -5.94449340820312500000e+002) (34, -2.86608856201171870000e+002) (35, -1.69183788299560550000e+001) (36, -1.08306083679199220000e+002) (37, -1.00623451232910160000e+002) (38, -8.04303161621093750000e+002) (39, -2.84527645111083980000e+001) (40, -1.56274887084960940000e+002) (41, -8.57594788074493410000e-001) (42, -4.58292388916015630000e+001) (43, -2.57035552978515620000e+002) (44, -3.89213218688964840000e+001) (45, -7.99247436523437500000e+001) (46, -3.11633605957031250000e+001) (47, -2.78511009216308590000e+001) (48, -2.36592979431152340000e+001) (49, -1.01493377685546870000e+002) (50, -1.49262008666992190000e+002) (51, -4.09724807739257810000e+000) (52, -4.55892677307128910000e+001) (53, -1.37628341674804690000e+002) (54, -5.45442543029785160000e+001) (55, -1.00980911254882810000e+002) (56, -2.76594085693359380000e+001) (57, -4.58532409667968750000e+001) (58, -1.02548759460449220000e+002) (59, -1.52401418685913090000e+001) (60, -5.79619836807250980000e+000) (61, -2.30906581878662110000e+001) (62, -2.55271873474121090000e+001) (63, -1.10218439102172850000e+001) (64, 4.57641935348510740000e+000) (0, 1.31957972049713130000e+000) (1, 8.19953739643096920000e-001) (2, -7.28964996337890620000e+000) (3, -2.33195770263671870000e+002) (4, 8.34046459197998050000e+000) (5, 1.01998329162597660000e-001) (6, 6.36408662796020510000e+000) (7, -1.32421150803565980000e-001) (8, -6.39383316040039060000e+000) (9, 1.21480011940002440000e+000) (10, 2.65847816467285160000e+001) (11, 2.61981892585754390000e+000) (12, 5.73187446594238280000e+000) (13, 4.70367622375488280000e+000) (14, 5.84798336029052730000e+000) (15, -4.30555152893066410000e+000) (16, 5.49602365493774410000e+000) (17, -2.34908798217773440000e+002) (18, 4.34529829025268550000e+000) (19, 4.55916023254394530000e+001) (20, 9.96199321746826170000e+000) (21, 1.57203423976898190000e+000) (22, 5.26825189590454100000e+000) (23, 3.31236228942871090000e+001) (24, 8.86483001708984370000e+000) (25, 2.14662265777587890000e+001) (26, 3.31424427032470700000e+000) (27, 1.80010948181152340000e+001) (28, 2.73642997741699220000e+001) (29, 1.23993206024169920000e+001) (30, 2.70802307128906250000e+002) (31, 1.18128023147583010000e+001) (32, 3.35808181762695310000e+000) (33, 2.03248043060302730000e+001) (34, 5.19570302963256840000e+000) (35, 1.89187297821044920000e+001) (36, 2.67417053222656250000e+002) (37, 1.67402279376983640000e+000) (38, 1.71015560626983640000e+000) (39, 2.37694120407104490000e+000) (40, 6.57180666923522950000e-001) (41, 9.48112547397613530000e-001) (42, 6.33896732330322270000e+000) (43, 9.40383815765380860000e+000) (44, 8.17774677276611330000e+000) (45, 1.92005958557128910000e+001) (46, 1.07461481094360350000e+001) (47, -1.19136762619018550000e+000) (48, 5.12832183837890630000e+001) (49, 1.19287628173828120000e+002) (50, 9.74196815490722660000e+000) (51, 1.26463117599487300000e+001) (52, 4.46355781555175780000e+001) (53, 1.05352287292480470000e+002) (54, 1.75747942924499510000e+000) (55, 3.78190856933593750000e+002) (56, 3.63075622558593750000e+002) (57, 8.80391788482666020000e+000) (58, 1.03713541030883790000e+001) (59, 4.65610599517822270000e+000) (60, 2.76248526573181150000e+000) (61, 3.27089643478393550000e+000) (62, 2.99162597656250000000e+001) (63, 7.52460622787475590000e+000) (64, 7.18236923217773440000e+001) (0, 2.96619343757629390000e+000) (1, 1.83573687076568600000e+000) (2, 2.46510362625122070000e+000) (3, 3.05388259887695310000e+000) (4, 3.67736911773681640000e+000) (5, 2.29641866683959960000e+000) (6, 4.06953191757202150000e+000) (7, 2.61502051353454590000e+000) (8, 1.55749213695526120000e+000) (9, 2.13683915138244630000e+000) (10, 5.29274225234985350000e+000) (11, 2.25196862220764160000e+000) (12, 5.05604505538940430000e+000) (13, 1.31925904750823970000e+000) (14, 2.07440304756164550000e+000) (15, 1.26665401458740230000e+000) (16, 1.69320118427276610000e+000) (17, 1.41909360885620120000e+000) (18, 2.23204708099365230000e+000) (19, 1.92106783390045170000e+000) (20, 1.47684168815612790000e+000) (21, 1.81209182739257810000e+000) (22, 1.00178599357604980000e+000) (23, 9.14476215839385990000e-001) (24, 3.00449419021606450000e+000) (25, 1.20848321914672850000e+000) (26, 1.56451308727264400000e+000) (27, 1.73222446441650390000e+000) (28, 1.20343422889709470000e+000) (29, 1.57434892654418950000e+000) (30, 5.82874774932861330000e-001) (31, 1.31726717948913570000e+000) (32, -1.16096496582031250000e-001) (33, 8.99320721626281740000e-001) (34, 9.67162430286407470000e-001) (35, 8.05087745189666750000e-001) (36, 9.82661068439483640000e-001) (37, -8.38257849216461180000e-001) (38, 9.33393239974975590000e-001) (39, 5.61468064785003660000e-001) (40, -1.01295614242553710000e+000) (41, 7.49584197998046880000e-001) (42, 1.28233885765075680000e+000) (43, 8.23870480060577390000e-001) (44, 8.87863934040069580000e-001) (45, 1.53415811061859130000e+000) (46, 1.35970473289489750000e+000) (47, 1.05577290058135990000e+000) (48, -7.50479623675346370000e-002) (49, 2.52700775861740110000e-001) (50, 3.13554704189300540000e-002) (51, 1.35114812850952150000e+000) (52, 1.63643074035644530000e+000) (53, -2.06477546691894530000e+000) (54, 8.51020753383636470000e-001) (55, 2.30018281936645510000e+000) (56, 1.04306864738464360000e+000) (57, 1.64853739738464360000e+000) (58, 1.12964391708374020000e+000) (59, 2.32973980903625490000e+000) (60, 2.14799690246582030000e+000) (61, 1.40012562274932860000e+000) (62, 2.97665715217590330000e+000) (63, 1.78368401527404790000e+000) (64, 1.82086515426635740000e+000) (0, 9.90908503532409670000e-001) (1, 1.58522510528564450000e+000) (2, 4.95176391601562500000e+001) (3, 9.72672958374023440000e+001) (4, -2.08819818496704100000e+000) (5, 7.92825508117675780000e+000) (6, -3.11834168434143070000e+000) (7, 1.54325485229492190000e+000) (8, 6.79080581665039060000e+000) (9, -6.72808289527893070000e-001) (10, -2.63057613372802730000e+001) (11, 8.47457766532897950000e-001) (12, 1.34439551830291750000e+000) (13, -6.57817173004150390000e+000) (14, -9.81366515159606930000e-001) (15, 1.26982200145721440000e+000) (16, -4.77837657928466800000e+000) (17, 9.84755401611328130000e+001) (18, 2.24478030204772950000e+000) (19, -6.95273399353027340000e+000) (20, -1.71565933227539060000e+001) (21, 8.44066143035888670000e+000) (22, -5.46523237228393550000e+000) (23, -6.11057519912719730000e-001) (24, -1.24591073989868160000e+001) (25, -1.03088996887207030000e+002) (26, -1.91428623199462890000e+001) (27, -1.31496229171752930000e+001) (28, -1.27057769775390620000e+002) (29, -2.80720767974853520000e+001) (30, -5.29148376464843750000e+002) (31, -6.93211698532104490000e+000) (32, -2.83529758453369140000e+001) (33, -4.84897727966308590000e+001) (34, -2.14876422882080080000e+001) (35, -2.96015014648437500000e+002) (36, -2.52206283569335940000e+002) (37, -2.02714958190917970000e+001) (38, -4.75958068847656250000e+002) (39, -4.45184469223022460000e+000) (40, -1.26164710521698000000e+000) (41, -1.60325679779052730000e+001) (42, -4.86796264648437500000e+001) (43, -2.59132263183593750000e+002) (44, -1.29858322143554690000e+002) (45, -7.41205368041992190000e+001) (46, -7.77094650268554690000e+001) (47, -9.21821365356445310000e+001) (48, -4.97349319458007810000e+001) (49, -1.12137496948242190000e+002) (50, -9.10683751106262210000e-001) (51, -7.39631843566894530000e+000) (52, -1.02960929870605470000e+002) (53, -5.05935935974121090000e+001) (54, -5.44705619812011720000e+001) (55, -2.31514739990234380000e+001) (56, -4.36466026306152340000e+001) (57, -4.67284679412841800000e-001) (58, -4.87498588562011720000e+001) (59, -1.09118518829345700000e+001) (60, -6.06846275329589840000e+001) (61, -1.30522813796997070000e+001) (62, -1.71756229400634770000e+001) (63, -1.79480705261230470000e+001) (64, 7.29743423461914060000e+001) (0, -5.35022020339965820000e+000) (1, 1.00211650133132930000e-001) (2, -3.78901767730712890000e+000) (3, -2.05174407958984380000e+001) (4, 1.99485325813293460000e+000) (5, -3.79466438293457030000e+000) (6, 6.49288702011108400000e+000) (7, 7.66708552837371830000e-001) (8, -5.26723766326904300000e+000) (9, 2.06600499153137210000e+000) (10, 2.49042415618896480000e+001) (11, 3.38462114334106450000e+000) (12, 4.86797857284545900000e+000) (13, 2.06475543975830080000e+000) (14, 1.91186213493347170000e+000) (15, -7.00196146965026860000e-001) (16, 2.65775299072265620000e+000) (17, 5.95904827117919920000e+000) (18, 8.99100244045257570000e-001) (19, 2.89793109893798830000e+000) (20, 2.02737998962402340000e+000) (21, -3.71614551544189450000e+000) (22, 2.62635207176208500000e+000) (23, 3.01205253601074220000e+000) (24, 6.45101928710937500000e+000) (25, 2.05271244049072270000e+000) (26, 6.66765332221984860000e-001) (27, 2.61357426643371580000e+000) (28, 1.30980443954467770000e+000) (29, 3.49765157699584960000e+000) (30, 2.99339747428894040000e+000) (31, 2.10280013084411620000e+000) (32, 7.32059538364410400000e-001) (33, 1.15091872215271000000e+000) (34, 2.86601972579956050000e+000) (35, 2.19649243354797360000e+000) (36, 2.30779409408569340000e+000) (37, -1.59325027465820310000e+000) (38, -5.21929442882537840000e-001) (39, 7.94169783592224120000e-001) (40, -1.21974766254425050000e+000) (41, -1.19985377788543700000e+000) (42, 3.29163169860839840000e+000) (43, 9.53753232955932620000e-001) (44, -2.04867386817932130000e+000) (45, 6.41219329833984370000e+000) (46, 4.33024108409881590000e-001) (47, -5.98608016967773440000e+000) (48, 3.86159586906433110000e+000) (49, 2.25724601745605470000e+000) (50, -1.12407827377319340000e+000) (51, 1.98784351348876950000e+000) (52, 2.90544748306274410000e+000) (53, 3.04362273216247560000e+000) (54, -5.97920060157775880000e-001) (55, 2.50925111770629880000e+000) (56, 2.23231239318847660000e+001) (57, 3.86827015876770020000e+000) (58, 6.24120998382568360000e+000) (59, 2.61728153228759770000e+001) (60, 2.38599071502685550000e+001) (61, 3.73150062561035160000e+000) (62, 3.61106228828430180000e+000) (63, 4.42144346237182620000e+000) (64, 7.51331663131713870000e+000) (65, 4.00530672073364260000e+000) (66, 1.44358339309692380000e+001) (67, 1.15372753143310550000e+001) (68, 1.20588197708129880000e+001) (69, 9.06228065490722660000e+000) (70, -6.30100786685943600000e-001) (71, 1.16010055541992190000e+001) (72, -8.63928031921386720000e+000) (73, 2.35533847808837890000e+001) (74, 3.95956659317016600000e+000) (75, 6.88350057601928710000e+000) (76, 9.49025630950927730000e+000) (77, 6.74816207885742190000e+001) (78, -3.20159292221069340000e+000) (79, 2.73384475708007810000e+000) (80, -3.19226145744323730000e+000) (81, 2.54093337059021000000e+000) (82, 9.76138992309570310000e+001) (83, -5.94910049438476560000e+000) (84, 2.56972084045410160000e+001) (85, 4.70102615356445310000e+001) 
